digraph Tree {
node [shape=box, style="rounded", color="black", fontname=helvetica] ;
edge [fontname=helvetica] ;
0 [label="free sulfur dioxide <= 13.5\ngini = 0.6\nsamples = 2154\nvalue = [1125, 1531, 772]"] ;
1 [label="residual sugar <= 1.4\ngini = 0.5\nsamples = 182\nvalue = [153, 93, 22]"] ;
0 -> 1 [labeldistance=2.5, labelangle=45, headlabel="True"] ;
2 [label="alcohol <= 11.5\ngini = 0.4\nsamples = 59\nvalue = [63, 16, 3]"] ;
1 -> 2 ;
3 [label="gini = 0.3\nsamples = 54\nvalue = [63, 11, 3]"] ;
2 -> 3 ;
4 [label="gini = 0.0\nsamples = 5\nvalue = [0, 5, 0]"] ;
2 -> 4 ;
5 [label="chlorides <= 0.0\ngini = 0.6\nsamples = 123\nvalue = [90, 77, 19]"] ;
1 -> 5 ;
6 [label="gini = 0.6\nsamples = 13\nvalue = [5, 6, 12]"] ;
5 -> 6 ;
7 [label="gini = 0.5\nsamples = 110\nvalue = [85, 71, 7]"] ;
5 -> 7 ;
8 [label="residual sugar <= 6.4\ngini = 0.6\nsamples = 1972\nvalue = [972, 1438, 750]"] ;
0 -> 8 [labeldistance=2.5, labelangle=-45, headlabel="False"] ;
9 [label="volatile acidity <= 0.3\ngini = 0.6\nsamples = 1055\nvalue = [386, 788, 513]"] ;
8 -> 9 ;
10 [label="gini = 0.6\nsamples = 576\nvalue = [133, 485, 294]"] ;
9 -> 10 ;
11 [label="gini = 0.7\nsamples = 479\nvalue = [253, 303, 219]"] ;
9 -> 11 ;
12 [label="chlorides <= 0.0\ngini = 0.6\nsamples = 917\nvalue = [586, 650, 237]"] ;
8 -> 12 ;
13 [label="gini = 0.6\nsamples = 245\nvalue = [94, 190, 116]"] ;
12 -> 13 ;
14 [label="gini = 0.6\nsamples = 672\nvalue = [492, 460, 121]"] ;
12 -> 14 ;
}