digraph Tree {
node [shape=box, style="rounded", color="black", fontname=helvetica] ;
edge [fontname=helvetica] ;
0 [label="citric acid <= 0.2\ngini = 0.7\nsamples = 3338\nvalue = [159, 191, 2253, 827, 1767]"] ;
1 [label="total sulfur dioxide <= 192.5\ngini = 0.6\nsamples = 740\nvalue = [5, 83, 464, 78, 555]"] ;
0 -> 1 [labeldistance=2.5, labelangle=45, headlabel="True"] ;
2 [label="alcohol <= 10.3\ngini = 0.6\nsamples = 700\nvalue = [5, 80, 454, 78, 504]"] ;
1 -> 2 ;
3 [label="density <= 1.0\ngini = 0.5\nsamples = 433\nvalue = [0, 48, 228, 11, 415]"] ;
2 -> 3 ;
4 [label="sulphates <= 0.4\ngini = 0.5\nsamples = 428\nvalue = [0, 48, 219, 11, 415]"] ;
3 -> 4 ;
5 [label="volatile acidity <= 0.3\ngini = 0.6\nsamples = 44\nvalue = [0, 17, 37, 0, 19]"] ;
4 -> 5 ;
6 [label="free sulfur dioxide <= 24.5\ngini = 0.4\nsamples = 18\nvalue = [0, 1, 22, 0, 7]"] ;
5 -> 6 ;
7 [label="density <= 1.0\ngini = 0.4\nsamples = 6\nvalue = [0, 1, 1, 0, 6]"] ;
6 -> 7 ;
8 [label="gini = 0.0\nsamples = 1\nvalue = [0, 0, 1, 0, 0]"] ;
7 -> 8 ;
9 [label="pH <= 3.3\ngini = 0.2\nsamples = 5\nvalue = [0, 1, 0, 0, 6]"] ;
7 -> 9 ;
10 [label="free sulfur dioxide <= 10.0\ngini = 0.4\nsamples = 2\nvalue = [0, 1, 0, 0, 2]"] ;
9 -> 10 ;
11 [label="gini = 0.0\nsamples = 1\nvalue = [0, 1, 0, 0, 0]"] ;
10 -> 11 ;
12 [label="gini = 0.0\nsamples = 1\nvalue = [0, 0, 0, 0, 2]"] ;
10 -> 12 ;
13 [label="gini = 0.0\nsamples = 3\nvalue = [0, 0, 0, 0, 4]"] ;
9 -> 13 ;
14 [label="pH <= 3.2\ngini = 0.1\nsamples = 12\nvalue = [0, 0, 21, 0, 1]"] ;
6 -> 14 ;
15 [label="gini = 0.0\nsamples = 9\nvalue = [0, 0, 18, 0, 0]"] ;
14 -> 15 ;
16 [label="fixed acidity <= 7.0\ngini = 0.4\nsamples = 3\nvalue = [0, 0, 3, 0, 1]"] ;
14 -> 16 ;
17 [label="gini = 0.0\nsamples = 2\nvalue = [0, 0, 3, 0, 0]"] ;
16 -> 17 ;
18 [label="gini = 0.0\nsamples = 1\nvalue = [0, 0, 0, 0, 1]"] ;
16 -> 18 ;
19 [label="density <= 1.0\ngini = 0.7\nsamples = 26\nvalue = [0, 16, 15, 0, 12]"] ;
5 -> 19 ;
20 [label="sulphates <= 0.3\ngini = 0.6\nsamples = 21\nvalue = [0, 15, 15, 0, 6]"] ;
19 -> 20 ;
21 [label="gini = 0.0\nsamples = 2\nvalue = [0, 4, 0, 0, 0]"] ;
20 -> 21 ;
22 [label="chlorides <= 0.1\ngini = 0.6\nsamples = 19\nvalue = [0, 11, 15, 0, 6]"] ;
20 -> 22 ;
23 [label="pH <= 3.2\ngini = 0.5\nsamples = 12\nvalue = [0, 1, 11, 0, 6]"] ;
22 -> 23 ;
24 [label="alcohol <= 9.1\ngini = 0.3\nsamples = 6\nvalue = [0, 0, 9, 0, 2]"] ;
23 -> 24 ;
25 [label="gini = 0.0\nsamples = 2\nvalue = [0, 0, 0, 0, 2]"] ;
24 -> 25 ;
26 [label="gini = 0.0\nsamples = 4\nvalue = [0, 0, 9, 0, 0]"] ;
24 -> 26 ;
27 [label="alcohol <= 9.4\ngini = 0.6\nsamples = 6\nvalue = [0, 1, 2, 0, 4]"] ;
23 -> 27 ;
28 [label="gini = 0.0\nsamples = 1\nvalue = [0, 1, 0, 0, 0]"] ;
27 -> 28 ;
29 [label="volatile acidity <= 0.4\ngini = 0.4\nsamples = 5\nvalue = [0, 0, 2, 0, 4]"] ;
27 -> 29 ;
30 [label="gini = 0.0\nsamples = 3\nvalue = [0, 0, 0, 0, 4]"] ;
29 -> 30 ;
31 [label="gini = 0.0\nsamples = 2\nvalue = [0, 0, 2, 0, 0]"] ;
29 -> 31 ;
32 [label="alcohol <= 9.4\ngini = 0.4\nsamples = 7\nvalue = [0, 10, 4, 0, 0]"] ;
22 -> 32 ;
33 [label="fixed acidity <= 6.2\ngini = 0.4\nsamples = 4\nvalue = [0, 2, 4, 0, 0]"] ;
32 -> 33 ;
34 [label="gini = 0.0\nsamples = 1\nvalue = [0, 2, 0, 0, 0]"] ;
33 -> 34 ;
35 [label="gini = 0.0\nsamples = 3\nvalue = [0, 0, 4, 0, 0]"] ;
33 -> 35 ;
36 [label="gini = 0.0\nsamples = 3\nvalue = [0, 8, 0, 0, 0]"] ;
32 -> 36 ;
37 [label="volatile acidity <= 0.4\ngini = 0.2\nsamples = 5\nvalue = [0, 1, 0, 0, 6]"] ;
19 -> 37 ;
38 [label="pH <= 3.2\ngini = 0.5\nsamples = 2\nvalue = [0, 1, 0, 0, 1]"] ;
37 -> 38 ;
39 [label="gini = 0.0\nsamples = 1\nvalue = [0, 1, 0, 0, 0]"] ;
38 -> 39 ;
40 [label="gini = 0.0\nsamples = 1\nvalue = [0, 0, 0, 0, 1]"] ;
38 -> 40 ;
41 [label="gini = 0.0\nsamples = 3\nvalue = [0, 0, 0, 0, 5]"] ;
37 -> 41 ;
42 [label="residual sugar <= 15.8\ngini = 0.5\nsamples = 384\nvalue = [0, 31, 182, 11, 396]"] ;
4 -> 42 ;
43 [label="pH <= 3.1\ngini = 0.5\nsamples = 366\nvalue = [0, 31, 161, 11, 388]"] ;
42 -> 43 ;
44 [label="chlorides <= 0.1\ngini = 0.5\nsamples = 16\nvalue = [0, 0, 17, 0, 10]"] ;
43 -> 44 ;
45 [label="citric acid <= 0.2\ngini = 0.1\nsamples = 8\nvalue = [0, 0, 13, 0, 1]"] ;
44 -> 45 ;
46 [label="gini = 0.0\nsamples = 6\nvalue = [0, 0, 11, 0, 0]"] ;
45 -> 46 ;
47 [label="sulphates <= 0.5\ngini = 0.4\nsamples = 2\nvalue = [0, 0, 2, 0, 1]"] ;
45 -> 47 ;
48 [label="gini = 0.0\nsamples = 1\nvalue = [0, 0, 0, 0, 1]"] ;
47 -> 48 ;
49 [label="gini = 0.0\nsamples = 1\nvalue = [0, 0, 2, 0, 0]"] ;
47 -> 49 ;
50 [label="volatile acidity <= 0.2\ngini = 0.4\nsamples = 8\nvalue = [0, 0, 4, 0, 9]"] ;
44 -> 50 ;
51 [label="gini = 0.0\nsamples = 2\nvalue = [0, 0, 4, 0, 0]"] ;
50 -> 51 ;
52 [label="gini = 0.0\nsamples = 6\nvalue = [0, 0, 0, 0, 9]"] ;
50 -> 52 ;
53 [label="volatile acidity <= 0.7\ngini = 0.5\nsamples = 350\nvalue = [0, 31, 144, 11, 378]"] ;
43 -> 53 ;
54 [label="wine_type_red <= 0.5\ngini = 0.5\nsamples = 258\nvalue = [0, 13, 123, 10, 258]"] ;
53 -> 54 ;
55 [label="density <= 1.0\ngini = 0.4\nsamples = 125\nvalue = [0, 9, 39, 4, 141]"] ;
54 -> 55 ;
56 [label="sulphates <= 0.6\ngini = 0.4\nsamples = 119\nvalue = [0, 5, 38, 4, 138]"] ;
55 -> 56 ;
57 [label="residual sugar <= 1.1\ngini = 0.3\nsamples = 109\nvalue = [0, 5, 29, 1, 132]"] ;
56 -> 57 ;
58 [label="pH <= 3.1\ngini = 0.6\nsamples = 6\nvalue = [0, 1, 5, 0, 3]"] ;
57 -> 58 ;
59 [label="gini = 0.0\nsamples = 2\nvalue = [0, 0, 4, 0, 0]"] ;
58 -> 59 ;
60 [label="density <= 1.0\ngini = 0.6\nsamples = 4\nvalue = [0, 1, 1, 0, 3]"] ;
58 -> 60 ;
61 [label="fixed acidity <= 5.8\ngini = 0.5\nsamples = 2\nvalue = [0, 1, 1, 0, 0]"] ;
60 -> 61 ;
62 [label="gini = 0.0\nsamples = 1\nvalue = [0, 0, 1, 0, 0]"] ;
61 -> 62 ;
63 [label="gini = 0.0\nsamples = 1\nvalue = [0, 1, 0, 0, 0]"] ;
61 -> 63 ;
64 [label="gini = 0.0\nsamples = 2\nvalue = [0, 0, 0, 0, 3]"] ;
60 -> 64 ;
65 [label="fixed acidity <= 6.1\ngini = 0.3\nsamples = 103\nvalue = [0, 4, 24, 1, 129]"] ;
57 -> 65 ;
66 [label="fixed acidity <= 6.0\ngini = 0.5\nsamples = 30\nvalue = [0, 1, 17, 1, 29]"] ;
65 -> 66 ;
67 [label="density <= 1.0\ngini = 0.5\nsamples = 21\nvalue = [0, 1, 9, 1, 24]"] ;
66 -> 67 ;
68 [label="volatile acidity <= 0.2\ngini = 0.3\nsamples = 17\nvalue = [0, 1, 4, 1, 23]"] ;
67 -> 68 ;
69 [label="gini = 0.0\nsamples = 1\nvalue = [0, 0, 2, 0, 0]"] ;
68 -> 69 ;
70 [label="chlorides <= 0.1\ngini = 0.3\nsamples = 16\nvalue = [0, 1, 2, 1, 23]"] ;
68 -> 70 ;
71 [label="total sulfur dioxide <= 146.5\ngini = 0.2\nsamples = 15\nvalue = [0, 0, 2, 1, 23]"] ;
70 -> 71 ;
72 [label="volatile acidity <= 0.4\ngini = 0.1\nsamples = 11\nvalue = [0, 0, 0, 1, 17]"] ;
71 -> 72 ;
73 [label="gini = 0.0\nsamples = 9\nvalue = [0, 0, 0, 0, 15]"] ;
72 -> 73 ;
74 [label="pH <= 3.4\ngini = 0.4\nsamples = 2\nvalue = [0, 0, 0, 1, 2]"] ;
72 -> 74 ;
75 [label="gini = 0.0\nsamples = 1\nvalue = [0, 0, 0, 0, 2]"] ;
74 -> 75 ;
76 [label="gini = 0.0\nsamples = 1\nvalue = [0, 0, 0, 1, 0]"] ;
74 -> 76 ;
77 [label="free sulfur dioxide <= 35.0\ngini = 0.4\nsamples = 4\nvalue = [0, 0, 2, 0, 6]"] ;
71 -> 77 ;
78 [label="total sulfur dioxide <= 170.5\ngini = 0.2\nsamples = 3\nvalue = [0, 0, 1, 0, 6]"] ;
77 -> 78 ;
79 [label="volatile acidity <= 0.3\ngini = 0.3\nsamples = 2\nvalue = [0, 0, 1, 0, 5]"] ;
78 -> 79 ;
80 [label="gini = 0.0\nsamples = 1\nvalue = [0, 0, 0, 0, 5]"] ;
79 -> 80 ;
81 [label="gini = 0.0\nsamples = 1\nvalue = [0, 0, 1, 0, 0]"] ;
79 -> 81 ;
82 [label="gini = 0.0\nsamples = 1\nvalue = [0, 0, 0, 0, 1]"] ;
78 -> 82 ;
83 [label="gini = 0.0\nsamples = 1\nvalue = [0, 0, 1, 0, 0]"] ;
77 -> 83 ;
84 [label="gini = 0.0\nsamples = 1\nvalue = [0, 1, 0, 0, 0]"] ;
70 -> 84 ;
85 [label="citric acid <= 0.2\ngini = 0.3\nsamples = 4\nvalue = [0, 0, 5, 0, 1]"] ;
67 -> 85 ;
86 [label="gini = 0.0\nsamples = 2\nvalue = [0, 0, 3, 0, 0]"] ;
85 -> 86 ;
87 [label="chlorides <= 0.0\ngini = 0.4\nsamples = 2\nvalue = [0, 0, 2, 0, 1]"] ;
85 -> 87 ;
88 [label="gini = 0.0\nsamples = 1\nvalue = [0, 0, 2, 0, 0]"] ;
87 -> 88 ;
89 [label="gini = 0.0\nsamples = 1\nvalue = [0, 0, 0, 0, 1]"] ;
87 -> 89 ;
90 [label="chlorides <= 0.1\ngini = 0.5\nsamples = 9\nvalue = [0, 0, 8, 0, 5]"] ;
66 -> 90 ;
91 [label="chlorides <= 0.0\ngini = 0.4\nsamples = 8\nvalue = [0, 0, 8, 0, 3]"] ;
90 -> 91 ;
92 [label="gini = 0.0\nsamples = 2\nvalue = [0, 0, 3, 0, 0]"] ;
91 -> 92 ;
93 [label="sulphates <= 0.5\ngini = 0.5\nsamples = 6\nvalue = [0, 0, 5, 0, 3]"] ;
91 -> 93 ;
94 [label="density <= 1.0\ngini = 0.5\nsamples = 4\nvalue = [0, 0, 2, 0, 3]"] ;
93 -> 94 ;
95 [label="gini = 0.0\nsamples = 1\nvalue = [0, 0, 2, 0, 0]"] ;
94 -> 95 ;
96 [label="gini = 0.0\nsamples = 3\nvalue = [0, 0, 0, 0, 3]"] ;
94 -> 96 ;
97 [label="gini = 0.0\nsamples = 2\nvalue = [0, 0, 3, 0, 0]"] ;
93 -> 97 ;
98 [label="gini = 0.0\nsamples = 1\nvalue = [0, 0, 0, 0, 2]"] ;
90 -> 98 ;
99 [label="volatile acidity <= 0.2\ngini = 0.2\nsamples = 73\nvalue = [0, 3, 7, 0, 100]"] ;
65 -> 99 ;
100 [label="citric acid <= 0.2\ngini = 0.5\nsamples = 16\nvalue = [0, 2, 5, 0, 13]"] ;
99 -> 100 ;
101 [label="sulphates <= 0.5\ngini = 0.6\nsamples = 10\nvalue = [0, 2, 4, 0, 6]"] ;
100 -> 101 ;
102 [label="gini = 0.0\nsamples = 3\nvalue = [0, 0, 0, 0, 3]"] ;
101 -> 102 ;
103 [label="citric acid <= 0.2\ngini = 0.6\nsamples = 7\nvalue = [0, 2, 4, 0, 3]"] ;
101 -> 103 ;
104 [label="gini = 0.0\nsamples = 1\nvalue = [0, 0, 0, 0, 2]"] ;
103 -> 104 ;
105 [label="total sulfur dioxide <= 97.5\ngini = 0.6\nsamples = 6\nvalue = [0, 2, 4, 0, 1]"] ;
103 -> 105 ;
106 [label="gini = 0.0\nsamples = 1\nvalue = [0, 2, 0, 0, 0]"] ;
105 -> 106 ;
107 [label="pH <= 3.1\ngini = 0.3\nsamples = 5\nvalue = [0, 0, 4, 0, 1]"] ;
105 -> 107 ;
108 [label="gini = 0.0\nsamples = 1\nvalue = [0, 0, 0, 0, 1]"] ;
107 -> 108 ;
109 [label="gini = 0.0\nsamples = 4\nvalue = [0, 0, 4, 0, 0]"] ;
107 -> 109 ;
110 [label="alcohol <= 10.2\ngini = 0.2\nsamples = 6\nvalue = [0, 0, 1, 0, 7]"] ;
100 -> 110 ;
111 [label="gini = 0.0\nsamples = 5\nvalue = [0, 0, 0, 0, 7]"] ;
110 -> 111 ;
112 [label="gini = 0.0\nsamples = 1\nvalue = [0, 0, 1, 0, 0]"] ;
110 -> 112 ;
113 [label="sulphates <= 0.5\ngini = 0.1\nsamples = 57\nvalue = [0, 1, 2, 0, 87]"] ;
99 -> 113 ;
114 [label="volatile acidity <= 0.5\ngini = 0.2\nsamples = 23\nvalue = [0, 1, 2, 0, 29]"] ;
113 -> 114 ;
115 [label="fixed acidity <= 6.2\ngini = 0.1\nsamples = 22\nvalue = [0, 0, 2, 0, 29]"] ;
114 -> 115 ;
116 [label="gini = 0.0\nsamples = 1\nvalue = [0, 0, 1, 0, 0]"] ;
115 -> 116 ;
117 [label="pH <= 3.2\ngini = 0.1\nsamples = 21\nvalue = [0, 0, 1, 0, 29]"] ;
115 -> 117 ;
118 [label="gini = 0.0\nsamples = 16\nvalue = [0, 0, 0, 0, 25]"] ;
117 -> 118 ;
119 [label="alcohol <= 9.7\ngini = 0.3\nsamples = 5\nvalue = [0, 0, 1, 0, 4]"] ;
117 -> 119 ;
120 [label="fixed acidity <= 6.9\ngini = 0.5\nsamples = 2\nvalue = [0, 0, 1, 0, 1]"] ;
119 -> 120 ;
121 [label="gini = 0.0\nsamples = 1\nvalue = [0, 0, 1, 0, 0]"] ;
120 -> 121 ;
122 [label="gini = 0.0\nsamples = 1\nvalue = [0, 0, 0, 0, 1]"] ;
120 -> 122 ;
123 [label="gini = 0.0\nsamples = 3\nvalue = [0, 0, 0, 0, 3]"] ;
119 -> 123 ;
124 [label="gini = 0.0\nsamples = 1\nvalue = [0, 1, 0, 0, 0]"] ;
114 -> 124 ;
125 [label="gini = 0.0\nsamples = 34\nvalue = [0, 0, 0, 0, 58]"] ;
113 -> 125 ;
126 [label="free sulfur dioxide <= 36.0\ngini = 0.6\nsamples = 10\nvalue = [0, 0, 9, 3, 6]"] ;
56 -> 126 ;
127 [label="volatile acidity <= 0.4\ngini = 0.6\nsamples = 7\nvalue = [0, 0, 4, 3, 6]"] ;
126 -> 127 ;
128 [label="chlorides <= 0.0\ngini = 0.6\nsamples = 6\nvalue = [0, 0, 2, 3, 6]"] ;
127 -> 128 ;
129 [label="free sulfur dioxide <= 27.0\ngini = 0.6\nsamples = 3\nvalue = [0, 0, 2, 3, 1]"] ;
128 -> 129 ;
130 [label="gini = 0.0\nsamples = 1\nvalue = [0, 0, 0, 3, 0]"] ;
129 -> 130 ;
131 [label="free sulfur dioxide <= 31.0\ngini = 0.4\nsamples = 2\nvalue = [0, 0, 2, 0, 1]"] ;
129 -> 131 ;
132 [label="gini = 0.0\nsamples = 1\nvalue = [0, 0, 2, 0, 0]"] ;
131 -> 132 ;
133 [label="gini = 0.0\nsamples = 1\nvalue = [0, 0, 0, 0, 1]"] ;
131 -> 133 ;
134 [label="gini = 0.0\nsamples = 3\nvalue = [0, 0, 0, 0, 5]"] ;
128 -> 134 ;
135 [label="gini = 0.0\nsamples = 1\nvalue = [0, 0, 2, 0, 0]"] ;
127 -> 135 ;
136 [label="gini = 0.0\nsamples = 3\nvalue = [0, 0, 5, 0, 0]"] ;
126 -> 136 ;
137 [label="citric acid <= 0.2\ngini = 0.6\nsamples = 6\nvalue = [0, 4, 1, 0, 3]"] ;
55 -> 137 ;
138 [label="volatile acidity <= 0.3\ngini = 0.4\nsamples = 3\nvalue = [0, 3, 1, 0, 0]"] ;
137 -> 138 ;
139 [label="gini = 0.0\nsamples = 1\nvalue = [0, 0, 1, 0, 0]"] ;
138 -> 139 ;
140 [label="gini = 0.0\nsamples = 2\nvalue = [0, 3, 0, 0, 0]"] ;
138 -> 140 ;
141 [label="chlorides <= 0.1\ngini = 0.4\nsamples = 3\nvalue = [0, 1, 0, 0, 3]"] ;
137 -> 141 ;
142 [label="residual sugar <= 13.8\ngini = 0.4\nsamples = 2\nvalue = [0, 1, 0, 0, 2]"] ;
141 -> 142 ;
143 [label="gini = 0.0\nsamples = 1\nvalue = [0, 1, 0, 0, 0]"] ;
142 -> 143 ;
144 [label="gini = 0.0\nsamples = 1\nvalue = [0, 0, 0, 0, 2]"] ;
142 -> 144 ;
145 [label="gini = 0.0\nsamples = 1\nvalue = [0, 0, 0, 0, 1]"] ;
141 -> 145 ;
146 [label="total sulfur dioxide <= 58.5\ngini = 0.5\nsamples = 133\nvalue = [0, 4, 84, 6, 117]"] ;
54 -> 146 ;
147 [label="chlorides <= 0.1\ngini = 0.6\nsamples = 91\nvalue = [0, 3, 71, 6, 59]"] ;
146 -> 147 ;
148 [label="volatile acidity <= 0.6\ngini = 0.4\nsamples = 17\nvalue = [0, 0, 4, 1, 16]"] ;
147 -> 148 ;
149 [label="total sulfur dioxide <= 32.0\ngini = 0.3\nsamples = 15\nvalue = [0, 0, 3, 0, 16]"] ;
148 -> 149 ;
150 [label="gini = 0.0\nsamples = 8\nvalue = [0, 0, 0, 0, 11]"] ;
149 -> 150 ;
151 [label="citric acid <= 0.1\ngini = 0.5\nsamples = 7\nvalue = [0, 0, 3, 0, 5]"] ;
149 -> 151 ;
152 [label="gini = 0.0\nsamples = 3\nvalue = [0, 0, 3, 0, 0]"] ;
151 -> 152 ;
153 [label="gini = 0.0\nsamples = 4\nvalue = [0, 0, 0, 0, 5]"] ;
151 -> 153 ;
154 [label="residual sugar <= 1.6\ngini = 0.5\nsamples = 2\nvalue = [0, 0, 1, 1, 0]"] ;
148 -> 154 ;
155 [label="gini = 0.0\nsamples = 1\nvalue = [0, 0, 0, 1, 0]"] ;
154 -> 155 ;
156 [label="gini = 0.0\nsamples = 1\nvalue = [0, 0, 1, 0, 0]"] ;
154 -> 156 ;
157 [label="pH <= 3.4\ngini = 0.5\nsamples = 74\nvalue = [0, 3, 67, 5, 43]"] ;
147 -> 157 ;
158 [label="pH <= 3.3\ngini = 0.5\nsamples = 53\nvalue = [0, 2, 56, 4, 24]"] ;
157 -> 158 ;
159 [label="free sulfur dioxide <= 4.5\ngini = 0.5\nsamples = 17\nvalue = [0, 0, 12, 0, 14]"] ;
158 -> 159 ;
160 [label="gini = 0.0\nsamples = 3\nvalue = [0, 0, 5, 0, 0]"] ;
159 -> 160 ;
161 [label="alcohol <= 9.4\ngini = 0.4\nsamples = 14\nvalue = [0, 0, 7, 0, 14]"] ;
159 -> 161 ;
162 [label="sulphates <= 0.6\ngini = 0.5\nsamples = 5\nvalue = [0, 0, 5, 0, 3]"] ;
161 -> 162 ;
163 [label="gini = 0.0\nsamples = 3\nvalue = [0, 0, 0, 0, 3]"] ;
162 -> 163 ;
164 [label="gini = 0.0\nsamples = 2\nvalue = [0, 0, 5, 0, 0]"] ;
162 -> 164 ;
165 [label="sulphates <= 0.4\ngini = 0.3\nsamples = 9\nvalue = [0, 0, 2, 0, 11]"] ;
161 -> 165 ;
166 [label="gini = 0.0\nsamples = 1\nvalue = [0, 0, 1, 0, 0]"] ;
165 -> 166 ;
167 [label="alcohol <= 10.1\ngini = 0.2\nsamples = 8\nvalue = [0, 0, 1, 0, 11]"] ;
165 -> 167 ;
168 [label="gini = 0.0\nsamples = 7\nvalue = [0, 0, 0, 0, 11]"] ;
167 -> 168 ;
169 [label="gini = 0.0\nsamples = 1\nvalue = [0, 0, 1, 0, 0]"] ;
167 -> 169 ;
170 [label="sulphates <= 0.5\ngini = 0.4\nsamples = 36\nvalue = [0, 2, 44, 4, 10]"] ;
158 -> 170 ;
171 [label="gini = 0.0\nsamples = 2\nvalue = [0, 0, 0, 0, 2]"] ;
170 -> 171 ;
172 [label="volatile acidity <= 0.6\ngini = 0.4\nsamples = 34\nvalue = [0, 2, 44, 4, 8]"] ;
170 -> 172 ;
173 [label="fixed acidity <= 7.0\ngini = 0.2\nsamples = 18\nvalue = [0, 0, 29, 0, 3]"] ;
172 -> 173 ;
174 [label="fixed acidity <= 6.8\ngini = 0.4\nsamples = 6\nvalue = [0, 0, 6, 0, 3]"] ;
173 -> 174 ;
175 [label="chlorides <= 0.1\ngini = 0.4\nsamples = 5\nvalue = [0, 0, 6, 0, 2]"] ;
174 -> 175 ;
176 [label="gini = 0.0\nsamples = 2\nvalue = [0, 0, 3, 0, 0]"] ;
175 -> 176 ;
177 [label="residual sugar <= 1.9\ngini = 0.5\nsamples = 3\nvalue = [0, 0, 3, 0, 2]"] ;
175 -> 177 ;
178 [label="gini = 0.0\nsamples = 1\nvalue = [0, 0, 0, 0, 2]"] ;
177 -> 178 ;
179 [label="gini = 0.0\nsamples = 2\nvalue = [0, 0, 3, 0, 0]"] ;
177 -> 179 ;
180 [label="gini = 0.0\nsamples = 1\nvalue = [0, 0, 0, 0, 1]"] ;
174 -> 180 ;
181 [label="gini = 0.0\nsamples = 12\nvalue = [0, 0, 23, 0, 0]"] ;
173 -> 181 ;
182 [label="total sulfur dioxide <= 23.5\ngini = 0.6\nsamples = 16\nvalue = [0, 2, 15, 4, 5]"] ;
172 -> 182 ;
183 [label="citric acid <= 0.0\ngini = 0.7\nsamples = 8\nvalue = [0, 0, 4, 4, 4]"] ;
182 -> 183 ;
184 [label="gini = 0.0\nsamples = 1\nvalue = [0, 0, 2, 0, 0]"] ;
183 -> 184 ;
185 [label="density <= 1.0\ngini = 0.6\nsamples = 7\nvalue = [0, 0, 2, 4, 4]"] ;
183 -> 185 ;
186 [label="pH <= 3.4\ngini = 0.5\nsamples = 4\nvalue = [0, 0, 2, 0, 3]"] ;
185 -> 186 ;
187 [label="gini = 0.0\nsamples = 3\nvalue = [0, 0, 0, 0, 3]"] ;
186 -> 187 ;
188 [label="gini = 0.0\nsamples = 1\nvalue = [0, 0, 2, 0, 0]"] ;
186 -> 188 ;
189 [label="chlorides <= 0.1\ngini = 0.3\nsamples = 3\nvalue = [0, 0, 0, 4, 1]"] ;
185 -> 189 ;
190 [label="gini = 0.0\nsamples = 1\nvalue = [0, 0, 0, 2, 0]"] ;
189 -> 190 ;
191 [label="chlorides <= 0.1\ngini = 0.4\nsamples = 2\nvalue = [0, 0, 0, 2, 1]"] ;
189 -> 191 ;
192 [label="gini = 0.0\nsamples = 1\nvalue = [0, 0, 0, 0, 1]"] ;
191 -> 192 ;
193 [label="gini = 0.0\nsamples = 1\nvalue = [0, 0, 0, 2, 0]"] ;
191 -> 193 ;
194 [label="residual sugar <= 3.2\ngini = 0.4\nsamples = 8\nvalue = [0, 2, 11, 0, 1]"] ;
182 -> 194 ;
195 [label="gini = 0.0\nsamples = 6\nvalue = [0, 0, 11, 0, 0]"] ;
194 -> 195 ;
196 [label="volatile acidity <= 0.6\ngini = 0.4\nsamples = 2\nvalue = [0, 2, 0, 0, 1]"] ;
194 -> 196 ;
197 [label="gini = 0.0\nsamples = 1\nvalue = [0, 2, 0, 0, 0]"] ;
196 -> 197 ;
198 [label="gini = 0.0\nsamples = 1\nvalue = [0, 0, 0, 0, 1]"] ;
196 -> 198 ;
199 [label="alcohol <= 9.8\ngini = 0.5\nsamples = 21\nvalue = [0, 1, 11, 1, 19]"] ;
157 -> 199 ;
200 [label="sulphates <= 0.6\ngini = 0.4\nsamples = 9\nvalue = [0, 0, 9, 0, 4]"] ;
199 -> 200 ;
201 [label="gini = 0.0\nsamples = 2\nvalue = [0, 0, 0, 0, 2]"] ;
200 -> 201 ;
202 [label="citric acid <= 0.0\ngini = 0.3\nsamples = 7\nvalue = [0, 0, 9, 0, 2]"] ;
200 -> 202 ;
203 [label="gini = 0.0\nsamples = 1\nvalue = [0, 0, 0, 0, 1]"] ;
202 -> 203 ;
204 [label="alcohol <= 9.3\ngini = 0.2\nsamples = 6\nvalue = [0, 0, 9, 0, 1]"] ;
202 -> 204 ;
205 [label="gini = 0.0\nsamples = 1\nvalue = [0, 0, 0, 0, 1]"] ;
204 -> 205 ;
206 [label="gini = 0.0\nsamples = 5\nvalue = [0, 0, 9, 0, 0]"] ;
204 -> 206 ;
207 [label="sulphates <= 0.7\ngini = 0.4\nsamples = 12\nvalue = [0, 1, 2, 1, 15]"] ;
199 -> 207 ;
208 [label="free sulfur dioxide <= 6.5\ngini = 0.1\nsamples = 9\nvalue = [0, 1, 0, 0, 14]"] ;
207 -> 208 ;
209 [label="gini = 0.0\nsamples = 1\nvalue = [0, 1, 0, 0, 0]"] ;
208 -> 209 ;
210 [label="gini = 0.0\nsamples = 8\nvalue = [0, 0, 0, 0, 14]"] ;
208 -> 210 ;
211 [label="density <= 1.0\ngini = 0.6\nsamples = 3\nvalue = [0, 0, 2, 1, 1]"] ;
207 -> 211 ;
212 [label="alcohol <= 10.2\ngini = 0.5\nsamples = 2\nvalue = [0, 0, 0, 1, 1]"] ;
211 -> 212 ;
213 [label="gini = 0.0\nsamples = 1\nvalue = [0, 0, 0, 1, 0]"] ;
212 -> 213 ;
214 [label="gini = 0.0\nsamples = 1\nvalue = [0, 0, 0, 0, 1]"] ;
212 -> 214 ;
215 [label="gini = 0.0\nsamples = 1\nvalue = [0, 0, 2, 0, 0]"] ;
211 -> 215 ;
216 [label="fixed acidity <= 6.9\ngini = 0.3\nsamples = 42\nvalue = [0, 1, 13, 0, 58]"] ;
146 -> 216 ;
217 [label="gini = 0.0\nsamples = 5\nvalue = [0, 0, 0, 0, 12]"] ;
216 -> 217 ;
218 [label="alcohol <= 9.9\ngini = 0.4\nsamples = 37\nvalue = [0, 1, 13, 0, 46]"] ;
216 -> 218 ;
219 [label="sulphates <= 1.0\ngini = 0.3\nsamples = 30\nvalue = [0, 1, 7, 0, 43]"] ;
218 -> 219 ;
220 [label="density <= 1.0\ngini = 0.2\nsamples = 29\nvalue = [0, 0, 7, 0, 43]"] ;
219 -> 220 ;
221 [label="gini = 0.0\nsamples = 9\nvalue = [0, 0, 0, 0, 19]"] ;
220 -> 221 ;
222 [label="fixed acidity <= 8.4\ngini = 0.3\nsamples = 20\nvalue = [0, 0, 7, 0, 24]"] ;
220 -> 222 ;
223 [label="alcohol <= 9.6\ngini = 0.5\nsamples = 12\nvalue = [0, 0, 7, 0, 12]"] ;
222 -> 223 ;
224 [label="volatile acidity <= 0.6\ngini = 0.3\nsamples = 7\nvalue = [0, 0, 2, 0, 9]"] ;
223 -> 224 ;
225 [label="gini = 0.0\nsamples = 2\nvalue = [0, 0, 2, 0, 0]"] ;
224 -> 225 ;
226 [label="gini = 0.0\nsamples = 5\nvalue = [0, 0, 0, 0, 9]"] ;
224 -> 226 ;
227 [label="density <= 1.0\ngini = 0.5\nsamples = 5\nvalue = [0, 0, 5, 0, 3]"] ;
223 -> 227 ;
228 [label="volatile acidity <= 0.5\ngini = 0.4\nsamples = 4\nvalue = [0, 0, 5, 0, 2]"] ;
227 -> 228 ;
229 [label="gini = 0.0\nsamples = 1\nvalue = [0, 0, 0, 0, 2]"] ;
228 -> 229 ;
230 [label="gini = 0.0\nsamples = 3\nvalue = [0, 0, 5, 0, 0]"] ;
228 -> 230 ;
231 [label="gini = 0.0\nsamples = 1\nvalue = [0, 0, 0, 0, 1]"] ;
227 -> 231 ;
232 [label="gini = 0.0\nsamples = 8\nvalue = [0, 0, 0, 0, 12]"] ;
222 -> 232 ;
233 [label="gini = 0.0\nsamples = 1\nvalue = [0, 1, 0, 0, 0]"] ;
219 -> 233 ;
234 [label="chlorides <= 0.1\ngini = 0.4\nsamples = 7\nvalue = [0, 0, 6, 0, 3]"] ;
218 -> 234 ;
235 [label="gini = 0.0\nsamples = 1\nvalue = [0, 0, 0, 0, 2]"] ;
234 -> 235 ;
236 [label="total sulfur dioxide <= 86.0\ngini = 0.2\nsamples = 6\nvalue = [0, 0, 6, 0, 1]"] ;
234 -> 236 ;
237 [label="gini = 0.0\nsamples = 5\nvalue = [0, 0, 6, 0, 0]"] ;
236 -> 237 ;
238 [label="gini = 0.0\nsamples = 1\nvalue = [0, 0, 0, 0, 1]"] ;
236 -> 238 ;
239 [label="fixed acidity <= 9.1\ngini = 0.4\nsamples = 92\nvalue = [0, 18, 21, 1, 120]"] ;
53 -> 239 ;
240 [label="residual sugar <= 1.3\ngini = 0.4\nsamples = 88\nvalue = [0, 18, 16, 1, 119]"] ;
239 -> 240 ;
241 [label="gini = 0.0\nsamples = 2\nvalue = [0, 7, 0, 0, 0]"] ;
240 -> 241 ;
242 [label="volatile acidity <= 1.0\ngini = 0.3\nsamples = 86\nvalue = [0, 11, 16, 1, 119]"] ;
240 -> 242 ;
243 [label="pH <= 3.5\ngini = 0.3\nsamples = 81\nvalue = [0, 5, 16, 1, 115]"] ;
242 -> 243 ;
244 [label="total sulfur dioxide <= 63.5\ngini = 0.2\nsamples = 73\nvalue = [0, 4, 11, 1, 109]"] ;
243 -> 244 ;
245 [label="free sulfur dioxide <= 3.5\ngini = 0.2\nsamples = 57\nvalue = [0, 4, 3, 1, 91]"] ;
244 -> 245 ;
246 [label="volatile acidity <= 0.8\ngini = 0.6\nsamples = 3\nvalue = [0, 2, 1, 0, 1]"] ;
245 -> 246 ;
247 [label="total sulfur dioxide <= 12.5\ngini = 0.5\nsamples = 2\nvalue = [0, 0, 1, 0, 1]"] ;
246 -> 247 ;
248 [label="gini = 0.0\nsamples = 1\nvalue = [0, 0, 1, 0, 0]"] ;
247 -> 248 ;
249 [label="gini = 0.0\nsamples = 1\nvalue = [0, 0, 0, 0, 1]"] ;
247 -> 249 ;
250 [label="gini = 0.0\nsamples = 1\nvalue = [0, 2, 0, 0, 0]"] ;
246 -> 250 ;
251 [label="total sulfur dioxide <= 12.5\ngini = 0.1\nsamples = 54\nvalue = [0, 2, 2, 1, 90]"] ;
245 -> 251 ;
252 [label="pH <= 3.4\ngini = 0.5\nsamples = 2\nvalue = [0, 1, 0, 0, 1]"] ;
251 -> 252 ;
253 [label="gini = 0.0\nsamples = 1\nvalue = [0, 1, 0, 0, 0]"] ;
252 -> 253 ;
254 [label="gini = 0.0\nsamples = 1\nvalue = [0, 0, 0, 0, 1]"] ;
252 -> 254 ;
255 [label="fixed acidity <= 8.2\ngini = 0.1\nsamples = 52\nvalue = [0, 1, 2, 1, 89]"] ;
251 -> 255 ;
256 [label="fixed acidity <= 7.6\ngini = 0.0\nsamples = 44\nvalue = [0, 1, 0, 1, 78]"] ;
255 -> 256 ;
257 [label="gini = 0.0\nsamples = 29\nvalue = [0, 0, 0, 0, 59]"] ;
256 -> 257 ;
258 [label="chlorides <= 0.1\ngini = 0.2\nsamples = 15\nvalue = [0, 1, 0, 1, 19]"] ;
256 -> 258 ;
259 [label="pH <= 3.4\ngini = 0.1\nsamples = 14\nvalue = [0, 1, 0, 0, 19]"] ;
258 -> 259 ;
260 [label="gini = 0.0\nsamples = 9\nvalue = [0, 0, 0, 0, 15]"] ;
259 -> 260 ;
261 [label="fixed acidity <= 8.1\ngini = 0.3\nsamples = 5\nvalue = [0, 1, 0, 0, 4]"] ;
259 -> 261 ;
262 [label="gini = 0.0\nsamples = 4\nvalue = [0, 0, 0, 0, 4]"] ;
261 -> 262 ;
263 [label="gini = 0.0\nsamples = 1\nvalue = [0, 1, 0, 0, 0]"] ;
261 -> 263 ;
264 [label="gini = 0.0\nsamples = 1\nvalue = [0, 0, 0, 1, 0]"] ;
258 -> 264 ;
265 [label="volatile acidity <= 0.7\ngini = 0.3\nsamples = 8\nvalue = [0, 0, 2, 0, 11]"] ;
255 -> 265 ;
266 [label="gini = 0.0\nsamples = 1\nvalue = [0, 0, 1, 0, 0]"] ;
265 -> 266 ;
267 [label="chlorides <= 0.1\ngini = 0.2\nsamples = 7\nvalue = [0, 0, 1, 0, 11]"] ;
265 -> 267 ;
268 [label="gini = 0.0\nsamples = 1\nvalue = [0, 0, 1, 0, 0]"] ;
267 -> 268 ;
269 [label="gini = 0.0\nsamples = 6\nvalue = [0, 0, 0, 0, 11]"] ;
267 -> 269 ;
270 [label="citric acid <= 0.1\ngini = 0.4\nsamples = 16\nvalue = [0, 0, 8, 0, 18]"] ;
244 -> 270 ;
271 [label="residual sugar <= 2.2\ngini = 0.5\nsamples = 6\nvalue = [0, 0, 7, 0, 5]"] ;
270 -> 271 ;
272 [label="gini = 0.0\nsamples = 2\nvalue = [0, 0, 7, 0, 0]"] ;
271 -> 272 ;
273 [label="gini = 0.0\nsamples = 4\nvalue = [0, 0, 0, 0, 5]"] ;
271 -> 273 ;
274 [label="total sulfur dioxide <= 86.5\ngini = 0.1\nsamples = 10\nvalue = [0, 0, 1, 0, 13]"] ;
270 -> 274 ;
275 [label="volatile acidity <= 0.7\ngini = 0.4\nsamples = 3\nvalue = [0, 0, 1, 0, 3]"] ;
274 -> 275 ;
276 [label="gini = 0.0\nsamples = 1\nvalue = [0, 0, 1, 0, 0]"] ;
275 -> 276 ;
277 [label="gini = 0.0\nsamples = 2\nvalue = [0, 0, 0, 0, 3]"] ;
275 -> 277 ;
278 [label="gini = 0.0\nsamples = 7\nvalue = [0, 0, 0, 0, 10]"] ;
274 -> 278 ;
279 [label="citric acid <= 0.1\ngini = 0.6\nsamples = 8\nvalue = [0, 1, 5, 0, 6]"] ;
243 -> 279 ;
280 [label="fixed acidity <= 7.1\ngini = 0.5\nsamples = 7\nvalue = [0, 1, 2, 0, 6]"] ;
279 -> 280 ;
281 [label="residual sugar <= 1.9\ngini = 0.2\nsamples = 5\nvalue = [0, 1, 0, 0, 6]"] ;
280 -> 281 ;
282 [label="gini = 0.0\nsamples = 2\nvalue = [0, 0, 0, 0, 4]"] ;
281 -> 282 ;
283 [label="density <= 1.0\ngini = 0.4\nsamples = 3\nvalue = [0, 1, 0, 0, 2]"] ;
281 -> 283 ;
284 [label="gini = 0.0\nsamples = 1\nvalue = [0, 1, 0, 0, 0]"] ;
283 -> 284 ;
285 [label="gini = 0.0\nsamples = 2\nvalue = [0, 0, 0, 0, 2]"] ;
283 -> 285 ;
286 [label="gini = 0.0\nsamples = 2\nvalue = [0, 0, 2, 0, 0]"] ;
280 -> 286 ;
287 [label="gini = 0.0\nsamples = 1\nvalue = [0, 0, 3, 0, 0]"] ;
279 -> 287 ;
288 [label="volatile acidity <= 1.0\ngini = 0.5\nsamples = 5\nvalue = [0, 6, 0, 0, 4]"] ;
242 -> 288 ;
289 [label="gini = 0.0\nsamples = 2\nvalue = [0, 5, 0, 0, 0]"] ;
288 -> 289 ;
290 [label="pH <= 3.4\ngini = 0.3\nsamples = 3\nvalue = [0, 1, 0, 0, 4]"] ;
288 -> 290 ;
291 [label="gini = 0.0\nsamples = 2\nvalue = [0, 0, 0, 0, 4]"] ;
290 -> 291 ;
292 [label="gini = 0.0\nsamples = 1\nvalue = [0, 1, 0, 0, 0]"] ;
290 -> 292 ;
293 [label="density <= 1.0\ngini = 0.3\nsamples = 4\nvalue = [0, 0, 5, 0, 1]"] ;
239 -> 293 ;
294 [label="gini = 0.0\nsamples = 3\nvalue = [0, 0, 5, 0, 0]"] ;
293 -> 294 ;
295 [label="gini = 0.0\nsamples = 1\nvalue = [0, 0, 0, 0, 1]"] ;
293 -> 295 ;
296 [label="fixed acidity <= 6.2\ngini = 0.4\nsamples = 18\nvalue = [0, 0, 21, 0, 8]"] ;
42 -> 296 ;
297 [label="fixed acidity <= 5.8\ngini = 0.1\nsamples = 9\nvalue = [0, 0, 15, 0, 1]"] ;
296 -> 297 ;
298 [label="gini = 0.0\nsamples = 6\nvalue = [0, 0, 12, 0, 0]"] ;
297 -> 298 ;
299 [label="pH <= 3.1\ngini = 0.4\nsamples = 3\nvalue = [0, 0, 3, 0, 1]"] ;
297 -> 299 ;
300 [label="gini = 0.0\nsamples = 1\nvalue = [0, 0, 0, 0, 1]"] ;
299 -> 300 ;
301 [label="gini = 0.0\nsamples = 2\nvalue = [0, 0, 3, 0, 0]"] ;
299 -> 301 ;
302 [label="volatile acidity <= 0.2\ngini = 0.5\nsamples = 9\nvalue = [0, 0, 6, 0, 7]"] ;
296 -> 302 ;
303 [label="gini = 0.0\nsamples = 3\nvalue = [0, 0, 5, 0, 0]"] ;
302 -> 303 ;
304 [label="free sulfur dioxide <= 43.5\ngini = 0.2\nsamples = 6\nvalue = [0, 0, 1, 0, 7]"] ;
302 -> 304 ;
305 [label="gini = 0.0\nsamples = 5\nvalue = [0, 0, 0, 0, 7]"] ;
304 -> 305 ;
306 [label="gini = 0.0\nsamples = 1\nvalue = [0, 0, 1, 0, 0]"] ;
304 -> 306 ;
307 [label="gini = 0.0\nsamples = 5\nvalue = [0, 0, 9, 0, 0]"] ;
3 -> 307 ;
308 [label="alcohol <= 12.2\ngini = 0.6\nsamples = 267\nvalue = [5, 32, 226, 67, 89]"] ;
2 -> 308 ;
309 [label="free sulfur dioxide <= 12.5\ngini = 0.6\nsamples = 209\nvalue = [1, 31, 191, 25, 81]"] ;
308 -> 309 ;
310 [label="pH <= 3.5\ngini = 0.7\nsamples = 61\nvalue = [0, 24, 31, 3, 39]"] ;
309 -> 310 ;
311 [label="fixed acidity <= 6.1\ngini = 0.7\nsamples = 52\nvalue = [0, 24, 30, 3, 24]"] ;
310 -> 311 ;
312 [label="sulphates <= 0.5\ngini = 0.3\nsamples = 9\nvalue = [0, 13, 1, 0, 2]"] ;
311 -> 312 ;
313 [label="volatile acidity <= 0.4\ngini = 0.1\nsamples = 6\nvalue = [0, 12, 1, 0, 0]"] ;
312 -> 313 ;
314 [label="citric acid <= 0.2\ngini = 0.4\nsamples = 2\nvalue = [0, 2, 1, 0, 0]"] ;
313 -> 314 ;
315 [label="gini = 0.0\nsamples = 1\nvalue = [0, 0, 1, 0, 0]"] ;
314 -> 315 ;
316 [label="gini = 0.0\nsamples = 1\nvalue = [0, 2, 0, 0, 0]"] ;
314 -> 316 ;
317 [label="gini = 0.0\nsamples = 4\nvalue = [0, 10, 0, 0, 0]"] ;
313 -> 317 ;
318 [label="total sulfur dioxide <= 69.0\ngini = 0.4\nsamples = 3\nvalue = [0, 1, 0, 0, 2]"] ;
312 -> 318 ;
319 [label="gini = 0.0\nsamples = 2\nvalue = [0, 0, 0, 0, 2]"] ;
318 -> 319 ;
320 [label="gini = 0.0\nsamples = 1\nvalue = [0, 1, 0, 0, 0]"] ;
318 -> 320 ;
321 [label="density <= 1.0\ngini = 0.7\nsamples = 43\nvalue = [0, 11, 29, 3, 22]"] ;
311 -> 321 ;
322 [label="total sulfur dioxide <= 116.5\ngini = 0.3\nsamples = 7\nvalue = [0, 1, 0, 1, 9]"] ;
321 -> 322 ;
323 [label="pH <= 3.2\ngini = 0.6\nsamples = 3\nvalue = [0, 1, 0, 1, 3]"] ;
322 -> 323 ;
324 [label="alcohol <= 11.9\ngini = 0.5\nsamples = 2\nvalue = [0, 1, 0, 1, 0]"] ;
323 -> 324 ;
325 [label="gini = 0.0\nsamples = 1\nvalue = [0, 1, 0, 0, 0]"] ;
324 -> 325 ;
326 [label="gini = 0.0\nsamples = 1\nvalue = [0, 0, 0, 1, 0]"] ;
324 -> 326 ;
327 [label="gini = 0.0\nsamples = 1\nvalue = [0, 0, 0, 0, 3]"] ;
323 -> 327 ;
328 [label="gini = 0.0\nsamples = 4\nvalue = [0, 0, 0, 0, 6]"] ;
322 -> 328 ;
329 [label="volatile acidity <= 0.8\ngini = 0.6\nsamples = 36\nvalue = [0, 10, 29, 2, 13]"] ;
321 -> 329 ;
330 [label="pH <= 3.3\ngini = 0.6\nsamples = 30\nvalue = [0, 4, 28, 2, 12]"] ;
329 -> 330 ;
331 [label="gini = 0.0\nsamples = 5\nvalue = [0, 0, 8, 0, 0]"] ;
330 -> 331 ;
332 [label="citric acid <= 0.1\ngini = 0.6\nsamples = 25\nvalue = [0, 4, 20, 2, 12]"] ;
330 -> 332 ;
333 [label="free sulfur dioxide <= 7.5\ngini = 0.5\nsamples = 17\nvalue = [0, 4, 16, 2, 3]"] ;
332 -> 333 ;
334 [label="density <= 1.0\ngini = 0.6\nsamples = 6\nvalue = [0, 3, 1, 0, 3]"] ;
333 -> 334 ;
335 [label="residual sugar <= 2.2\ngini = 0.4\nsamples = 3\nvalue = [0, 3, 1, 0, 0]"] ;
334 -> 335 ;
336 [label="gini = 0.0\nsamples = 2\nvalue = [0, 3, 0, 0, 0]"] ;
335 -> 336 ;
337 [label="gini = 0.0\nsamples = 1\nvalue = [0, 0, 1, 0, 0]"] ;
335 -> 337 ;
338 [label="gini = 0.0\nsamples = 3\nvalue = [0, 0, 0, 0, 3]"] ;
334 -> 338 ;
339 [label="pH <= 3.5\ngini = 0.3\nsamples = 11\nvalue = [0, 1, 15, 2, 0]"] ;
333 -> 339 ;
340 [label="chlorides <= 0.1\ngini = 0.2\nsamples = 10\nvalue = [0, 1, 15, 1, 0]"] ;
339 -> 340 ;
341 [label="alcohol <= 11.3\ngini = 0.5\nsamples = 2\nvalue = [0, 1, 0, 1, 0]"] ;
340 -> 341 ;
342 [label="gini = 0.0\nsamples = 1\nvalue = [0, 0, 0, 1, 0]"] ;
341 -> 342 ;
343 [label="gini = 0.0\nsamples = 1\nvalue = [0, 1, 0, 0, 0]"] ;
341 -> 343 ;
344 [label="gini = 0.0\nsamples = 8\nvalue = [0, 0, 15, 0, 0]"] ;
340 -> 344 ;
345 [label="gini = 0.0\nsamples = 1\nvalue = [0, 0, 0, 1, 0]"] ;
339 -> 345 ;
346 [label="fixed acidity <= 6.4\ngini = 0.4\nsamples = 8\nvalue = [0, 0, 4, 0, 9]"] ;
332 -> 346 ;
347 [label="gini = 0.0\nsamples = 1\nvalue = [0, 0, 2, 0, 0]"] ;
346 -> 347 ;
348 [label="pH <= 3.4\ngini = 0.3\nsamples = 7\nvalue = [0, 0, 2, 0, 9]"] ;
346 -> 348 ;
349 [label="residual sugar <= 2.5\ngini = 0.2\nsamples = 6\nvalue = [0, 0, 1, 0, 9]"] ;
348 -> 349 ;
350 [label="sulphates <= 0.6\ngini = 0.4\nsamples = 3\nvalue = [0, 0, 1, 0, 3]"] ;
349 -> 350 ;
351 [label="gini = 0.0\nsamples = 1\nvalue = [0, 0, 1, 0, 0]"] ;
350 -> 351 ;
352 [label="gini = 0.0\nsamples = 2\nvalue = [0, 0, 0, 0, 3]"] ;
350 -> 352 ;
353 [label="gini = 0.0\nsamples = 3\nvalue = [0, 0, 0, 0, 6]"] ;
349 -> 353 ;
354 [label="gini = 0.0\nsamples = 1\nvalue = [0, 0, 1, 0, 0]"] ;
348 -> 354 ;
355 [label="residual sugar <= 1.9\ngini = 0.4\nsamples = 6\nvalue = [0, 6, 1, 0, 1]"] ;
329 -> 355 ;
356 [label="gini = 0.0\nsamples = 1\nvalue = [0, 0, 1, 0, 0]"] ;
355 -> 356 ;
357 [label="volatile acidity <= 0.9\ngini = 0.2\nsamples = 5\nvalue = [0, 6, 0, 0, 1]"] ;
355 -> 357 ;
358 [label="pH <= 3.4\ngini = 0.5\nsamples = 2\nvalue = [0, 1, 0, 0, 1]"] ;
357 -> 358 ;
359 [label="gini = 0.0\nsamples = 1\nvalue = [0, 1, 0, 0, 0]"] ;
358 -> 359 ;
360 [label="gini = 0.0\nsamples = 1\nvalue = [0, 0, 0, 0, 1]"] ;
358 -> 360 ;
361 [label="gini = 0.0\nsamples = 3\nvalue = [0, 5, 0, 0, 0]"] ;
357 -> 361 ;
362 [label="citric acid <= 0.0\ngini = 0.1\nsamples = 9\nvalue = [0, 0, 1, 0, 15]"] ;
310 -> 362 ;
363 [label="sulphates <= 0.5\ngini = 0.3\nsamples = 3\nvalue = [0, 0, 1, 0, 4]"] ;
362 -> 363 ;
364 [label="gini = 0.0\nsamples = 2\nvalue = [0, 0, 0, 0, 4]"] ;
363 -> 364 ;
365 [label="gini = 0.0\nsamples = 1\nvalue = [0, 0, 1, 0, 0]"] ;
363 -> 365 ;
366 [label="gini = 0.0\nsamples = 6\nvalue = [0, 0, 0, 0, 11]"] ;
362 -> 366 ;
367 [label="citric acid <= 0.2\ngini = 0.5\nsamples = 148\nvalue = [1, 7, 160, 22, 42]"] ;
309 -> 367 ;
368 [label="pH <= 3.4\ngini = 0.4\nsamples = 133\nvalue = [1, 7, 151, 17, 31]"] ;
367 -> 368 ;
369 [label="free sulfur dioxide <= 20.5\ngini = 0.3\nsamples = 95\nvalue = [1, 2, 121, 6, 18]"] ;
368 -> 369 ;
370 [label="sulphates <= 0.6\ngini = 0.5\nsamples = 24\nvalue = [0, 1, 21, 3, 9]"] ;
369 -> 370 ;
371 [label="volatile acidity <= 0.6\ngini = 0.6\nsamples = 12\nvalue = [0, 1, 5, 1, 9]"] ;
370 -> 371 ;
372 [label="density <= 1.0\ngini = 0.6\nsamples = 7\nvalue = [0, 0, 5, 1, 3]"] ;
371 -> 372 ;
373 [label="chlorides <= 0.0\ngini = 0.3\nsamples = 5\nvalue = [0, 0, 5, 1, 0]"] ;
372 -> 373 ;
374 [label="gini = 0.0\nsamples = 1\nvalue = [0, 0, 0, 1, 0]"] ;
373 -> 374 ;
375 [label="gini = 0.0\nsamples = 4\nvalue = [0, 0, 5, 0, 0]"] ;
373 -> 375 ;
376 [label="gini = 0.0\nsamples = 2\nvalue = [0, 0, 0, 0, 3]"] ;
372 -> 376 ;
377 [label="wine_type_white <= 0.5\ngini = 0.2\nsamples = 5\nvalue = [0, 1, 0, 0, 6]"] ;
371 -> 377 ;
378 [label="gini = 0.0\nsamples = 4\nvalue = [0, 0, 0, 0, 6]"] ;
377 -> 378 ;
379 [label="gini = 0.0\nsamples = 1\nvalue = [0, 1, 0, 0, 0]"] ;
377 -> 379 ;
380 [label="density <= 1.0\ngini = 0.2\nsamples = 12\nvalue = [0, 0, 16, 2, 0]"] ;
370 -> 380 ;
381 [label="gini = 0.0\nsamples = 10\nvalue = [0, 0, 15, 0, 0]"] ;
380 -> 381 ;
382 [label="sulphates <= 0.7\ngini = 0.4\nsamples = 2\nvalue = [0, 0, 1, 2, 0]"] ;
380 -> 382 ;
383 [label="gini = 0.0\nsamples = 1\nvalue = [0, 0, 1, 0, 0]"] ;
382 -> 383 ;
384 [label="gini = 0.0\nsamples = 1\nvalue = [0, 0, 0, 2, 0]"] ;
382 -> 384 ;
385 [label="free sulfur dioxide <= 40.0\ngini = 0.2\nsamples = 71\nvalue = [1, 1, 100, 3, 9]"] ;
369 -> 385 ;
386 [label="pH <= 3.0\ngini = 0.1\nsamples = 52\nvalue = [0, 1, 79, 2, 2]"] ;
385 -> 386 ;
387 [label="gini = 0.0\nsamples = 1\nvalue = [0, 1, 0, 0, 0]"] ;
386 -> 387 ;
388 [label="alcohol <= 11.9\ngini = 0.1\nsamples = 51\nvalue = [0, 0, 79, 2, 2]"] ;
386 -> 388 ;
389 [label="chlorides <= 0.0\ngini = 0.0\nsamples = 48\nvalue = [0, 0, 76, 0, 2]"] ;
388 -> 389 ;
390 [label="free sulfur dioxide <= 33.0\ngini = 0.3\nsamples = 7\nvalue = [0, 0, 11, 0, 2]"] ;
389 -> 390 ;
391 [label="gini = 0.0\nsamples = 5\nvalue = [0, 0, 10, 0, 0]"] ;
390 -> 391 ;
392 [label="pH <= 3.0\ngini = 0.4\nsamples = 2\nvalue = [0, 0, 1, 0, 2]"] ;
390 -> 392 ;
393 [label="gini = 0.0\nsamples = 1\nvalue = [0, 0, 0, 0, 2]"] ;
392 -> 393 ;
394 [label="gini = 0.0\nsamples = 1\nvalue = [0, 0, 1, 0, 0]"] ;
392 -> 394 ;
395 [label="gini = 0.0\nsamples = 41\nvalue = [0, 0, 65, 0, 0]"] ;
389 -> 395 ;
396 [label="density <= 1.0\ngini = 0.5\nsamples = 3\nvalue = [0, 0, 3, 2, 0]"] ;
388 -> 396 ;
397 [label="gini = 0.0\nsamples = 2\nvalue = [0, 0, 3, 0, 0]"] ;
396 -> 397 ;
398 [label="gini = 0.0\nsamples = 1\nvalue = [0, 0, 0, 2, 0]"] ;
396 -> 398 ;
399 [label="volatile acidity <= 0.5\ngini = 0.5\nsamples = 19\nvalue = [1, 0, 21, 1, 7]"] ;
385 -> 399 ;
400 [label="density <= 1.0\ngini = 0.4\nsamples = 17\nvalue = [1, 0, 21, 1, 5]"] ;
399 -> 400 ;
401 [label="residual sugar <= 2.2\ngini = 0.5\nsamples = 2\nvalue = [1, 0, 0, 1, 0]"] ;
400 -> 401 ;
402 [label="gini = 0.0\nsamples = 1\nvalue = [1, 0, 0, 0, 0]"] ;
401 -> 402 ;
403 [label="gini = 0.0\nsamples = 1\nvalue = [0, 0, 0, 1, 0]"] ;
401 -> 403 ;
404 [label="residual sugar <= 1.5\ngini = 0.3\nsamples = 15\nvalue = [0, 0, 21, 0, 5]"] ;
400 -> 404 ;
405 [label="gini = 0.0\nsamples = 2\nvalue = [0, 0, 0, 0, 3]"] ;
404 -> 405 ;
406 [label="chlorides <= 0.0\ngini = 0.2\nsamples = 13\nvalue = [0, 0, 21, 0, 2]"] ;
404 -> 406 ;
407 [label="gini = 0.0\nsamples = 9\nvalue = [0, 0, 18, 0, 0]"] ;
406 -> 407 ;
408 [label="volatile acidity <= 0.3\ngini = 0.5\nsamples = 4\nvalue = [0, 0, 3, 0, 2]"] ;
406 -> 408 ;
409 [label="gini = 0.0\nsamples = 1\nvalue = [0, 0, 0, 0, 1]"] ;
408 -> 409 ;
410 [label="citric acid <= 0.2\ngini = 0.4\nsamples = 3\nvalue = [0, 0, 3, 0, 1]"] ;
408 -> 410 ;
411 [label="gini = 0.0\nsamples = 2\nvalue = [0, 0, 3, 0, 0]"] ;
410 -> 411 ;
412 [label="gini = 0.0\nsamples = 1\nvalue = [0, 0, 0, 0, 1]"] ;
410 -> 412 ;
413 [label="gini = 0.0\nsamples = 2\nvalue = [0, 0, 0, 0, 2]"] ;
399 -> 413 ;
414 [label="residual sugar <= 1.2\ngini = 0.7\nsamples = 38\nvalue = [0, 5, 30, 11, 13]"] ;
368 -> 414 ;
415 [label="gini = 0.0\nsamples = 2\nvalue = [0, 0, 0, 4, 0]"] ;
414 -> 415 ;
416 [label="pH <= 3.4\ngini = 0.6\nsamples = 36\nvalue = [0, 5, 30, 7, 13]"] ;
414 -> 416 ;
417 [label="gini = 0.0\nsamples = 4\nvalue = [0, 0, 6, 0, 0]"] ;
416 -> 417 ;
418 [label="fixed acidity <= 6.8\ngini = 0.7\nsamples = 32\nvalue = [0, 5, 24, 7, 13]"] ;
416 -> 418 ;
419 [label="fixed acidity <= 6.6\ngini = 0.5\nsamples = 26\nvalue = [0, 5, 24, 0, 9]"] ;
418 -> 419 ;
420 [label="free sulfur dioxide <= 21.5\ngini = 0.5\nsamples = 25\nvalue = [0, 3, 24, 0, 9]"] ;
419 -> 420 ;
421 [label="chlorides <= 0.1\ngini = 0.2\nsamples = 13\nvalue = [0, 1, 15, 0, 1]"] ;
420 -> 421 ;
422 [label="alcohol <= 11.3\ngini = 0.1\nsamples = 12\nvalue = [0, 0, 15, 0, 1]"] ;
421 -> 422 ;
423 [label="gini = 0.0\nsamples = 7\nvalue = [0, 0, 9, 0, 0]"] ;
422 -> 423 ;
424 [label="chlorides <= 0.0\ngini = 0.2\nsamples = 5\nvalue = [0, 0, 6, 0, 1]"] ;
422 -> 424 ;
425 [label="gini = 0.0\nsamples = 1\nvalue = [0, 0, 0, 0, 1]"] ;
424 -> 425 ;
426 [label="gini = 0.0\nsamples = 4\nvalue = [0, 0, 6, 0, 0]"] ;
424 -> 426 ;
427 [label="gini = 0.0\nsamples = 1\nvalue = [0, 1, 0, 0, 0]"] ;
421 -> 427 ;
428 [label="total sulfur dioxide <= 49.0\ngini = 0.6\nsamples = 12\nvalue = [0, 2, 9, 0, 8]"] ;
420 -> 428 ;
429 [label="gini = 0.0\nsamples = 4\nvalue = [0, 0, 0, 0, 7]"] ;
428 -> 429 ;
430 [label="pH <= 3.7\ngini = 0.4\nsamples = 8\nvalue = [0, 2, 9, 0, 1]"] ;
428 -> 430 ;
431 [label="fixed acidity <= 5.0\ngini = 0.2\nsamples = 6\nvalue = [0, 0, 7, 0, 1]"] ;
430 -> 431 ;
432 [label="gini = 0.0\nsamples = 1\nvalue = [0, 0, 0, 0, 1]"] ;
431 -> 432 ;
433 [label="gini = 0.0\nsamples = 5\nvalue = [0, 0, 7, 0, 0]"] ;
431 -> 433 ;
434 [label="citric acid <= 0.1\ngini = 0.5\nsamples = 2\nvalue = [0, 2, 2, 0, 0]"] ;
430 -> 434 ;
435 [label="gini = 0.0\nsamples = 1\nvalue = [0, 2, 0, 0, 0]"] ;
434 -> 435 ;
436 [label="gini = 0.0\nsamples = 1\nvalue = [0, 0, 2, 0, 0]"] ;
434 -> 436 ;
437 [label="gini = 0.0\nsamples = 1\nvalue = [0, 2, 0, 0, 0]"] ;
419 -> 437 ;
438 [label="sulphates <= 0.7\ngini = 0.5\nsamples = 6\nvalue = [0, 0, 0, 7, 4]"] ;
418 -> 438 ;
439 [label="citric acid <= 0.2\ngini = 0.4\nsamples = 4\nvalue = [0, 0, 0, 2, 4]"] ;
438 -> 439 ;
440 [label="density <= 1.0\ngini = 0.5\nsamples = 3\nvalue = [0, 0, 0, 2, 2]"] ;
439 -> 440 ;
441 [label="gini = 0.0\nsamples = 1\nvalue = [0, 0, 0, 2, 0]"] ;
440 -> 441 ;
442 [label="gini = 0.0\nsamples = 2\nvalue = [0, 0, 0, 0, 2]"] ;
440 -> 442 ;
443 [label="gini = 0.0\nsamples = 1\nvalue = [0, 0, 0, 0, 2]"] ;
439 -> 443 ;
444 [label="gini = 0.0\nsamples = 2\nvalue = [0, 0, 0, 5, 0]"] ;
438 -> 444 ;
445 [label="total sulfur dioxide <= 120.0\ngini = 0.6\nsamples = 15\nvalue = [0, 0, 9, 5, 11]"] ;
367 -> 445 ;
446 [label="gini = 0.0\nsamples = 6\nvalue = [0, 0, 6, 0, 0]"] ;
445 -> 446 ;
447 [label="free sulfur dioxide <= 43.5\ngini = 0.6\nsamples = 9\nvalue = [0, 0, 3, 5, 11]"] ;
445 -> 447 ;
448 [label="chlorides <= 0.0\ngini = 0.5\nsamples = 8\nvalue = [0, 0, 3, 2, 11]"] ;
447 -> 448 ;
449 [label="fixed acidity <= 7.7\ngini = 0.4\nsamples = 6\nvalue = [0, 0, 1, 2, 10]"] ;
448 -> 449 ;
450 [label="sulphates <= 0.5\ngini = 0.2\nsamples = 5\nvalue = [0, 0, 1, 0, 10]"] ;
449 -> 450 ;
451 [label="gini = 0.0\nsamples = 4\nvalue = [0, 0, 0, 0, 10]"] ;
450 -> 451 ;
452 [label="gini = 0.0\nsamples = 1\nvalue = [0, 0, 1, 0, 0]"] ;
450 -> 452 ;
453 [label="gini = 0.0\nsamples = 1\nvalue = [0, 0, 0, 2, 0]"] ;
449 -> 453 ;
454 [label="alcohol <= 11.4\ngini = 0.4\nsamples = 2\nvalue = [0, 0, 2, 0, 1]"] ;
448 -> 454 ;
455 [label="gini = 0.0\nsamples = 1\nvalue = [0, 0, 0, 0, 1]"] ;
454 -> 455 ;
456 [label="gini = 0.0\nsamples = 1\nvalue = [0, 0, 2, 0, 0]"] ;
454 -> 456 ;
457 [label="gini = 0.0\nsamples = 1\nvalue = [0, 0, 0, 3, 0]"] ;
447 -> 457 ;
458 [label="free sulfur dioxide <= 9.5\ngini = 0.6\nsamples = 58\nvalue = [4, 1, 35, 42, 8]"] ;
308 -> 458 ;
459 [label="residual sugar <= 2.5\ngini = 0.6\nsamples = 9\nvalue = [0, 1, 1, 3, 6]"] ;
458 -> 459 ;
460 [label="residual sugar <= 1.9\ngini = 0.7\nsamples = 6\nvalue = [0, 1, 1, 3, 2]"] ;
459 -> 460 ;
461 [label="residual sugar <= 1.1\ngini = 0.6\nsamples = 3\nvalue = [0, 1, 1, 0, 2]"] ;
460 -> 461 ;
462 [label="gini = 0.0\nsamples = 1\nvalue = [0, 0, 0, 0, 2]"] ;
461 -> 462 ;
463 [label="pH <= 3.4\ngini = 0.5\nsamples = 2\nvalue = [0, 1, 1, 0, 0]"] ;
461 -> 463 ;
464 [label="gini = 0.0\nsamples = 1\nvalue = [0, 1, 0, 0, 0]"] ;
463 -> 464 ;
465 [label="gini = 0.0\nsamples = 1\nvalue = [0, 0, 1, 0, 0]"] ;
463 -> 465 ;
466 [label="gini = 0.0\nsamples = 3\nvalue = [0, 0, 0, 3, 0]"] ;
460 -> 466 ;
467 [label="gini = 0.0\nsamples = 3\nvalue = [0, 0, 0, 0, 4]"] ;
459 -> 467 ;
468 [label="pH <= 3.6\ngini = 0.6\nsamples = 49\nvalue = [4, 0, 34, 39, 2]"] ;
458 -> 468 ;
469 [label="total sulfur dioxide <= 43.5\ngini = 0.6\nsamples = 41\nvalue = [4, 0, 21, 34, 2]"] ;
468 -> 469 ;
470 [label="volatile acidity <= 0.5\ngini = 0.3\nsamples = 8\nvalue = [0, 0, 10, 1, 1]"] ;
469 -> 470 ;
471 [label="gini = 0.0\nsamples = 4\nvalue = [0, 0, 6, 0, 0]"] ;
470 -> 471 ;
472 [label="volatile acidity <= 0.7\ngini = 0.5\nsamples = 4\nvalue = [0, 0, 4, 1, 1]"] ;
470 -> 472 ;
473 [label="total sulfur dioxide <= 25.5\ngini = 0.5\nsamples = 2\nvalue = [0, 0, 0, 1, 1]"] ;
472 -> 473 ;
474 [label="gini = 0.0\nsamples = 1\nvalue = [0, 0, 0, 0, 1]"] ;
473 -> 474 ;
475 [label="gini = 0.0\nsamples = 1\nvalue = [0, 0, 0, 1, 0]"] ;
473 -> 475 ;
476 [label="gini = 0.0\nsamples = 2\nvalue = [0, 0, 4, 0, 0]"] ;
472 -> 476 ;
477 [label="citric acid <= 0.0\ngini = 0.5\nsamples = 33\nvalue = [4, 0, 11, 33, 1]"] ;
469 -> 477 ;
478 [label="chlorides <= 0.0\ngini = 0.4\nsamples = 3\nvalue = [0, 0, 3, 1, 0]"] ;
477 -> 478 ;
479 [label="gini = 0.0\nsamples = 2\nvalue = [0, 0, 3, 0, 0]"] ;
478 -> 479 ;
480 [label="gini = 0.0\nsamples = 1\nvalue = [0, 0, 0, 1, 0]"] ;
478 -> 480 ;
481 [label="free sulfur dioxide <= 33.5\ngini = 0.5\nsamples = 30\nvalue = [4, 0, 8, 32, 1]"] ;
477 -> 481 ;
482 [label="sulphates <= 0.4\ngini = 0.4\nsamples = 28\nvalue = [2, 0, 6, 32, 1]"] ;
481 -> 482 ;
483 [label="gini = 0.0\nsamples = 1\nvalue = [0, 0, 2, 0, 0]"] ;
482 -> 483 ;
484 [label="sulphates <= 1.0\ngini = 0.3\nsamples = 27\nvalue = [2, 0, 4, 32, 1]"] ;
482 -> 484 ;
485 [label="fixed acidity <= 6.0\ngini = 0.3\nsamples = 26\nvalue = [2, 0, 3, 32, 1]"] ;
484 -> 485 ;
486 [label="alcohol <= 12.6\ngini = 0.1\nsamples = 12\nvalue = [0, 0, 0, 17, 1]"] ;
485 -> 486 ;
487 [label="chlorides <= 0.0\ngini = 0.4\nsamples = 3\nvalue = [0, 0, 0, 2, 1]"] ;
486 -> 487 ;
488 [label="gini = 0.0\nsamples = 2\nvalue = [0, 0, 0, 2, 0]"] ;
487 -> 488 ;
489 [label="gini = 0.0\nsamples = 1\nvalue = [0, 0, 0, 0, 1]"] ;
487 -> 489 ;
490 [label="gini = 0.0\nsamples = 9\nvalue = [0, 0, 0, 15, 0]"] ;
486 -> 490 ;
491 [label="chlorides <= 0.0\ngini = 0.4\nsamples = 14\nvalue = [2, 0, 3, 15, 0]"] ;
485 -> 491 ;
492 [label="gini = 0.0\nsamples = 1\nvalue = [2, 0, 0, 0, 0]"] ;
491 -> 492 ;
493 [label="fixed acidity <= 6.1\ngini = 0.3\nsamples = 13\nvalue = [0, 0, 3, 15, 0]"] ;
491 -> 493 ;
494 [label="gini = 0.0\nsamples = 1\nvalue = [0, 0, 1, 0, 0]"] ;
493 -> 494 ;
495 [label="alcohol <= 12.9\ngini = 0.2\nsamples = 12\nvalue = [0, 0, 2, 15, 0]"] ;
493 -> 495 ;
496 [label="gini = 0.0\nsamples = 7\nvalue = [0, 0, 0, 11, 0]"] ;
495 -> 496 ;
497 [label="total sulfur dioxide <= 93.0\ngini = 0.4\nsamples = 5\nvalue = [0, 0, 2, 4, 0]"] ;
495 -> 497 ;
498 [label="gini = 0.0\nsamples = 1\nvalue = [0, 0, 1, 0, 0]"] ;
497 -> 498 ;
499 [label="density <= 1.0\ngini = 0.3\nsamples = 4\nvalue = [0, 0, 1, 4, 0]"] ;
497 -> 499 ;
500 [label="gini = 0.0\nsamples = 1\nvalue = [0, 0, 1, 0, 0]"] ;
499 -> 500 ;
501 [label="gini = 0.0\nsamples = 3\nvalue = [0, 0, 0, 4, 0]"] ;
499 -> 501 ;
502 [label="gini = 0.0\nsamples = 1\nvalue = [0, 0, 1, 0, 0]"] ;
484 -> 502 ;
503 [label="total sulfur dioxide <= 125.0\ngini = 0.5\nsamples = 2\nvalue = [2, 0, 2, 0, 0]"] ;
481 -> 503 ;
504 [label="gini = 0.0\nsamples = 1\nvalue = [0, 0, 2, 0, 0]"] ;
503 -> 504 ;
505 [label="gini = 0.0\nsamples = 1\nvalue = [2, 0, 0, 0, 0]"] ;
503 -> 505 ;
506 [label="alcohol <= 13.2\ngini = 0.4\nsamples = 8\nvalue = [0, 0, 13, 5, 0]"] ;
468 -> 506 ;
507 [label="gini = 0.0\nsamples = 5\nvalue = [0, 0, 10, 0, 0]"] ;
506 -> 507 ;
508 [label="volatile acidity <= 0.4\ngini = 0.5\nsamples = 3\nvalue = [0, 0, 3, 5, 0]"] ;
506 -> 508 ;
509 [label="gini = 0.0\nsamples = 1\nvalue = [0, 0, 3, 0, 0]"] ;
508 -> 509 ;
510 [label="gini = 0.0\nsamples = 2\nvalue = [0, 0, 0, 5, 0]"] ;
508 -> 510 ;
511 [label="total sulfur dioxide <= 239.2\ngini = 0.3\nsamples = 40\nvalue = [0, 3, 10, 0, 51]"] ;
1 -> 511 ;
512 [label="fixed acidity <= 6.4\ngini = 0.3\nsamples = 38\nvalue = [0, 3, 7, 0, 48]"] ;
511 -> 512 ;
513 [label="citric acid <= 0.2\ngini = 0.5\nsamples = 16\nvalue = [0, 2, 5, 0, 16]"] ;
512 -> 513 ;
514 [label="fixed acidity <= 6.0\ngini = 0.4\nsamples = 14\nvalue = [0, 2, 3, 0, 16]"] ;
513 -> 514 ;
515 [label="gini = 0.0\nsamples = 8\nvalue = [0, 0, 0, 0, 11]"] ;
514 -> 515 ;
516 [label="chlorides <= 0.0\ngini = 0.6\nsamples = 6\nvalue = [0, 2, 3, 0, 5]"] ;
514 -> 516 ;
517 [label="gini = 0.0\nsamples = 1\nvalue = [0, 0, 3, 0, 0]"] ;
516 -> 517 ;
518 [label="citric acid <= 0.2\ngini = 0.4\nsamples = 5\nvalue = [0, 2, 0, 0, 5]"] ;
516 -> 518 ;
519 [label="gini = 0.0\nsamples = 1\nvalue = [0, 1, 0, 0, 0]"] ;
518 -> 519 ;
520 [label="free sulfur dioxide <= 39.0\ngini = 0.3\nsamples = 4\nvalue = [0, 1, 0, 0, 5]"] ;
518 -> 520 ;
521 [label="density <= 1.0\ngini = 0.4\nsamples = 3\nvalue = [0, 1, 0, 0, 2]"] ;
520 -> 521 ;
522 [label="gini = 0.0\nsamples = 2\nvalue = [0, 0, 0, 0, 2]"] ;
521 -> 522 ;
523 [label="gini = 0.0\nsamples = 1\nvalue = [0, 1, 0, 0, 0]"] ;
521 -> 523 ;
524 [label="gini = 0.0\nsamples = 1\nvalue = [0, 0, 0, 0, 3]"] ;
520 -> 524 ;
525 [label="gini = 0.0\nsamples = 2\nvalue = [0, 0, 2, 0, 0]"] ;
513 -> 525 ;
526 [label="residual sugar <= 3.0\ngini = 0.2\nsamples = 22\nvalue = [0, 1, 2, 0, 32]"] ;
512 -> 526 ;
527 [label="chlorides <= 0.0\ngini = 0.5\nsamples = 2\nvalue = [0, 1, 0, 0, 1]"] ;
526 -> 527 ;
528 [label="gini = 0.0\nsamples = 1\nvalue = [0, 1, 0, 0, 0]"] ;
527 -> 528 ;
529 [label="gini = 0.0\nsamples = 1\nvalue = [0, 0, 0, 0, 1]"] ;
527 -> 529 ;
530 [label="residual sugar <= 13.8\ngini = 0.1\nsamples = 20\nvalue = [0, 0, 2, 0, 31]"] ;
526 -> 530 ;
531 [label="density <= 1.0\ngini = 0.1\nsamples = 18\nvalue = [0, 0, 1, 0, 28]"] ;
530 -> 531 ;
532 [label="citric acid <= 0.2\ngini = 0.3\nsamples = 4\nvalue = [0, 0, 1, 0, 4]"] ;
531 -> 532 ;
533 [label="gini = 0.0\nsamples = 1\nvalue = [0, 0, 1, 0, 0]"] ;
532 -> 533 ;
534 [label="gini = 0.0\nsamples = 3\nvalue = [0, 0, 0, 0, 4]"] ;
532 -> 534 ;
535 [label="gini = 0.0\nsamples = 14\nvalue = [0, 0, 0, 0, 24]"] ;
531 -> 535 ;
536 [label="residual sugar <= 14.6\ngini = 0.4\nsamples = 2\nvalue = [0, 0, 1, 0, 3]"] ;
530 -> 536 ;
537 [label="gini = 0.0\nsamples = 1\nvalue = [0, 0, 1, 0, 0]"] ;
536 -> 537 ;
538 [label="gini = 0.0\nsamples = 1\nvalue = [0, 0, 0, 0, 3]"] ;
536 -> 538 ;
539 [label="volatile acidity <= 0.3\ngini = 0.5\nsamples = 2\nvalue = [0, 0, 3, 0, 3]"] ;
511 -> 539 ;
540 [label="gini = 0.0\nsamples = 1\nvalue = [0, 0, 3, 0, 0]"] ;
539 -> 540 ;
541 [label="gini = 0.0\nsamples = 1\nvalue = [0, 0, 0, 0, 3]"] ;
539 -> 541 ;
542 [label="chlorides <= 0.0\ngini = 0.7\nsamples = 2598\nvalue = [154, 108, 1789, 749, 1212]"] ;
0 -> 542 [labeldistance=2.5, labelangle=-45, headlabel="False"] ;
543 [label="citric acid <= 0.6\ngini = 0.7\nsamples = 816\nvalue = [82, 31, 540, 398, 181]"] ;
542 -> 543 ;
544 [label="alcohol <= 11.8\ngini = 0.7\nsamples = 795\nvalue = [82, 31, 527, 398, 157]"] ;
543 -> 544 ;
545 [label="density <= 1.0\ngini = 0.7\nsamples = 464\nvalue = [15, 24, 343, 179, 143]"] ;
544 -> 545 ;
546 [label="volatile acidity <= 0.5\ngini = 0.6\nsamples = 110\nvalue = [2, 3, 81, 70, 15]"] ;
545 -> 546 ;
547 [label="density <= 1.0\ngini = 0.6\nsamples = 109\nvalue = [2, 1, 81, 70, 15]"] ;
546 -> 547 ;
548 [label="pH <= 3.2\ngini = 0.6\nsamples = 65\nvalue = [1, 1, 58, 30, 13]"] ;
547 -> 548 ;
549 [label="alcohol <= 11.6\ngini = 0.5\nsamples = 46\nvalue = [0, 1, 44, 8, 13]"] ;
548 -> 549 ;
550 [label="volatile acidity <= 0.3\ngini = 0.6\nsamples = 35\nvalue = [0, 1, 31, 7, 13]"] ;
549 -> 550 ;
551 [label="total sulfur dioxide <= 112.5\ngini = 0.5\nsamples = 29\nvalue = [0, 1, 29, 7, 7]"] ;
550 -> 551 ;
552 [label="citric acid <= 0.4\ngini = 0.6\nsamples = 19\nvalue = [0, 1, 14, 7, 7]"] ;
551 -> 552 ;
553 [label="fixed acidity <= 6.1\ngini = 0.4\nsamples = 12\nvalue = [0, 1, 12, 4, 0]"] ;
552 -> 553 ;
554 [label="gini = 0.0\nsamples = 1\nvalue = [0, 0, 0, 3, 0]"] ;
553 -> 554 ;
555 [label="fixed acidity <= 8.2\ngini = 0.3\nsamples = 11\nvalue = [0, 1, 12, 1, 0]"] ;
553 -> 555 ;
556 [label="chlorides <= 0.0\ngini = 0.1\nsamples = 10\nvalue = [0, 0, 12, 1, 0]"] ;
555 -> 556 ;
557 [label="fixed acidity <= 7.5\ngini = 0.4\nsamples = 2\nvalue = [0, 0, 2, 1, 0]"] ;
556 -> 557 ;
558 [label="gini = 0.0\nsamples = 1\nvalue = [0, 0, 0, 1, 0]"] ;
557 -> 558 ;
559 [label="gini = 0.0\nsamples = 1\nvalue = [0, 0, 2, 0, 0]"] ;
557 -> 559 ;
560 [label="gini = 0.0\nsamples = 8\nvalue = [0, 0, 10, 0, 0]"] ;
556 -> 560 ;
561 [label="gini = 0.0\nsamples = 1\nvalue = [0, 1, 0, 0, 0]"] ;
555 -> 561 ;
562 [label="chlorides <= 0.0\ngini = 0.6\nsamples = 7\nvalue = [0, 0, 2, 3, 7]"] ;
552 -> 562 ;
563 [label="residual sugar <= 2.0\ngini = 0.4\nsamples = 6\nvalue = [0, 0, 0, 3, 7]"] ;
562 -> 563 ;
564 [label="sulphates <= 0.5\ngini = 0.2\nsamples = 5\nvalue = [0, 0, 0, 1, 7]"] ;
563 -> 564 ;
565 [label="gini = 0.0\nsamples = 4\nvalue = [0, 0, 0, 0, 7]"] ;
564 -> 565 ;
566 [label="gini = 0.0\nsamples = 1\nvalue = [0, 0, 0, 1, 0]"] ;
564 -> 566 ;
567 [label="gini = 0.0\nsamples = 1\nvalue = [0, 0, 0, 2, 0]"] ;
563 -> 567 ;
568 [label="gini = 0.0\nsamples = 1\nvalue = [0, 0, 2, 0, 0]"] ;
562 -> 568 ;
569 [label="gini = 0.0\nsamples = 10\nvalue = [0, 0, 15, 0, 0]"] ;
551 -> 569 ;
570 [label="fixed acidity <= 5.7\ngini = 0.4\nsamples = 6\nvalue = [0, 0, 2, 0, 6]"] ;
550 -> 570 ;
571 [label="gini = 0.0\nsamples = 2\nvalue = [0, 0, 2, 0, 0]"] ;
570 -> 571 ;
572 [label="gini = 0.0\nsamples = 4\nvalue = [0, 0, 0, 0, 6]"] ;
570 -> 572 ;
573 [label="citric acid <= 0.3\ngini = 0.1\nsamples = 11\nvalue = [0, 0, 13, 1, 0]"] ;
549 -> 573 ;
574 [label="gini = 0.0\nsamples = 9\nvalue = [0, 0, 12, 0, 0]"] ;
573 -> 574 ;
575 [label="density <= 1.0\ngini = 0.5\nsamples = 2\nvalue = [0, 0, 1, 1, 0]"] ;
573 -> 575 ;
576 [label="gini = 0.0\nsamples = 1\nvalue = [0, 0, 0, 1, 0]"] ;
575 -> 576 ;
577 [label="gini = 0.0\nsamples = 1\nvalue = [0, 0, 1, 0, 0]"] ;
575 -> 577 ;
578 [label="residual sugar <= 1.3\ngini = 0.5\nsamples = 19\nvalue = [1, 0, 14, 22, 0]"] ;
548 -> 578 ;
579 [label="pH <= 3.3\ngini = 0.5\nsamples = 11\nvalue = [0, 0, 13, 10, 0]"] ;
578 -> 579 ;
580 [label="gini = 0.0\nsamples = 2\nvalue = [0, 0, 0, 6, 0]"] ;
579 -> 580 ;
581 [label="fixed acidity <= 5.1\ngini = 0.4\nsamples = 9\nvalue = [0, 0, 13, 4, 0]"] ;
579 -> 581 ;
582 [label="gini = 0.0\nsamples = 1\nvalue = [0, 0, 0, 2, 0]"] ;
581 -> 582 ;
583 [label="free sulfur dioxide <= 52.5\ngini = 0.2\nsamples = 8\nvalue = [0, 0, 13, 2, 0]"] ;
581 -> 583 ;
584 [label="gini = 0.0\nsamples = 7\nvalue = [0, 0, 13, 0, 0]"] ;
583 -> 584 ;
585 [label="gini = 0.0\nsamples = 1\nvalue = [0, 0, 0, 2, 0]"] ;
583 -> 585 ;
586 [label="density <= 1.0\ngini = 0.3\nsamples = 8\nvalue = [1, 0, 1, 12, 0]"] ;
578 -> 586 ;
587 [label="density <= 1.0\ngini = 0.1\nsamples = 7\nvalue = [1, 0, 0, 12, 0]"] ;
586 -> 587 ;
588 [label="gini = 0.0\nsamples = 5\nvalue = [0, 0, 0, 11, 0]"] ;
587 -> 588 ;
589 [label="volatile acidity <= 0.2\ngini = 0.5\nsamples = 2\nvalue = [1, 0, 0, 1, 0]"] ;
587 -> 589 ;
590 [label="gini = 0.0\nsamples = 1\nvalue = [1, 0, 0, 0, 0]"] ;
589 -> 590 ;
591 [label="gini = 0.0\nsamples = 1\nvalue = [0, 0, 0, 1, 0]"] ;
589 -> 591 ;
592 [label="gini = 0.0\nsamples = 1\nvalue = [0, 0, 1, 0, 0]"] ;
586 -> 592 ;
593 [label="density <= 1.0\ngini = 0.5\nsamples = 44\nvalue = [1, 0, 23, 40, 2]"] ;
547 -> 593 ;
594 [label="residual sugar <= 1.3\ngini = 0.3\nsamples = 18\nvalue = [1, 0, 3, 21, 0]"] ;
593 -> 594 ;
595 [label="density <= 1.0\ngini = 0.6\nsamples = 5\nvalue = [1, 0, 3, 3, 0]"] ;
594 -> 595 ;
596 [label="alcohol <= 11.2\ngini = 0.4\nsamples = 3\nvalue = [1, 0, 0, 3, 0]"] ;
595 -> 596 ;
597 [label="gini = 0.0\nsamples = 2\nvalue = [0, 0, 0, 3, 0]"] ;
596 -> 597 ;
598 [label="gini = 0.0\nsamples = 1\nvalue = [1, 0, 0, 0, 0]"] ;
596 -> 598 ;
599 [label="gini = 0.0\nsamples = 2\nvalue = [0, 0, 3, 0, 0]"] ;
595 -> 599 ;
600 [label="gini = 0.0\nsamples = 13\nvalue = [0, 0, 0, 18, 0]"] ;
594 -> 600 ;
601 [label="sulphates <= 0.5\ngini = 0.5\nsamples = 26\nvalue = [0, 0, 20, 19, 2]"] ;
593 -> 601 ;
602 [label="citric acid <= 0.3\ngini = 0.3\nsamples = 13\nvalue = [0, 0, 15, 3, 1]"] ;
601 -> 602 ;
603 [label="citric acid <= 0.3\ngini = 0.1\nsamples = 9\nvalue = [0, 0, 12, 0, 1]"] ;
602 -> 603 ;
604 [label="gini = 0.0\nsamples = 6\nvalue = [0, 0, 9, 0, 0]"] ;
603 -> 604 ;
605 [label="pH <= 3.0\ngini = 0.4\nsamples = 3\nvalue = [0, 0, 3, 0, 1]"] ;
603 -> 605 ;
606 [label="gini = 0.0\nsamples = 1\nvalue = [0, 0, 0, 0, 1]"] ;
605 -> 606 ;
607 [label="gini = 0.0\nsamples = 2\nvalue = [0, 0, 3, 0, 0]"] ;
605 -> 607 ;
608 [label="fixed acidity <= 6.2\ngini = 0.5\nsamples = 4\nvalue = [0, 0, 3, 3, 0]"] ;
602 -> 608 ;
609 [label="gini = 0.0\nsamples = 1\nvalue = [0, 0, 2, 0, 0]"] ;
608 -> 609 ;
610 [label="alcohol <= 10.8\ngini = 0.4\nsamples = 3\nvalue = [0, 0, 1, 3, 0]"] ;
608 -> 610 ;
611 [label="gini = 0.0\nsamples = 1\nvalue = [0, 0, 1, 0, 0]"] ;
610 -> 611 ;
612 [label="gini = 0.0\nsamples = 2\nvalue = [0, 0, 0, 3, 0]"] ;
610 -> 612 ;
613 [label="total sulfur dioxide <= 104.5\ngini = 0.4\nsamples = 13\nvalue = [0, 0, 5, 16, 1]"] ;
601 -> 613 ;
614 [label="gini = 0.0\nsamples = 2\nvalue = [0, 0, 3, 0, 0]"] ;
613 -> 614 ;
615 [label="fixed acidity <= 6.9\ngini = 0.3\nsamples = 11\nvalue = [0, 0, 2, 16, 1]"] ;
613 -> 615 ;
616 [label="fixed acidity <= 6.1\ngini = 0.1\nsamples = 9\nvalue = [0, 0, 0, 15, 1]"] ;
615 -> 616 ;
617 [label="fixed acidity <= 6.0\ngini = 0.4\nsamples = 3\nvalue = [0, 0, 0, 3, 1]"] ;
616 -> 617 ;
618 [label="gini = 0.0\nsamples = 2\nvalue = [0, 0, 0, 3, 0]"] ;
617 -> 618 ;
619 [label="gini = 0.0\nsamples = 1\nvalue = [0, 0, 0, 0, 1]"] ;
617 -> 619 ;
620 [label="gini = 0.0\nsamples = 6\nvalue = [0, 0, 0, 12, 0]"] ;
616 -> 620 ;
621 [label="density <= 1.0\ngini = 0.4\nsamples = 2\nvalue = [0, 0, 2, 1, 0]"] ;
615 -> 621 ;
622 [label="gini = 0.0\nsamples = 1\nvalue = [0, 0, 0, 1, 0]"] ;
621 -> 622 ;
623 [label="gini = 0.0\nsamples = 1\nvalue = [0, 0, 2, 0, 0]"] ;
621 -> 623 ;
624 [label="gini = 0.0\nsamples = 1\nvalue = [0, 2, 0, 0, 0]"] ;
546 -> 624 ;
625 [label="free sulfur dioxide <= 16.5\ngini = 0.7\nsamples = 354\nvalue = [13, 21, 262, 109, 128]"] ;
545 -> 625 ;
626 [label="fixed acidity <= 6.5\ngini = 0.7\nsamples = 58\nvalue = [0, 12, 12, 16, 43]"] ;
625 -> 626 ;
627 [label="alcohol <= 10.1\ngini = 0.6\nsamples = 11\nvalue = [0, 3, 5, 11, 0]"] ;
626 -> 627 ;
628 [label="volatile acidity <= 0.3\ngini = 0.5\nsamples = 4\nvalue = [0, 3, 3, 0, 0]"] ;
627 -> 628 ;
629 [label="gini = 0.0\nsamples = 3\nvalue = [0, 0, 3, 0, 0]"] ;
628 -> 629 ;
630 [label="gini = 0.0\nsamples = 1\nvalue = [0, 3, 0, 0, 0]"] ;
628 -> 630 ;
631 [label="chlorides <= 0.0\ngini = 0.3\nsamples = 7\nvalue = [0, 0, 2, 11, 0]"] ;
627 -> 631 ;
632 [label="gini = 0.0\nsamples = 1\nvalue = [0, 0, 2, 0, 0]"] ;
631 -> 632 ;
633 [label="gini = 0.0\nsamples = 6\nvalue = [0, 0, 0, 11, 0]"] ;
631 -> 633 ;
634 [label="residual sugar <= 10.2\ngini = 0.5\nsamples = 47\nvalue = [0, 9, 7, 5, 43]"] ;
626 -> 634 ;
635 [label="fixed acidity <= 8.7\ngini = 0.5\nsamples = 43\nvalue = [0, 5, 7, 5, 42]"] ;
634 -> 635 ;
636 [label="sulphates <= 0.4\ngini = 0.3\nsamples = 38\nvalue = [0, 1, 4, 5, 40]"] ;
635 -> 636 ;
637 [label="total sulfur dioxide <= 121.0\ngini = 0.5\nsamples = 16\nvalue = [0, 1, 3, 4, 14]"] ;
636 -> 637 ;
638 [label="alcohol <= 10.9\ngini = 0.5\nsamples = 15\nvalue = [0, 1, 1, 4, 14]"] ;
637 -> 638 ;
639 [label="residual sugar <= 1.7\ngini = 0.2\nsamples = 13\nvalue = [0, 1, 1, 0, 14]"] ;
638 -> 639 ;
640 [label="free sulfur dioxide <= 9.5\ngini = 0.4\nsamples = 6\nvalue = [0, 1, 1, 0, 6]"] ;
639 -> 640 ;
641 [label="gini = 0.0\nsamples = 1\nvalue = [0, 1, 0, 0, 0]"] ;
640 -> 641 ;
642 [label="total sulfur dioxide <= 94.5\ngini = 0.2\nsamples = 5\nvalue = [0, 0, 1, 0, 6]"] ;
640 -> 642 ;
643 [label="gini = 0.0\nsamples = 4\nvalue = [0, 0, 0, 0, 6]"] ;
642 -> 643 ;
644 [label="gini = 0.0\nsamples = 1\nvalue = [0, 0, 1, 0, 0]"] ;
642 -> 644 ;
645 [label="gini = 0.0\nsamples = 7\nvalue = [0, 0, 0, 0, 8]"] ;
639 -> 645 ;
646 [label="gini = 0.0\nsamples = 2\nvalue = [0, 0, 0, 4, 0]"] ;
638 -> 646 ;
647 [label="gini = 0.0\nsamples = 1\nvalue = [0, 0, 2, 0, 0]"] ;
637 -> 647 ;
648 [label="free sulfur dioxide <= 15.5\ngini = 0.1\nsamples = 22\nvalue = [0, 0, 1, 1, 26]"] ;
636 -> 648 ;
649 [label="chlorides <= 0.0\ngini = 0.1\nsamples = 19\nvalue = [0, 0, 1, 0, 24]"] ;
648 -> 649 ;
650 [label="fixed acidity <= 6.8\ngini = 0.4\nsamples = 3\nvalue = [0, 0, 1, 0, 2]"] ;
649 -> 650 ;
651 [label="gini = 0.0\nsamples = 1\nvalue = [0, 0, 1, 0, 0]"] ;
650 -> 651 ;
652 [label="gini = 0.0\nsamples = 2\nvalue = [0, 0, 0, 0, 2]"] ;
650 -> 652 ;
653 [label="gini = 0.0\nsamples = 16\nvalue = [0, 0, 0, 0, 22]"] ;
649 -> 653 ;
654 [label="citric acid <= 0.3\ngini = 0.4\nsamples = 3\nvalue = [0, 0, 0, 1, 2]"] ;
648 -> 654 ;
655 [label="gini = 0.0\nsamples = 1\nvalue = [0, 0, 0, 1, 0]"] ;
654 -> 655 ;
656 [label="gini = 0.0\nsamples = 2\nvalue = [0, 0, 0, 0, 2]"] ;
654 -> 656 ;
657 [label="sulphates <= 0.4\ngini = 0.6\nsamples = 5\nvalue = [0, 4, 3, 0, 2]"] ;
635 -> 657 ;
658 [label="fixed acidity <= 9.3\ngini = 0.4\nsamples = 3\nvalue = [0, 4, 0, 0, 2]"] ;
657 -> 658 ;
659 [label="gini = 0.0\nsamples = 1\nvalue = [0, 2, 0, 0, 0]"] ;
658 -> 659 ;
660 [label="alcohol <= 9.8\ngini = 0.5\nsamples = 2\nvalue = [0, 2, 0, 0, 2]"] ;
658 -> 660 ;
661 [label="gini = 0.0\nsamples = 1\nvalue = [0, 2, 0, 0, 0]"] ;
660 -> 661 ;
662 [label="gini = 0.0\nsamples = 1\nvalue = [0, 0, 0, 0, 2]"] ;
660 -> 662 ;
663 [label="gini = 0.0\nsamples = 2\nvalue = [0, 0, 3, 0, 0]"] ;
657 -> 663 ;
664 [label="citric acid <= 0.3\ngini = 0.3\nsamples = 4\nvalue = [0, 4, 0, 0, 1]"] ;
634 -> 664 ;
665 [label="gini = 0.0\nsamples = 1\nvalue = [0, 0, 0, 0, 1]"] ;
664 -> 665 ;
666 [label="gini = 0.0\nsamples = 3\nvalue = [0, 4, 0, 0, 0]"] ;
664 -> 666 ;
667 [label="sulphates <= 0.6\ngini = 0.6\nsamples = 296\nvalue = [13, 9, 250, 93, 85]"] ;
625 -> 667 ;
668 [label="citric acid <= 0.2\ngini = 0.6\nsamples = 265\nvalue = [11, 6, 239, 70, 71]"] ;
667 -> 668 ;
669 [label="free sulfur dioxide <= 41.5\ngini = 0.5\nsamples = 11\nvalue = [0, 1, 5, 12, 0]"] ;
668 -> 669 ;
670 [label="residual sugar <= 8.5\ngini = 0.2\nsamples = 6\nvalue = [0, 0, 1, 10, 0]"] ;
669 -> 670 ;
671 [label="gini = 0.0\nsamples = 3\nvalue = [0, 0, 0, 7, 0]"] ;
670 -> 671 ;
672 [label="free sulfur dioxide <= 33.0\ngini = 0.4\nsamples = 3\nvalue = [0, 0, 1, 3, 0]"] ;
670 -> 672 ;
673 [label="gini = 0.0\nsamples = 1\nvalue = [0, 0, 1, 0, 0]"] ;
672 -> 673 ;
674 [label="gini = 0.0\nsamples = 2\nvalue = [0, 0, 0, 3, 0]"] ;
672 -> 674 ;
675 [label="free sulfur dioxide <= 44.0\ngini = 0.6\nsamples = 5\nvalue = [0, 1, 4, 2, 0]"] ;
669 -> 675 ;
676 [label="gini = 0.0\nsamples = 3\nvalue = [0, 0, 4, 0, 0]"] ;
675 -> 676 ;
677 [label="pH <= 3.4\ngini = 0.4\nsamples = 2\nvalue = [0, 1, 0, 2, 0]"] ;
675 -> 677 ;
678 [label="gini = 0.0\nsamples = 1\nvalue = [0, 0, 0, 2, 0]"] ;
677 -> 678 ;
679 [label="gini = 0.0\nsamples = 1\nvalue = [0, 1, 0, 0, 0]"] ;
677 -> 679 ;
680 [label="alcohol <= 10.7\ngini = 0.6\nsamples = 254\nvalue = [11, 5, 234, 58, 71]"] ;
668 -> 680 ;
681 [label="total sulfur dioxide <= 170.5\ngini = 0.5\nsamples = 139\nvalue = [5, 2, 139, 17, 50]"] ;
680 -> 681 ;
682 [label="sulphates <= 0.4\ngini = 0.4\nsamples = 96\nvalue = [5, 0, 108, 9, 26]"] ;
681 -> 682 ;
683 [label="volatile acidity <= 0.1\ngini = 0.5\nsamples = 53\nvalue = [3, 0, 48, 5, 21]"] ;
682 -> 683 ;
684 [label="gini = 0.0\nsamples = 2\nvalue = [3, 0, 0, 0, 0]"] ;
683 -> 684 ;
685 [label="chlorides <= 0.0\ngini = 0.5\nsamples = 51\nvalue = [0, 0, 48, 5, 21]"] ;
683 -> 685 ;
686 [label="free sulfur dioxide <= 17.5\ngini = 0.5\nsamples = 11\nvalue = [0, 0, 6, 0, 10]"] ;
685 -> 686 ;
687 [label="gini = 0.0\nsamples = 1\nvalue = [0, 0, 2, 0, 0]"] ;
686 -> 687 ;
688 [label="total sulfur dioxide <= 124.5\ngini = 0.4\nsamples = 10\nvalue = [0, 0, 4, 0, 10]"] ;
686 -> 688 ;
689 [label="gini = 0.0\nsamples = 4\nvalue = [0, 0, 0, 0, 6]"] ;
688 -> 689 ;
690 [label="volatile acidity <= 0.2\ngini = 0.5\nsamples = 6\nvalue = [0, 0, 4, 0, 4]"] ;
688 -> 690 ;
691 [label="gini = 0.0\nsamples = 2\nvalue = [0, 0, 0, 0, 3]"] ;
690 -> 691 ;
692 [label="total sulfur dioxide <= 152.0\ngini = 0.3\nsamples = 4\nvalue = [0, 0, 4, 0, 1]"] ;
690 -> 692 ;
693 [label="gini = 0.0\nsamples = 3\nvalue = [0, 0, 4, 0, 0]"] ;
692 -> 693 ;
694 [label="gini = 0.0\nsamples = 1\nvalue = [0, 0, 0, 0, 1]"] ;
692 -> 694 ;
695 [label="total sulfur dioxide <= 150.0\ngini = 0.4\nsamples = 40\nvalue = [0, 0, 42, 5, 11]"] ;
685 -> 695 ;
696 [label="pH <= 3.1\ngini = 0.5\nsamples = 30\nvalue = [0, 0, 29, 4, 11]"] ;
695 -> 696 ;
697 [label="alcohol <= 10.1\ngini = 0.5\nsamples = 10\nvalue = [0, 0, 4, 1, 7]"] ;
696 -> 697 ;
698 [label="total sulfur dioxide <= 105.5\ngini = 0.2\nsamples = 5\nvalue = [0, 0, 1, 0, 6]"] ;
697 -> 698 ;
699 [label="gini = 0.0\nsamples = 1\nvalue = [0, 0, 1, 0, 0]"] ;
698 -> 699 ;
700 [label="gini = 0.0\nsamples = 4\nvalue = [0, 0, 0, 0, 6]"] ;
698 -> 700 ;
701 [label="volatile acidity <= 0.2\ngini = 0.6\nsamples = 5\nvalue = [0, 0, 3, 1, 1]"] ;
697 -> 701 ;
702 [label="sulphates <= 0.4\ngini = 0.5\nsamples = 2\nvalue = [0, 0, 0, 1, 1]"] ;
701 -> 702 ;
703 [label="gini = 0.0\nsamples = 1\nvalue = [0, 0, 0, 1, 0]"] ;
702 -> 703 ;
704 [label="gini = 0.0\nsamples = 1\nvalue = [0, 0, 0, 0, 1]"] ;
702 -> 704 ;
705 [label="gini = 0.0\nsamples = 3\nvalue = [0, 0, 3, 0, 0]"] ;
701 -> 705 ;
706 [label="alcohol <= 9.1\ngini = 0.4\nsamples = 20\nvalue = [0, 0, 25, 3, 4]"] ;
696 -> 706 ;
707 [label="sulphates <= 0.4\ngini = 0.5\nsamples = 6\nvalue = [0, 0, 5, 0, 3]"] ;
706 -> 707 ;
708 [label="gini = 0.0\nsamples = 3\nvalue = [0, 0, 0, 0, 3]"] ;
707 -> 708 ;
709 [label="gini = 0.0\nsamples = 3\nvalue = [0, 0, 5, 0, 0]"] ;
707 -> 709 ;
710 [label="fixed acidity <= 7.7\ngini = 0.3\nsamples = 14\nvalue = [0, 0, 20, 3, 1]"] ;
706 -> 710 ;
711 [label="residual sugar <= 4.6\ngini = 0.1\nsamples = 12\nvalue = [0, 0, 20, 0, 1]"] ;
710 -> 711 ;
712 [label="citric acid <= 0.3\ngini = 0.2\nsamples = 5\nvalue = [0, 0, 7, 0, 1]"] ;
711 -> 712 ;
713 [label="gini = 0.0\nsamples = 3\nvalue = [0, 0, 6, 0, 0]"] ;
712 -> 713 ;
714 [label="free sulfur dioxide <= 34.0\ngini = 0.5\nsamples = 2\nvalue = [0, 0, 1, 0, 1]"] ;
712 -> 714 ;
715 [label="gini = 0.0\nsamples = 1\nvalue = [0, 0, 1, 0, 0]"] ;
714 -> 715 ;
716 [label="gini = 0.0\nsamples = 1\nvalue = [0, 0, 0, 0, 1]"] ;
714 -> 716 ;
717 [label="gini = 0.0\nsamples = 7\nvalue = [0, 0, 13, 0, 0]"] ;
711 -> 717 ;
718 [label="gini = 0.0\nsamples = 2\nvalue = [0, 0, 0, 3, 0]"] ;
710 -> 718 ;
719 [label="pH <= 3.3\ngini = 0.1\nsamples = 10\nvalue = [0, 0, 13, 1, 0]"] ;
695 -> 719 ;
720 [label="gini = 0.0\nsamples = 8\nvalue = [0, 0, 12, 0, 0]"] ;
719 -> 720 ;
721 [label="alcohol <= 9.2\ngini = 0.5\nsamples = 2\nvalue = [0, 0, 1, 1, 0]"] ;
719 -> 721 ;
722 [label="gini = 0.0\nsamples = 1\nvalue = [0, 0, 1, 0, 0]"] ;
721 -> 722 ;
723 [label="gini = 0.0\nsamples = 1\nvalue = [0, 0, 0, 1, 0]"] ;
721 -> 723 ;
724 [label="free sulfur dioxide <= 58.5\ngini = 0.3\nsamples = 43\nvalue = [2, 0, 60, 4, 5]"] ;
682 -> 724 ;
725 [label="volatile acidity <= 0.3\ngini = 0.2\nsamples = 40\nvalue = [2, 0, 58, 2, 5]"] ;
724 -> 725 ;
726 [label="total sulfur dioxide <= 126.5\ngini = 0.2\nsamples = 39\nvalue = [2, 0, 58, 2, 4]"] ;
725 -> 726 ;
727 [label="chlorides <= 0.0\ngini = 0.4\nsamples = 22\nvalue = [2, 0, 27, 2, 3]"] ;
726 -> 727 ;
728 [label="gini = 0.0\nsamples = 8\nvalue = [0, 0, 18, 0, 0]"] ;
727 -> 728 ;
729 [label="total sulfur dioxide <= 113.5\ngini = 0.6\nsamples = 14\nvalue = [2, 0, 9, 2, 3]"] ;
727 -> 729 ;
730 [label="sulphates <= 0.6\ngini = 0.5\nsamples = 11\nvalue = [0, 0, 9, 2, 2]"] ;
729 -> 730 ;
731 [label="residual sugar <= 1.4\ngini = 0.4\nsamples = 10\nvalue = [0, 0, 9, 1, 2]"] ;
730 -> 731 ;
732 [label="total sulfur dioxide <= 81.5\ngini = 0.6\nsamples = 4\nvalue = [0, 0, 1, 1, 2]"] ;
731 -> 732 ;
733 [label="gini = 0.0\nsamples = 1\nvalue = [0, 0, 0, 1, 0]"] ;
732 -> 733 ;
734 [label="alcohol <= 10.6\ngini = 0.4\nsamples = 3\nvalue = [0, 0, 1, 0, 2]"] ;
732 -> 734 ;
735 [label="gini = 0.0\nsamples = 2\nvalue = [0, 0, 0, 0, 2]"] ;
734 -> 735 ;
736 [label="gini = 0.0\nsamples = 1\nvalue = [0, 0, 1, 0, 0]"] ;
734 -> 736 ;
737 [label="gini = 0.0\nsamples = 6\nvalue = [0, 0, 8, 0, 0]"] ;
731 -> 737 ;
738 [label="gini = 0.0\nsamples = 1\nvalue = [0, 0, 0, 1, 0]"] ;
730 -> 738 ;
739 [label="residual sugar <= 13.2\ngini = 0.4\nsamples = 3\nvalue = [2, 0, 0, 0, 1]"] ;
729 -> 739 ;
740 [label="gini = 0.0\nsamples = 2\nvalue = [2, 0, 0, 0, 0]"] ;
739 -> 740 ;
741 [label="gini = 0.0\nsamples = 1\nvalue = [0, 0, 0, 0, 1]"] ;
739 -> 741 ;
742 [label="chlorides <= 0.0\ngini = 0.1\nsamples = 17\nvalue = [0, 0, 31, 0, 1]"] ;
726 -> 742 ;
743 [label="citric acid <= 0.3\ngini = 0.3\nsamples = 4\nvalue = [0, 0, 4, 0, 1]"] ;
742 -> 743 ;
744 [label="gini = 0.0\nsamples = 1\nvalue = [0, 0, 0, 0, 1]"] ;
743 -> 744 ;
745 [label="gini = 0.0\nsamples = 3\nvalue = [0, 0, 4, 0, 0]"] ;
743 -> 745 ;
746 [label="gini = 0.0\nsamples = 13\nvalue = [0, 0, 27, 0, 0]"] ;
742 -> 746 ;
747 [label="gini = 0.0\nsamples = 1\nvalue = [0, 0, 0, 0, 1]"] ;
725 -> 747 ;
748 [label="chlorides <= 0.0\ngini = 0.5\nsamples = 3\nvalue = [0, 0, 2, 2, 0]"] ;
724 -> 748 ;
749 [label="gini = 0.0\nsamples = 1\nvalue = [0, 0, 1, 0, 0]"] ;
748 -> 749 ;
750 [label="total sulfur dioxide <= 154.5\ngini = 0.4\nsamples = 2\nvalue = [0, 0, 1, 2, 0]"] ;
748 -> 750 ;
751 [label="gini = 0.0\nsamples = 1\nvalue = [0, 0, 0, 2, 0]"] ;
750 -> 751 ;
752 [label="gini = 0.0\nsamples = 1\nvalue = [0, 0, 1, 0, 0]"] ;
750 -> 752 ;
753 [label="volatile acidity <= 0.3\ngini = 0.6\nsamples = 43\nvalue = [0, 2, 31, 8, 24]"] ;
681 -> 753 ;
754 [label="sulphates <= 0.6\ngini = 0.5\nsamples = 18\nvalue = [0, 2, 20, 4, 4]"] ;
753 -> 754 ;
755 [label="residual sugar <= 8.0\ngini = 0.5\nsamples = 17\nvalue = [0, 2, 20, 2, 4]"] ;
754 -> 755 ;
756 [label="total sulfur dioxide <= 183.5\ngini = 0.7\nsamples = 5\nvalue = [0, 2, 1, 2, 2]"] ;
755 -> 756 ;
757 [label="gini = 0.0\nsamples = 1\nvalue = [0, 2, 0, 0, 0]"] ;
756 -> 757 ;
758 [label="total sulfur dioxide <= 199.5\ngini = 0.6\nsamples = 4\nvalue = [0, 0, 1, 2, 2]"] ;
756 -> 758 ;
759 [label="gini = 0.0\nsamples = 2\nvalue = [0, 0, 0, 0, 2]"] ;
758 -> 759 ;
760 [label="chlorides <= 0.0\ngini = 0.4\nsamples = 2\nvalue = [0, 0, 1, 2, 0]"] ;
758 -> 760 ;
761 [label="gini = 0.0\nsamples = 1\nvalue = [0, 0, 1, 0, 0]"] ;
760 -> 761 ;
762 [label="gini = 0.0\nsamples = 1\nvalue = [0, 0, 0, 2, 0]"] ;
760 -> 762 ;
763 [label="fixed acidity <= 6.6\ngini = 0.2\nsamples = 12\nvalue = [0, 0, 19, 0, 2]"] ;
755 -> 763 ;
764 [label="gini = 0.0\nsamples = 2\nvalue = [0, 0, 0, 0, 2]"] ;
763 -> 764 ;
765 [label="gini = 0.0\nsamples = 10\nvalue = [0, 0, 19, 0, 0]"] ;
763 -> 765 ;
766 [label="gini = 0.0\nsamples = 1\nvalue = [0, 0, 0, 2, 0]"] ;
754 -> 766 ;
767 [label="total sulfur dioxide <= 180.0\ngini = 0.6\nsamples = 25\nvalue = [0, 0, 11, 4, 20]"] ;
753 -> 767 ;
768 [label="free sulfur dioxide <= 54.0\ngini = 0.2\nsamples = 7\nvalue = [0, 0, 1, 0, 8]"] ;
767 -> 768 ;
769 [label="gini = 0.0\nsamples = 6\nvalue = [0, 0, 0, 0, 8]"] ;
768 -> 769 ;
770 [label="gini = 0.0\nsamples = 1\nvalue = [0, 0, 1, 0, 0]"] ;
768 -> 770 ;
771 [label="chlorides <= 0.0\ngini = 0.6\nsamples = 18\nvalue = [0, 0, 10, 4, 12]"] ;
767 -> 771 ;
772 [label="alcohol <= 10.2\ngini = 0.5\nsamples = 8\nvalue = [0, 0, 6, 1, 2]"] ;
771 -> 772 ;
773 [label="sulphates <= 0.6\ngini = 0.4\nsamples = 7\nvalue = [0, 0, 6, 1, 1]"] ;
772 -> 773 ;
774 [label="alcohol <= 9.7\ngini = 0.2\nsamples = 6\nvalue = [0, 0, 6, 0, 1]"] ;
773 -> 774 ;
775 [label="gini = 0.0\nsamples = 3\nvalue = [0, 0, 4, 0, 0]"] ;
774 -> 775 ;
776 [label="fixed acidity <= 6.6\ngini = 0.4\nsamples = 3\nvalue = [0, 0, 2, 0, 1]"] ;
774 -> 776 ;
777 [label="gini = 0.0\nsamples = 1\nvalue = [0, 0, 0, 0, 1]"] ;
776 -> 777 ;
778 [label="gini = 0.0\nsamples = 2\nvalue = [0, 0, 2, 0, 0]"] ;
776 -> 778 ;
779 [label="gini = 0.0\nsamples = 1\nvalue = [0, 0, 0, 1, 0]"] ;
773 -> 779 ;
780 [label="gini = 0.0\nsamples = 1\nvalue = [0, 0, 0, 0, 1]"] ;
772 -> 780 ;
781 [label="fixed acidity <= 8.7\ngini = 0.6\nsamples = 10\nvalue = [0, 0, 4, 3, 10]"] ;
771 -> 781 ;
782 [label="pH <= 3.3\ngini = 0.5\nsamples = 9\nvalue = [0, 0, 2, 3, 10]"] ;
781 -> 782 ;
783 [label="gini = 0.0\nsamples = 7\nvalue = [0, 0, 0, 0, 10]"] ;
782 -> 783 ;
784 [label="volatile acidity <= 0.3\ngini = 0.5\nsamples = 2\nvalue = [0, 0, 2, 3, 0]"] ;
782 -> 784 ;
785 [label="gini = 0.0\nsamples = 1\nvalue = [0, 0, 0, 3, 0]"] ;
784 -> 785 ;
786 [label="gini = 0.0\nsamples = 1\nvalue = [0, 0, 2, 0, 0]"] ;
784 -> 786 ;
787 [label="gini = 0.0\nsamples = 1\nvalue = [0, 0, 2, 0, 0]"] ;
781 -> 787 ;
788 [label="pH <= 3.4\ngini = 0.6\nsamples = 115\nvalue = [6, 3, 95, 41, 21]"] ;
680 -> 788 ;
789 [label="total sulfur dioxide <= 160.5\ngini = 0.6\nsamples = 107\nvalue = [6, 3, 93, 32, 21]"] ;
788 -> 789 ;
790 [label="sulphates <= 0.4\ngini = 0.6\nsamples = 97\nvalue = [6, 1, 86, 32, 15]"] ;
789 -> 790 ;
791 [label="sulphates <= 0.3\ngini = 0.2\nsamples = 19\nvalue = [0, 0, 28, 3, 1]"] ;
790 -> 791 ;
792 [label="density <= 1.0\ngini = 0.4\nsamples = 2\nvalue = [0, 0, 0, 2, 1]"] ;
791 -> 792 ;
793 [label="gini = 0.0\nsamples = 1\nvalue = [0, 0, 0, 0, 1]"] ;
792 -> 793 ;
794 [label="gini = 0.0\nsamples = 1\nvalue = [0, 0, 0, 2, 0]"] ;
792 -> 794 ;
795 [label="chlorides <= 0.0\ngini = 0.1\nsamples = 17\nvalue = [0, 0, 28, 1, 0]"] ;
791 -> 795 ;
796 [label="gini = 0.0\nsamples = 1\nvalue = [0, 0, 0, 1, 0]"] ;
795 -> 796 ;
797 [label="gini = 0.0\nsamples = 16\nvalue = [0, 0, 28, 0, 0]"] ;
795 -> 797 ;
798 [label="fixed acidity <= 5.6\ngini = 0.6\nsamples = 78\nvalue = [6, 1, 58, 29, 14]"] ;
790 -> 798 ;
799 [label="gini = 0.0\nsamples = 10\nvalue = [0, 0, 14, 0, 0]"] ;
798 -> 799 ;
800 [label="total sulfur dioxide <= 140.5\ngini = 0.7\nsamples = 68\nvalue = [6, 1, 44, 29, 14]"] ;
798 -> 800 ;
801 [label="citric acid <= 0.5\ngini = 0.6\nsamples = 54\nvalue = [6, 0, 43, 18, 11]"] ;
800 -> 801 ;
802 [label="free sulfur dioxide <= 29.5\ngini = 0.6\nsamples = 52\nvalue = [6, 0, 43, 14, 11]"] ;
801 -> 802 ;
803 [label="residual sugar <= 6.1\ngini = 0.7\nsamples = 24\nvalue = [5, 0, 10, 12, 7]"] ;
802 -> 803 ;
804 [label="residual sugar <= 1.4\ngini = 0.7\nsamples = 15\nvalue = [5, 0, 9, 1, 6]"] ;
803 -> 804 ;
805 [label="gini = 0.0\nsamples = 3\nvalue = [0, 0, 0, 0, 6]"] ;
804 -> 805 ;
806 [label="density <= 1.0\ngini = 0.5\nsamples = 12\nvalue = [5, 0, 9, 1, 0]"] ;
804 -> 806 ;
807 [label="alcohol <= 11.3\ngini = 0.3\nsamples = 3\nvalue = [5, 0, 1, 0, 0]"] ;
806 -> 807 ;
808 [label="gini = 0.0\nsamples = 2\nvalue = [5, 0, 0, 0, 0]"] ;
807 -> 808 ;
809 [label="gini = 0.0\nsamples = 1\nvalue = [0, 0, 1, 0, 0]"] ;
807 -> 809 ;
810 [label="fixed acidity <= 8.5\ngini = 0.2\nsamples = 9\nvalue = [0, 0, 8, 1, 0]"] ;
806 -> 810 ;
811 [label="gini = 0.0\nsamples = 8\nvalue = [0, 0, 8, 0, 0]"] ;
810 -> 811 ;
812 [label="gini = 0.0\nsamples = 1\nvalue = [0, 0, 0, 1, 0]"] ;
810 -> 812 ;
813 [label="density <= 1.0\ngini = 0.3\nsamples = 9\nvalue = [0, 0, 1, 11, 1]"] ;
803 -> 813 ;
814 [label="free sulfur dioxide <= 18.5\ngini = 0.6\nsamples = 4\nvalue = [0, 0, 1, 3, 1]"] ;
813 -> 814 ;
815 [label="gini = 0.0\nsamples = 2\nvalue = [0, 0, 0, 3, 0]"] ;
814 -> 815 ;
816 [label="residual sugar <= 7.6\ngini = 0.5\nsamples = 2\nvalue = [0, 0, 1, 0, 1]"] ;
814 -> 816 ;
817 [label="gini = 0.0\nsamples = 1\nvalue = [0, 0, 0, 0, 1]"] ;
816 -> 817 ;
818 [label="gini = 0.0\nsamples = 1\nvalue = [0, 0, 1, 0, 0]"] ;
816 -> 818 ;
819 [label="gini = 0.0\nsamples = 5\nvalue = [0, 0, 0, 8, 0]"] ;
813 -> 819 ;
820 [label="alcohol <= 11.6\ngini = 0.3\nsamples = 28\nvalue = [1, 0, 33, 2, 4]"] ;
802 -> 820 ;
821 [label="sulphates <= 0.4\ngini = 0.3\nsamples = 27\nvalue = [1, 0, 33, 1, 4]"] ;
820 -> 821 ;
822 [label="pH <= 3.0\ngini = 0.5\nsamples = 6\nvalue = [0, 0, 4, 0, 3]"] ;
821 -> 822 ;
823 [label="gini = 0.0\nsamples = 4\nvalue = [0, 0, 4, 0, 0]"] ;
822 -> 823 ;
824 [label="gini = 0.0\nsamples = 2\nvalue = [0, 0, 0, 0, 3]"] ;
822 -> 824 ;
825 [label="fixed acidity <= 7.9\ngini = 0.2\nsamples = 21\nvalue = [1, 0, 29, 1, 1]"] ;
821 -> 825 ;
826 [label="chlorides <= 0.0\ngini = 0.1\nsamples = 20\nvalue = [1, 0, 29, 0, 1]"] ;
825 -> 826 ;
827 [label="pH <= 3.3\ngini = 0.1\nsamples = 18\nvalue = [0, 0, 27, 0, 1]"] ;
826 -> 827 ;
828 [label="gini = 0.0\nsamples = 16\nvalue = [0, 0, 25, 0, 0]"] ;
827 -> 828 ;
829 [label="chlorides <= 0.0\ngini = 0.4\nsamples = 2\nvalue = [0, 0, 2, 0, 1]"] ;
827 -> 829 ;
830 [label="gini = 0.0\nsamples = 1\nvalue = [0, 0, 2, 0, 0]"] ;
829 -> 830 ;
831 [label="gini = 0.0\nsamples = 1\nvalue = [0, 0, 0, 0, 1]"] ;
829 -> 831 ;
832 [label="density <= 1.0\ngini = 0.4\nsamples = 2\nvalue = [1, 0, 2, 0, 0]"] ;
826 -> 832 ;
833 [label="gini = 0.0\nsamples = 1\nvalue = [0, 0, 2, 0, 0]"] ;
832 -> 833 ;
834 [label="gini = 0.0\nsamples = 1\nvalue = [1, 0, 0, 0, 0]"] ;
832 -> 834 ;
835 [label="gini = 0.0\nsamples = 1\nvalue = [0, 0, 0, 1, 0]"] ;
825 -> 835 ;
836 [label="gini = 0.0\nsamples = 1\nvalue = [0, 0, 0, 1, 0]"] ;
820 -> 836 ;
837 [label="gini = 0.0\nsamples = 2\nvalue = [0, 0, 0, 4, 0]"] ;
801 -> 837 ;
838 [label="density <= 1.0\ngini = 0.5\nsamples = 14\nvalue = [0, 1, 1, 11, 3]"] ;
800 -> 838 ;
839 [label="pH <= 3.2\ngini = 0.4\nsamples = 3\nvalue = [0, 1, 0, 0, 2]"] ;
838 -> 839 ;
840 [label="gini = 0.0\nsamples = 1\nvalue = [0, 1, 0, 0, 0]"] ;
839 -> 840 ;
841 [label="gini = 0.0\nsamples = 2\nvalue = [0, 0, 0, 0, 2]"] ;
839 -> 841 ;
842 [label="volatile acidity <= 0.4\ngini = 0.3\nsamples = 11\nvalue = [0, 0, 1, 11, 1]"] ;
838 -> 842 ;
843 [label="residual sugar <= 2.6\ngini = 0.2\nsamples = 10\nvalue = [0, 0, 0, 11, 1]"] ;
842 -> 843 ;
844 [label="gini = 0.0\nsamples = 1\nvalue = [0, 0, 0, 0, 1]"] ;
843 -> 844 ;
845 [label="gini = 0.0\nsamples = 9\nvalue = [0, 0, 0, 11, 0]"] ;
843 -> 845 ;
846 [label="gini = 0.0\nsamples = 1\nvalue = [0, 0, 1, 0, 0]"] ;
842 -> 846 ;
847 [label="pH <= 3.1\ngini = 0.6\nsamples = 10\nvalue = [0, 2, 7, 0, 6]"] ;
789 -> 847 ;
848 [label="chlorides <= 0.0\ngini = 0.5\nsamples = 6\nvalue = [0, 2, 1, 0, 6]"] ;
847 -> 848 ;
849 [label="alcohol <= 11.1\ngini = 0.2\nsamples = 4\nvalue = [0, 0, 1, 0, 6]"] ;
848 -> 849 ;
850 [label="gini = 0.0\nsamples = 3\nvalue = [0, 0, 0, 0, 6]"] ;
849 -> 850 ;
851 [label="gini = 0.0\nsamples = 1\nvalue = [0, 0, 1, 0, 0]"] ;
849 -> 851 ;
852 [label="gini = 0.0\nsamples = 2\nvalue = [0, 2, 0, 0, 0]"] ;
848 -> 852 ;
853 [label="gini = 0.0\nsamples = 4\nvalue = [0, 0, 6, 0, 0]"] ;
847 -> 853 ;
854 [label="density <= 1.0\ngini = 0.3\nsamples = 8\nvalue = [0, 0, 2, 9, 0]"] ;
788 -> 854 ;
855 [label="gini = 0.0\nsamples = 1\nvalue = [0, 0, 1, 0, 0]"] ;
854 -> 855 ;
856 [label="density <= 1.0\ngini = 0.2\nsamples = 7\nvalue = [0, 0, 1, 9, 0]"] ;
854 -> 856 ;
857 [label="density <= 1.0\ngini = 0.4\nsamples = 4\nvalue = [0, 0, 1, 3, 0]"] ;
856 -> 857 ;
858 [label="gini = 0.0\nsamples = 3\nvalue = [0, 0, 0, 3, 0]"] ;
857 -> 858 ;
859 [label="gini = 0.0\nsamples = 1\nvalue = [0, 0, 1, 0, 0]"] ;
857 -> 859 ;
860 [label="gini = 0.0\nsamples = 3\nvalue = [0, 0, 0, 6, 0]"] ;
856 -> 860 ;
861 [label="total sulfur dioxide <= 186.0\ngini = 0.7\nsamples = 31\nvalue = [2, 3, 11, 23, 14]"] ;
667 -> 861 ;
862 [label="pH <= 3.3\ngini = 0.7\nsamples = 27\nvalue = [2, 3, 9, 23, 7]"] ;
861 -> 862 ;
863 [label="fixed acidity <= 7.3\ngini = 0.5\nsamples = 18\nvalue = [0, 0, 5, 21, 7]"] ;
862 -> 863 ;
864 [label="sulphates <= 0.7\ngini = 0.3\nsamples = 12\nvalue = [0, 0, 4, 19, 0]"] ;
863 -> 864 ;
865 [label="fixed acidity <= 6.5\ngini = 0.4\nsamples = 7\nvalue = [0, 0, 4, 8, 0]"] ;
864 -> 865 ;
866 [label="gini = 0.0\nsamples = 1\nvalue = [0, 0, 2, 0, 0]"] ;
865 -> 866 ;
867 [label="free sulfur dioxide <= 45.5\ngini = 0.3\nsamples = 6\nvalue = [0, 0, 2, 8, 0]"] ;
865 -> 867 ;
868 [label="sulphates <= 0.7\ngini = 0.2\nsamples = 5\nvalue = [0, 0, 1, 8, 0]"] ;
867 -> 868 ;
869 [label="alcohol <= 10.6\ngini = 0.5\nsamples = 2\nvalue = [0, 0, 1, 1, 0]"] ;
868 -> 869 ;
870 [label="gini = 0.0\nsamples = 1\nvalue = [0, 0, 1, 0, 0]"] ;
869 -> 870 ;
871 [label="gini = 0.0\nsamples = 1\nvalue = [0, 0, 0, 1, 0]"] ;
869 -> 871 ;
872 [label="gini = 0.0\nsamples = 3\nvalue = [0, 0, 0, 7, 0]"] ;
868 -> 872 ;
873 [label="gini = 0.0\nsamples = 1\nvalue = [0, 0, 1, 0, 0]"] ;
867 -> 873 ;
874 [label="gini = 0.0\nsamples = 5\nvalue = [0, 0, 0, 11, 0]"] ;
864 -> 874 ;
875 [label="residual sugar <= 1.2\ngini = 0.5\nsamples = 6\nvalue = [0, 0, 1, 2, 7]"] ;
863 -> 875 ;
876 [label="gini = 0.0\nsamples = 2\nvalue = [0, 0, 0, 2, 0]"] ;
875 -> 876 ;
877 [label="pH <= 3.2\ngini = 0.2\nsamples = 4\nvalue = [0, 0, 1, 0, 7]"] ;
875 -> 877 ;
878 [label="gini = 0.0\nsamples = 3\nvalue = [0, 0, 0, 0, 7]"] ;
877 -> 878 ;
879 [label="gini = 0.0\nsamples = 1\nvalue = [0, 0, 1, 0, 0]"] ;
877 -> 879 ;
880 [label="alcohol <= 10.2\ngini = 0.7\nsamples = 9\nvalue = [2, 3, 4, 2, 0]"] ;
862 -> 880 ;
881 [label="gini = 0.0\nsamples = 3\nvalue = [0, 0, 4, 0, 0]"] ;
880 -> 881 ;
882 [label="fixed acidity <= 6.8\ngini = 0.7\nsamples = 6\nvalue = [2, 3, 0, 2, 0]"] ;
880 -> 882 ;
883 [label="citric acid <= 0.3\ngini = 0.5\nsamples = 4\nvalue = [2, 0, 0, 2, 0]"] ;
882 -> 883 ;
884 [label="gini = 0.0\nsamples = 2\nvalue = [0, 0, 0, 2, 0]"] ;
883 -> 884 ;
885 [label="gini = 0.0\nsamples = 2\nvalue = [2, 0, 0, 0, 0]"] ;
883 -> 885 ;
886 [label="gini = 0.0\nsamples = 2\nvalue = [0, 3, 0, 0, 0]"] ;
882 -> 886 ;
887 [label="density <= 1.0\ngini = 0.3\nsamples = 4\nvalue = [0, 0, 2, 0, 7]"] ;
861 -> 887 ;
888 [label="gini = 0.0\nsamples = 1\nvalue = [0, 0, 2, 0, 0]"] ;
887 -> 888 ;
889 [label="gini = 0.0\nsamples = 3\nvalue = [0, 0, 0, 0, 7]"] ;
887 -> 889 ;
890 [label="free sulfur dioxide <= 21.5\ngini = 0.6\nsamples = 331\nvalue = [67, 7, 184, 219, 14]"] ;
544 -> 890 ;
891 [label="free sulfur dioxide <= 6.5\ngini = 0.6\nsamples = 70\nvalue = [7, 7, 57, 27, 8]"] ;
890 -> 891 ;
892 [label="density <= 1.0\ngini = 0.7\nsamples = 5\nvalue = [2, 2, 2, 0, 4]"] ;
891 -> 892 ;
893 [label="gini = 0.0\nsamples = 1\nvalue = [0, 0, 2, 0, 0]"] ;
892 -> 893 ;
894 [label="total sulfur dioxide <= 96.5\ngini = 0.6\nsamples = 4\nvalue = [2, 2, 0, 0, 4]"] ;
892 -> 894 ;
895 [label="alcohol <= 12.6\ngini = 0.5\nsamples = 2\nvalue = [2, 2, 0, 0, 0]"] ;
894 -> 895 ;
896 [label="gini = 0.0\nsamples = 1\nvalue = [2, 0, 0, 0, 0]"] ;
895 -> 896 ;
897 [label="gini = 0.0\nsamples = 1\nvalue = [0, 2, 0, 0, 0]"] ;
895 -> 897 ;
898 [label="gini = 0.0\nsamples = 2\nvalue = [0, 0, 0, 0, 4]"] ;
894 -> 898 ;
899 [label="alcohol <= 11.9\ngini = 0.6\nsamples = 65\nvalue = [5, 5, 55, 27, 4]"] ;
891 -> 899 ;
900 [label="density <= 1.0\ngini = 0.4\nsamples = 14\nvalue = [4, 0, 15, 0, 2]"] ;
899 -> 900 ;
901 [label="chlorides <= 0.0\ngini = 0.3\nsamples = 4\nvalue = [4, 0, 1, 0, 0]"] ;
900 -> 901 ;
902 [label="chlorides <= 0.0\ngini = 0.5\nsamples = 2\nvalue = [1, 0, 1, 0, 0]"] ;
901 -> 902 ;
903 [label="gini = 0.0\nsamples = 1\nvalue = [1, 0, 0, 0, 0]"] ;
902 -> 903 ;
904 [label="gini = 0.0\nsamples = 1\nvalue = [0, 0, 1, 0, 0]"] ;
902 -> 904 ;
905 [label="gini = 0.0\nsamples = 2\nvalue = [3, 0, 0, 0, 0]"] ;
901 -> 905 ;
906 [label="residual sugar <= 7.0\ngini = 0.2\nsamples = 10\nvalue = [0, 0, 14, 0, 2]"] ;
900 -> 906 ;
907 [label="gini = 0.0\nsamples = 8\nvalue = [0, 0, 12, 0, 0]"] ;
906 -> 907 ;
908 [label="alcohol <= 11.8\ngini = 0.5\nsamples = 2\nvalue = [0, 0, 2, 0, 2]"] ;
906 -> 908 ;
909 [label="gini = 0.0\nsamples = 1\nvalue = [0, 0, 0, 0, 2]"] ;
908 -> 909 ;
910 [label="gini = 0.0\nsamples = 1\nvalue = [0, 0, 2, 0, 0]"] ;
908 -> 910 ;
911 [label="chlorides <= 0.0\ngini = 0.6\nsamples = 51\nvalue = [1, 5, 40, 27, 2]"] ;
899 -> 911 ;
912 [label="sulphates <= 0.3\ngini = 0.6\nsamples = 45\nvalue = [1, 5, 31, 27, 2]"] ;
911 -> 912 ;
913 [label="citric acid <= 0.2\ngini = 0.4\nsamples = 6\nvalue = [1, 1, 0, 7, 0]"] ;
912 -> 913 ;
914 [label="gini = 0.0\nsamples = 1\nvalue = [1, 0, 0, 0, 0]"] ;
913 -> 914 ;
915 [label="residual sugar <= 2.2\ngini = 0.2\nsamples = 5\nvalue = [0, 1, 0, 7, 0]"] ;
913 -> 915 ;
916 [label="gini = 0.0\nsamples = 1\nvalue = [0, 1, 0, 0, 0]"] ;
915 -> 916 ;
917 [label="gini = 0.0\nsamples = 4\nvalue = [0, 0, 0, 7, 0]"] ;
915 -> 917 ;
918 [label="citric acid <= 0.5\ngini = 0.6\nsamples = 39\nvalue = [0, 4, 31, 20, 2]"] ;
912 -> 918 ;
919 [label="pH <= 3.3\ngini = 0.6\nsamples = 38\nvalue = [0, 4, 31, 16, 2]"] ;
918 -> 919 ;
920 [label="alcohol <= 12.1\ngini = 0.4\nsamples = 29\nvalue = [0, 4, 29, 4, 2]"] ;
919 -> 920 ;
921 [label="density <= 1.0\ngini = 0.7\nsamples = 7\nvalue = [0, 3, 4, 1, 2]"] ;
920 -> 921 ;
922 [label="fixed acidity <= 7.8\ngini = 0.5\nsamples = 3\nvalue = [0, 3, 0, 0, 2]"] ;
921 -> 922 ;
923 [label="gini = 0.0\nsamples = 2\nvalue = [0, 3, 0, 0, 0]"] ;
922 -> 923 ;
924 [label="gini = 0.0\nsamples = 1\nvalue = [0, 0, 0, 0, 2]"] ;
922 -> 924 ;
925 [label="free sulfur dioxide <= 18.5\ngini = 0.3\nsamples = 4\nvalue = [0, 0, 4, 1, 0]"] ;
921 -> 925 ;
926 [label="gini = 0.0\nsamples = 3\nvalue = [0, 0, 4, 0, 0]"] ;
925 -> 926 ;
927 [label="gini = 0.0\nsamples = 1\nvalue = [0, 0, 0, 1, 0]"] ;
925 -> 927 ;
928 [label="sulphates <= 0.7\ngini = 0.2\nsamples = 22\nvalue = [0, 1, 25, 3, 0]"] ;
920 -> 928 ;
929 [label="total sulfur dioxide <= 123.5\ngini = 0.2\nsamples = 20\nvalue = [0, 0, 24, 3, 0]"] ;
928 -> 929 ;
930 [label="density <= 1.0\ngini = 0.1\nsamples = 18\nvalue = [0, 0, 23, 1, 0]"] ;
929 -> 930 ;
931 [label="gini = 0.0\nsamples = 1\nvalue = [0, 0, 0, 1, 0]"] ;
930 -> 931 ;
932 [label="gini = 0.0\nsamples = 17\nvalue = [0, 0, 23, 0, 0]"] ;
930 -> 932 ;
933 [label="pH <= 3.0\ngini = 0.4\nsamples = 2\nvalue = [0, 0, 1, 2, 0]"] ;
929 -> 933 ;
934 [label="gini = 0.0\nsamples = 1\nvalue = [0, 0, 1, 0, 0]"] ;
933 -> 934 ;
935 [label="gini = 0.0\nsamples = 1\nvalue = [0, 0, 0, 2, 0]"] ;
933 -> 935 ;
936 [label="residual sugar <= 4.6\ngini = 0.5\nsamples = 2\nvalue = [0, 1, 1, 0, 0]"] ;
928 -> 936 ;
937 [label="gini = 0.0\nsamples = 1\nvalue = [0, 0, 1, 0, 0]"] ;
936 -> 937 ;
938 [label="gini = 0.0\nsamples = 1\nvalue = [0, 1, 0, 0, 0]"] ;
936 -> 938 ;
939 [label="fixed acidity <= 5.6\ngini = 0.2\nsamples = 9\nvalue = [0, 0, 2, 12, 0]"] ;
919 -> 939 ;
940 [label="gini = 0.0\nsamples = 1\nvalue = [0, 0, 1, 0, 0]"] ;
939 -> 940 ;
941 [label="chlorides <= 0.0\ngini = 0.1\nsamples = 8\nvalue = [0, 0, 1, 12, 0]"] ;
939 -> 941 ;
942 [label="gini = 0.0\nsamples = 6\nvalue = [0, 0, 0, 10, 0]"] ;
941 -> 942 ;
943 [label="fixed acidity <= 6.4\ngini = 0.4\nsamples = 2\nvalue = [0, 0, 1, 2, 0]"] ;
941 -> 943 ;
944 [label="gini = 0.0\nsamples = 1\nvalue = [0, 0, 0, 2, 0]"] ;
943 -> 944 ;
945 [label="gini = 0.0\nsamples = 1\nvalue = [0, 0, 1, 0, 0]"] ;
943 -> 945 ;
946 [label="gini = 0.0\nsamples = 1\nvalue = [0, 0, 0, 4, 0]"] ;
918 -> 946 ;
947 [label="gini = 0.0\nsamples = 6\nvalue = [0, 0, 9, 0, 0]"] ;
911 -> 947 ;
948 [label="pH <= 3.0\ngini = 0.6\nsamples = 261\nvalue = [60, 0, 127, 192, 6]"] ;
890 -> 948 ;
949 [label="sulphates <= 0.4\ngini = 0.5\nsamples = 12\nvalue = [0, 0, 12, 3, 2]"] ;
948 -> 949 ;
950 [label="gini = 0.0\nsamples = 1\nvalue = [0, 0, 0, 0, 2]"] ;
949 -> 950 ;
951 [label="free sulfur dioxide <= 27.5\ngini = 0.3\nsamples = 11\nvalue = [0, 0, 12, 3, 0]"] ;
949 -> 951 ;
952 [label="sulphates <= 0.5\ngini = 0.5\nsamples = 3\nvalue = [0, 0, 2, 2, 0]"] ;
951 -> 952 ;
953 [label="gini = 0.0\nsamples = 1\nvalue = [0, 0, 2, 0, 0]"] ;
952 -> 953 ;
954 [label="gini = 0.0\nsamples = 2\nvalue = [0, 0, 0, 2, 0]"] ;
952 -> 954 ;
955 [label="density <= 1.0\ngini = 0.2\nsamples = 8\nvalue = [0, 0, 10, 1, 0]"] ;
951 -> 955 ;
956 [label="gini = 0.0\nsamples = 1\nvalue = [0, 0, 0, 1, 0]"] ;
955 -> 956 ;
957 [label="gini = 0.0\nsamples = 7\nvalue = [0, 0, 10, 0, 0]"] ;
955 -> 957 ;
958 [label="fixed acidity <= 8.2\ngini = 0.6\nsamples = 249\nvalue = [60, 0, 115, 189, 4]"] ;
948 -> 958 ;
959 [label="total sulfur dioxide <= 112.5\ngini = 0.6\nsamples = 246\nvalue = [60, 0, 109, 189, 4]"] ;
958 -> 959 ;
960 [label="free sulfur dioxide <= 25.5\ngini = 0.6\nsamples = 111\nvalue = [20, 0, 65, 77, 1]"] ;
959 -> 960 ;
961 [label="total sulfur dioxide <= 102.5\ngini = 0.5\nsamples = 25\nvalue = [4, 0, 7, 25, 0]"] ;
960 -> 961 ;
962 [label="residual sugar <= 1.8\ngini = 0.3\nsamples = 18\nvalue = [1, 0, 3, 23, 0]"] ;
961 -> 962 ;
963 [label="alcohol <= 12.2\ngini = 0.5\nsamples = 5\nvalue = [1, 0, 2, 5, 0]"] ;
962 -> 963 ;
964 [label="gini = 0.0\nsamples = 1\nvalue = [0, 0, 2, 0, 0]"] ;
963 -> 964 ;
965 [label="volatile acidity <= 0.3\ngini = 0.3\nsamples = 4\nvalue = [1, 0, 0, 5, 0]"] ;
963 -> 965 ;
966 [label="gini = 0.0\nsamples = 3\nvalue = [0, 0, 0, 5, 0]"] ;
965 -> 966 ;
967 [label="gini = 0.0\nsamples = 1\nvalue = [1, 0, 0, 0, 0]"] ;
965 -> 967 ;
968 [label="fixed acidity <= 7.9\ngini = 0.1\nsamples = 13\nvalue = [0, 0, 1, 18, 0]"] ;
962 -> 968 ;
969 [label="gini = 0.0\nsamples = 12\nvalue = [0, 0, 0, 18, 0]"] ;
968 -> 969 ;
970 [label="gini = 0.0\nsamples = 1\nvalue = [0, 0, 1, 0, 0]"] ;
968 -> 970 ;
971 [label="pH <= 3.2\ngini = 0.6\nsamples = 7\nvalue = [3, 0, 4, 2, 0]"] ;
961 -> 971 ;
972 [label="fixed acidity <= 6.1\ngini = 0.5\nsamples = 3\nvalue = [3, 0, 0, 2, 0]"] ;
971 -> 972 ;
973 [label="gini = 0.0\nsamples = 1\nvalue = [0, 0, 0, 2, 0]"] ;
972 -> 973 ;
974 [label="gini = 0.0\nsamples = 2\nvalue = [3, 0, 0, 0, 0]"] ;
972 -> 974 ;
975 [label="gini = 0.0\nsamples = 4\nvalue = [0, 0, 4, 0, 0]"] ;
971 -> 975 ;
976 [label="free sulfur dioxide <= 28.5\ngini = 0.6\nsamples = 86\nvalue = [16, 0, 58, 52, 1]"] ;
960 -> 976 ;
977 [label="sulphates <= 0.5\ngini = 0.5\nsamples = 18\nvalue = [2, 0, 20, 6, 1]"] ;
976 -> 977 ;
978 [label="fixed acidity <= 6.4\ngini = 0.3\nsamples = 11\nvalue = [1, 0, 18, 2, 1]"] ;
977 -> 978 ;
979 [label="sulphates <= 0.4\ngini = 0.4\nsamples = 2\nvalue = [0, 0, 0, 2, 1]"] ;
978 -> 979 ;
980 [label="gini = 0.0\nsamples = 1\nvalue = [0, 0, 0, 0, 1]"] ;
979 -> 980 ;
981 [label="gini = 0.0\nsamples = 1\nvalue = [0, 0, 0, 2, 0]"] ;
979 -> 981 ;
982 [label="density <= 1.0\ngini = 0.1\nsamples = 9\nvalue = [1, 0, 18, 0, 0]"] ;
978 -> 982 ;
983 [label="density <= 1.0\ngini = 0.4\nsamples = 2\nvalue = [1, 0, 2, 0, 0]"] ;
982 -> 983 ;
984 [label="gini = 0.0\nsamples = 1\nvalue = [0, 0, 2, 0, 0]"] ;
983 -> 984 ;
985 [label="gini = 0.0\nsamples = 1\nvalue = [1, 0, 0, 0, 0]"] ;
983 -> 985 ;
986 [label="gini = 0.0\nsamples = 7\nvalue = [0, 0, 16, 0, 0]"] ;
982 -> 986 ;
987 [label="free sulfur dioxide <= 27.5\ngini = 0.6\nsamples = 7\nvalue = [1, 0, 2, 4, 0]"] ;
977 -> 987 ;
988 [label="sulphates <= 0.6\ngini = 0.3\nsamples = 5\nvalue = [1, 0, 0, 4, 0]"] ;
987 -> 988 ;
989 [label="gini = 0.0\nsamples = 4\nvalue = [0, 0, 0, 4, 0]"] ;
988 -> 989 ;
990 [label="gini = 0.0\nsamples = 1\nvalue = [1, 0, 0, 0, 0]"] ;
988 -> 990 ;
991 [label="gini = 0.0\nsamples = 2\nvalue = [0, 0, 2, 0, 0]"] ;
987 -> 991 ;
992 [label="total sulfur dioxide <= 107.5\ngini = 0.6\nsamples = 68\nvalue = [14, 0, 38, 46, 0]"] ;
976 -> 992 ;
993 [label="residual sugar <= 1.2\ngini = 0.5\nsamples = 48\nvalue = [7, 0, 20, 40, 0]"] ;
992 -> 993 ;
994 [label="gini = 0.0\nsamples = 5\nvalue = [0, 0, 6, 0, 0]"] ;
993 -> 994 ;
995 [label="density <= 1.0\ngini = 0.5\nsamples = 43\nvalue = [7, 0, 14, 40, 0]"] ;
993 -> 995 ;
996 [label="gini = 0.0\nsamples = 10\nvalue = [0, 0, 0, 17, 0]"] ;
995 -> 996 ;
997 [label="alcohol <= 12.6\ngini = 0.6\nsamples = 33\nvalue = [7, 0, 14, 23, 0]"] ;
995 -> 997 ;
998 [label="residual sugar <= 1.6\ngini = 0.5\nsamples = 22\nvalue = [0, 0, 11, 20, 0]"] ;
997 -> 998 ;
999 [label="gini = 0.0\nsamples = 3\nvalue = [0, 0, 4, 0, 0]"] ;
998 -> 999 ;
1000 [label="pH <= 3.2\ngini = 0.4\nsamples = 19\nvalue = [0, 0, 7, 20, 0]"] ;
998 -> 1000 ;
1001 [label="volatile acidity <= 0.3\ngini = 0.5\nsamples = 8\nvalue = [0, 0, 5, 5, 0]"] ;
1000 -> 1001 ;
1002 [label="alcohol <= 12.2\ngini = 0.3\nsamples = 5\nvalue = [0, 0, 5, 1, 0]"] ;
1001 -> 1002 ;
1003 [label="gini = 0.0\nsamples = 4\nvalue = [0, 0, 5, 0, 0]"] ;
1002 -> 1003 ;
1004 [label="gini = 0.0\nsamples = 1\nvalue = [0, 0, 0, 1, 0]"] ;
1002 -> 1004 ;
1005 [label="gini = 0.0\nsamples = 3\nvalue = [0, 0, 0, 4, 0]"] ;
1001 -> 1005 ;
1006 [label="volatile acidity <= 0.3\ngini = 0.2\nsamples = 11\nvalue = [0, 0, 2, 15, 0]"] ;
1000 -> 1006 ;
1007 [label="gini = 0.0\nsamples = 8\nvalue = [0, 0, 0, 13, 0]"] ;
1006 -> 1007 ;
1008 [label="fixed acidity <= 6.7\ngini = 0.5\nsamples = 3\nvalue = [0, 0, 2, 2, 0]"] ;
1006 -> 1008 ;
1009 [label="gini = 0.0\nsamples = 2\nvalue = [0, 0, 2, 0, 0]"] ;
1008 -> 1009 ;
1010 [label="gini = 0.0\nsamples = 1\nvalue = [0, 0, 0, 2, 0]"] ;
1008 -> 1010 ;
1011 [label="sulphates <= 0.6\ngini = 0.6\nsamples = 11\nvalue = [7, 0, 3, 3, 0]"] ;
997 -> 1011 ;
1012 [label="volatile acidity <= 0.3\ngini = 0.7\nsamples = 7\nvalue = [2, 0, 3, 3, 0]"] ;
1011 -> 1012 ;
1013 [label="free sulfur dioxide <= 33.5\ngini = 0.4\nsamples = 3\nvalue = [1, 0, 3, 0, 0]"] ;
1012 -> 1013 ;
1014 [label="gini = 0.0\nsamples = 1\nvalue = [1, 0, 0, 0, 0]"] ;
1013 -> 1014 ;
1015 [label="gini = 0.0\nsamples = 2\nvalue = [0, 0, 3, 0, 0]"] ;
1013 -> 1015 ;
1016 [label="residual sugar <= 2.6\ngini = 0.4\nsamples = 4\nvalue = [1, 0, 0, 3, 0]"] ;
1012 -> 1016 ;
1017 [label="gini = 0.0\nsamples = 1\nvalue = [1, 0, 0, 0, 0]"] ;
1016 -> 1017 ;
1018 [label="gini = 0.0\nsamples = 3\nvalue = [0, 0, 0, 3, 0]"] ;
1016 -> 1018 ;
1019 [label="gini = 0.0\nsamples = 4\nvalue = [5, 0, 0, 0, 0]"] ;
1011 -> 1019 ;
1020 [label="density <= 1.0\ngini = 0.6\nsamples = 20\nvalue = [7, 0, 18, 6, 0]"] ;
992 -> 1020 ;
1021 [label="alcohol <= 12.7\ngini = 0.5\nsamples = 19\nvalue = [3, 0, 18, 6, 0]"] ;
1020 -> 1021 ;
1022 [label="residual sugar <= 1.2\ngini = 0.4\nsamples = 17\nvalue = [3, 0, 18, 3, 0]"] ;
1021 -> 1022 ;
1023 [label="residual sugar <= 1.0\ngini = 0.5\nsamples = 2\nvalue = [1, 0, 0, 1, 0]"] ;
1022 -> 1023 ;
1024 [label="gini = 0.0\nsamples = 1\nvalue = [1, 0, 0, 0, 0]"] ;
1023 -> 1024 ;
1025 [label="gini = 0.0\nsamples = 1\nvalue = [0, 0, 0, 1, 0]"] ;
1023 -> 1025 ;
1026 [label="residual sugar <= 4.9\ngini = 0.3\nsamples = 15\nvalue = [2, 0, 18, 2, 0]"] ;
1022 -> 1026 ;
1027 [label="gini = 0.0\nsamples = 7\nvalue = [0, 0, 13, 0, 0]"] ;
1026 -> 1027 ;
1028 [label="sulphates <= 0.5\ngini = 0.6\nsamples = 8\nvalue = [2, 0, 5, 2, 0]"] ;
1026 -> 1028 ;
1029 [label="gini = 0.0\nsamples = 4\nvalue = [0, 0, 5, 0, 0]"] ;
1028 -> 1029 ;
1030 [label="residual sugar <= 6.7\ngini = 0.5\nsamples = 4\nvalue = [2, 0, 0, 2, 0]"] ;
1028 -> 1030 ;
1031 [label="gini = 0.0\nsamples = 2\nvalue = [0, 0, 0, 2, 0]"] ;
1030 -> 1031 ;
1032 [label="gini = 0.0\nsamples = 2\nvalue = [2, 0, 0, 0, 0]"] ;
1030 -> 1032 ;
1033 [label="gini = 0.0\nsamples = 2\nvalue = [0, 0, 0, 3, 0]"] ;
1021 -> 1033 ;
1034 [label="gini = 0.0\nsamples = 1\nvalue = [4, 0, 0, 0, 0]"] ;
1020 -> 1034 ;
1035 [label="chlorides <= 0.0\ngini = 0.6\nsamples = 135\nvalue = [40, 0, 44, 112, 3]"] ;
959 -> 1035 ;
1036 [label="volatile acidity <= 0.2\ngini = 0.5\nsamples = 95\nvalue = [35, 0, 19, 89, 1]"] ;
1035 -> 1036 ;
1037 [label="gini = 0.0\nsamples = 1\nvalue = [4, 0, 0, 0, 0]"] ;
1036 -> 1037 ;
1038 [label="residual sugar <= 2.0\ngini = 0.5\nsamples = 94\nvalue = [31, 0, 19, 89, 1]"] ;
1036 -> 1038 ;
1039 [label="total sulfur dioxide <= 116.0\ngini = 0.3\nsamples = 24\nvalue = [0, 0, 8, 29, 0]"] ;
1038 -> 1039 ;
1040 [label="fixed acidity <= 5.9\ngini = 0.4\nsamples = 3\nvalue = [0, 0, 2, 1, 0]"] ;
1039 -> 1040 ;
1041 [label="gini = 0.0\nsamples = 1\nvalue = [0, 0, 0, 1, 0]"] ;
1040 -> 1041 ;
1042 [label="gini = 0.0\nsamples = 2\nvalue = [0, 0, 2, 0, 0]"] ;
1040 -> 1042 ;
1043 [label="fixed acidity <= 7.9\ngini = 0.3\nsamples = 21\nvalue = [0, 0, 6, 28, 0]"] ;
1039 -> 1043 ;
1044 [label="alcohol <= 12.3\ngini = 0.3\nsamples = 20\nvalue = [0, 0, 5, 28, 0]"] ;
1043 -> 1044 ;
1045 [label="gini = 0.0\nsamples = 11\nvalue = [0, 0, 0, 16, 0]"] ;
1044 -> 1045 ;
1046 [label="sulphates <= 0.5\ngini = 0.4\nsamples = 9\nvalue = [0, 0, 5, 12, 0]"] ;
1044 -> 1046 ;
1047 [label="citric acid <= 0.3\ngini = 0.3\nsamples = 7\nvalue = [0, 0, 3, 12, 0]"] ;
1046 -> 1047 ;
1048 [label="gini = 0.0\nsamples = 1\nvalue = [0, 0, 2, 0, 0]"] ;
1047 -> 1048 ;
1049 [label="chlorides <= 0.0\ngini = 0.1\nsamples = 6\nvalue = [0, 0, 1, 12, 0]"] ;
1047 -> 1049 ;
1050 [label="gini = 0.0\nsamples = 1\nvalue = [0, 0, 1, 0, 0]"] ;
1049 -> 1050 ;
1051 [label="gini = 0.0\nsamples = 5\nvalue = [0, 0, 0, 12, 0]"] ;
1049 -> 1051 ;
1052 [label="gini = 0.0\nsamples = 2\nvalue = [0, 0, 2, 0, 0]"] ;
1046 -> 1052 ;
1053 [label="gini = 0.0\nsamples = 1\nvalue = [0, 0, 1, 0, 0]"] ;
1043 -> 1053 ;
1054 [label="volatile acidity <= 0.3\ngini = 0.6\nsamples = 70\nvalue = [31, 0, 11, 60, 1]"] ;
1038 -> 1054 ;
1055 [label="residual sugar <= 2.5\ngini = 0.6\nsamples = 27\nvalue = [21, 0, 6, 15, 0]"] ;
1054 -> 1055 ;
1056 [label="citric acid <= 0.3\ngini = 0.3\nsamples = 7\nvalue = [11, 0, 0, 3, 0]"] ;
1055 -> 1056 ;
1057 [label="gini = 0.0\nsamples = 1\nvalue = [0, 0, 0, 2, 0]"] ;
1056 -> 1057 ;
1058 [label="free sulfur dioxide <= 40.5\ngini = 0.2\nsamples = 6\nvalue = [11, 0, 0, 1, 0]"] ;
1056 -> 1058 ;
1059 [label="gini = 0.0\nsamples = 4\nvalue = [9, 0, 0, 0, 0]"] ;
1058 -> 1059 ;
1060 [label="citric acid <= 0.3\ngini = 0.4\nsamples = 2\nvalue = [2, 0, 0, 1, 0]"] ;
1058 -> 1060 ;
1061 [label="gini = 0.0\nsamples = 1\nvalue = [2, 0, 0, 0, 0]"] ;
1060 -> 1061 ;
1062 [label="gini = 0.0\nsamples = 1\nvalue = [0, 0, 0, 1, 0]"] ;
1060 -> 1062 ;
1063 [label="total sulfur dioxide <= 179.0\ngini = 0.6\nsamples = 20\nvalue = [10, 0, 6, 12, 0]"] ;
1055 -> 1063 ;
1064 [label="volatile acidity <= 0.3\ngini = 0.6\nsamples = 18\nvalue = [10, 0, 3, 12, 0]"] ;
1063 -> 1064 ;
1065 [label="citric acid <= 0.3\ngini = 0.5\nsamples = 14\nvalue = [4, 0, 3, 11, 0]"] ;
1064 -> 1065 ;
1066 [label="residual sugar <= 5.7\ngini = 0.3\nsamples = 10\nvalue = [1, 0, 1, 10, 0]"] ;
1065 -> 1066 ;
1067 [label="gini = 0.0\nsamples = 6\nvalue = [0, 0, 0, 8, 0]"] ;
1066 -> 1067 ;
1068 [label="total sulfur dioxide <= 129.0\ngini = 0.6\nsamples = 4\nvalue = [1, 0, 1, 2, 0]"] ;
1066 -> 1068 ;
1069 [label="chlorides <= 0.0\ngini = 0.5\nsamples = 2\nvalue = [1, 0, 1, 0, 0]"] ;
1068 -> 1069 ;
1070 [label="gini = 0.0\nsamples = 1\nvalue = [1, 0, 0, 0, 0]"] ;
1069 -> 1070 ;
1071 [label="gini = 0.0\nsamples = 1\nvalue = [0, 0, 1, 0, 0]"] ;
1069 -> 1071 ;
1072 [label="gini = 0.0\nsamples = 2\nvalue = [0, 0, 0, 2, 0]"] ;
1068 -> 1072 ;
1073 [label="fixed acidity <= 6.3\ngini = 0.6\nsamples = 4\nvalue = [3, 0, 2, 1, 0]"] ;
1065 -> 1073 ;
1074 [label="gini = 0.0\nsamples = 2\nvalue = [3, 0, 0, 0, 0]"] ;
1073 -> 1074 ;
1075 [label="sulphates <= 0.5\ngini = 0.4\nsamples = 2\nvalue = [0, 0, 2, 1, 0]"] ;
1073 -> 1075 ;
1076 [label="gini = 0.0\nsamples = 1\nvalue = [0, 0, 2, 0, 0]"] ;
1075 -> 1076 ;
1077 [label="gini = 0.0\nsamples = 1\nvalue = [0, 0, 0, 1, 0]"] ;
1075 -> 1077 ;
1078 [label="chlorides <= 0.0\ngini = 0.2\nsamples = 4\nvalue = [6, 0, 0, 1, 0]"] ;
1064 -> 1078 ;
1079 [label="citric acid <= 0.3\ngini = 0.4\nsamples = 2\nvalue = [2, 0, 0, 1, 0]"] ;
1078 -> 1079 ;
1080 [label="gini = 0.0\nsamples = 1\nvalue = [0, 0, 0, 1, 0]"] ;
1079 -> 1080 ;
1081 [label="gini = 0.0\nsamples = 1\nvalue = [2, 0, 0, 0, 0]"] ;
1079 -> 1081 ;
1082 [label="gini = 0.0\nsamples = 2\nvalue = [4, 0, 0, 0, 0]"] ;
1078 -> 1082 ;
1083 [label="gini = 0.0\nsamples = 2\nvalue = [0, 0, 3, 0, 0]"] ;
1063 -> 1083 ;
1084 [label="chlorides <= 0.0\ngini = 0.4\nsamples = 43\nvalue = [10, 0, 5, 45, 1]"] ;
1054 -> 1084 ;
1085 [label="fixed acidity <= 8.0\ngini = 0.3\nsamples = 26\nvalue = [4, 0, 2, 32, 0]"] ;
1084 -> 1085 ;
1086 [label="fixed acidity <= 4.7\ngini = 0.2\nsamples = 22\nvalue = [1, 0, 2, 30, 0]"] ;
1085 -> 1086 ;
1087 [label="gini = 0.0\nsamples = 1\nvalue = [1, 0, 0, 0, 0]"] ;
1086 -> 1087 ;
1088 [label="citric acid <= 0.5\ngini = 0.1\nsamples = 21\nvalue = [0, 0, 2, 30, 0]"] ;
1086 -> 1088 ;
1089 [label="residual sugar <= 2.4\ngini = 0.1\nsamples = 19\nvalue = [0, 0, 1, 29, 0]"] ;
1088 -> 1089 ;
1090 [label="chlorides <= 0.0\ngini = 0.3\nsamples = 4\nvalue = [0, 0, 1, 4, 0]"] ;
1089 -> 1090 ;
1091 [label="gini = 0.0\nsamples = 1\nvalue = [0, 0, 1, 0, 0]"] ;
1090 -> 1091 ;
1092 [label="gini = 0.0\nsamples = 3\nvalue = [0, 0, 0, 4, 0]"] ;
1090 -> 1092 ;
1093 [label="gini = 0.0\nsamples = 15\nvalue = [0, 0, 0, 25, 0]"] ;
1089 -> 1093 ;
1094 [label="fixed acidity <= 7.1\ngini = 0.5\nsamples = 2\nvalue = [0, 0, 1, 1, 0]"] ;
1088 -> 1094 ;
1095 [label="gini = 0.0\nsamples = 1\nvalue = [0, 0, 1, 0, 0]"] ;
1094 -> 1095 ;
1096 [label="gini = 0.0\nsamples = 1\nvalue = [0, 0, 0, 1, 0]"] ;
1094 -> 1096 ;
1097 [label="fixed acidity <= 8.1\ngini = 0.5\nsamples = 4\nvalue = [3, 0, 0, 2, 0]"] ;
1085 -> 1097 ;
1098 [label="gini = 0.0\nsamples = 2\nvalue = [3, 0, 0, 0, 0]"] ;
1097 -> 1098 ;
1099 [label="gini = 0.0\nsamples = 2\nvalue = [0, 0, 0, 2, 0]"] ;
1097 -> 1099 ;
1100 [label="alcohol <= 12.9\ngini = 0.6\nsamples = 17\nvalue = [6, 0, 3, 13, 1]"] ;
1084 -> 1100 ;
1101 [label="fixed acidity <= 8.1\ngini = 0.6\nsamples = 13\nvalue = [2, 0, 3, 10, 1]"] ;
1100 -> 1101 ;
1102 [label="citric acid <= 0.3\ngini = 0.5\nsamples = 12\nvalue = [2, 0, 3, 10, 0]"] ;
1101 -> 1102 ;
1103 [label="pH <= 3.0\ngini = 0.5\nsamples = 6\nvalue = [0, 0, 3, 3, 0]"] ;
1102 -> 1103 ;
1104 [label="gini = 0.0\nsamples = 1\nvalue = [0, 0, 0, 1, 0]"] ;
1103 -> 1104 ;
1105 [label="volatile acidity <= 0.4\ngini = 0.5\nsamples = 5\nvalue = [0, 0, 3, 2, 0]"] ;
1103 -> 1105 ;
1106 [label="residual sugar <= 5.5\ngini = 0.4\nsamples = 3\nvalue = [0, 0, 1, 2, 0]"] ;
1105 -> 1106 ;
1107 [label="gini = 0.0\nsamples = 2\nvalue = [0, 0, 0, 2, 0]"] ;
1106 -> 1107 ;
1108 [label="gini = 0.0\nsamples = 1\nvalue = [0, 0, 1, 0, 0]"] ;
1106 -> 1108 ;
1109 [label="gini = 0.0\nsamples = 2\nvalue = [0, 0, 2, 0, 0]"] ;
1105 -> 1109 ;
1110 [label="chlorides <= 0.0\ngini = 0.3\nsamples = 6\nvalue = [2, 0, 0, 7, 0]"] ;
1102 -> 1110 ;
1111 [label="volatile acidity <= 0.3\ngini = 0.2\nsamples = 5\nvalue = [1, 0, 0, 7, 0]"] ;
1110 -> 1111 ;
1112 [label="gini = 0.0\nsamples = 1\nvalue = [1, 0, 0, 0, 0]"] ;
1111 -> 1112 ;
1113 [label="gini = 0.0\nsamples = 4\nvalue = [0, 0, 0, 7, 0]"] ;
1111 -> 1113 ;
1114 [label="gini = 0.0\nsamples = 1\nvalue = [1, 0, 0, 0, 0]"] ;
1110 -> 1114 ;
1115 [label="gini = 0.0\nsamples = 1\nvalue = [0, 0, 0, 0, 1]"] ;
1101 -> 1115 ;
1116 [label="sulphates <= 0.5\ngini = 0.5\nsamples = 4\nvalue = [4, 0, 0, 3, 0]"] ;
1100 -> 1116 ;
