digraph Tree {
node [shape=box, style="rounded", color="black", fontname=helvetica] ;
edge [fontname=helvetica] ;
0 [label="alcohol <= 10.3\nmse = 0.1\nsamples = 3338\nvalue = [[0.0]\n[0.3]\n[0.4]\n[0.2]\n[0.0]]"] ;
1 [label="volatile acidity <= 0.3\nmse = 0.1\nsamples = 1738\nvalue = [[0.0]\n[0.5]\n[0.4]\n[0.1]\n[0.0]]"] ;
0 -> 1 [labeldistance=2.5, labelangle=45, headlabel="True"] ;
2 [label="volatile acidity <= 0.2\nmse = 0.1\nsamples = 708\nvalue = [[0.0]\n[0.3]\n[0.5]\n[0.1]\n[0.0]]"] ;
1 -> 2 ;
3 [label="pH <= 3.0\nmse = 0.1\nsamples = 439\nvalue = [[0.0]\n[0.2]\n[0.6]\n[0.2]\n[0.0]]"] ;
2 -> 3 ;
4 [label="chlorides <= 0.0\nmse = 0.1\nsamples = 55\nvalue = [[0.0]\n[0.3]\n[0.3]\n[0.3]\n[0.1]]"] ;
3 -> 4 ;
5 [label="fixed acidity <= 9.9\nmse = 0.1\nsamples = 11\nvalue = [[0.1]\n[0.8]\n[0.1]\n[0.0]\n[0.0]]"] ;
4 -> 5 ;
6 [label="residual sugar <= 12.4\nmse = 0.0\nsamples = 10\nvalue = [[0.0]\n[0.9]\n[0.1]\n[0.0]\n[0.0]]"] ;
5 -> 6 ;
7 [label="mse = 0.0\nsamples = 7\nvalue = [[0.0]\n[1.0]\n[0.0]\n[0.0]\n[0.0]]"] ;
6 -> 7 ;
8 [label="citric acid <= 0.4\nmse = 0.1\nsamples = 3\nvalue = [[0.0]\n[0.3]\n[0.7]\n[0.0]\n[0.0]]"] ;
6 -> 8 ;
9 [label="mse = 0.0\nsamples = 2\nvalue = [[0.0]\n[0.0]\n[1.0]\n[0.0]\n[0.0]]"] ;
8 -> 9 ;
10 [label="mse = 0.0\nsamples = 1\nvalue = [[0.0]\n[1.0]\n[0.0]\n[0.0]\n[0.0]]"] ;
8 -> 10 ;
11 [label="mse = 0.0\nsamples = 1\nvalue = [[1.0]\n[0.0]\n[0.0]\n[0.0]\n[0.0]]"] ;
5 -> 11 ;
12 [label="citric acid <= 0.4\nmse = 0.1\nsamples = 44\nvalue = [[0.0]\n[0.1]\n[0.4]\n[0.5]\n[0.1]]"] ;
4 -> 12 ;
13 [label="density <= 1.0\nmse = 0.1\nsamples = 29\nvalue = [[0.0]\n[0.0]\n[0.2]\n[0.6]\n[0.1]]"] ;
12 -> 13 ;
14 [label="sulphates <= 0.4\nmse = 0.0\nsamples = 6\nvalue = [[0.0]\n[0.0]\n[0.9]\n[0.1]\n[0.0]]"] ;
13 -> 14 ;
15 [label="mse = 0.0\nsamples = 1\nvalue = [[0.0]\n[0.0]\n[0.0]\n[1.0]\n[0.0]]"] ;
14 -> 15 ;
16 [label="mse = 0.0\nsamples = 5\nvalue = [[0.0]\n[0.0]\n[1.0]\n[0.0]\n[0.0]]"] ;
14 -> 16 ;
17 [label="chlorides <= 0.1\nmse = 0.1\nsamples = 23\nvalue = [[0.0]\n[0.0]\n[0.1]\n[0.8]\n[0.1]]"] ;
13 -> 17 ;
18 [label="citric acid <= 0.3\nmse = 0.0\nsamples = 16\nvalue = [[0.0]\n[0.0]\n[0.1]\n[0.9]\n[0.0]]"] ;
17 -> 18 ;
19 [label="mse = 0.0\nsamples = 1\nvalue = [[0.0]\n[0.0]\n[1.0]\n[0.0]\n[0.0]]"] ;
18 -> 19 ;
20 [label="mse = 0.0\nsamples = 15\nvalue = [[0.0]\n[0.0]\n[0.0]\n[1.0]\n[0.0]]"] ;
18 -> 20 ;
21 [label="alcohol <= 8.9\nmse = 0.1\nsamples = 7\nvalue = [[0.0]\n[0.0]\n[0.2]\n[0.3]\n[0.5]]"] ;
17 -> 21 ;
22 [label="mse = 0.0\nsamples = 3\nvalue = [[0.0]\n[0.0]\n[0.0]\n[0.0]\n[1.0]]"] ;
21 -> 22 ;
23 [label="pH <= 2.9\nmse = 0.1\nsamples = 4\nvalue = [[0.0]\n[0.0]\n[0.4]\n[0.6]\n[0.0]]"] ;
21 -> 23 ;
24 [label="mse = 0.0\nsamples = 2\nvalue = [[0.0]\n[0.0]\n[1.0]\n[0.0]\n[0.0]]"] ;
23 -> 24 ;
25 [label="mse = 0.0\nsamples = 2\nvalue = [[0.0]\n[0.0]\n[0.0]\n[1.0]\n[0.0]]"] ;
23 -> 25 ;
26 [label="sulphates <= 0.5\nmse = 0.1\nsamples = 15\nvalue = [[0.0]\n[0.3]\n[0.7]\n[0.0]\n[0.0]]"] ;
12 -> 26 ;
27 [label="residual sugar <= 1.7\nmse = 0.1\nsamples = 6\nvalue = [[0.0]\n[0.7]\n[0.3]\n[0.0]\n[0.0]]"] ;
26 -> 27 ;
28 [label="mse = 0.0\nsamples = 1\nvalue = [[0.0]\n[0.0]\n[1.0]\n[0.0]\n[0.0]]"] ;
27 -> 28 ;
29 [label="mse = 0.0\nsamples = 5\nvalue = [[0.0]\n[1.0]\n[0.0]\n[0.0]\n[0.0]]"] ;
27 -> 29 ;
30 [label="volatile acidity <= 0.2\nmse = 0.0\nsamples = 9\nvalue = [[0.0]\n[0.1]\n[0.9]\n[0.0]\n[0.0]]"] ;
26 -> 30 ;
31 [label="mse = 0.0\nsamples = 1\nvalue = [[0.0]\n[1.0]\n[0.0]\n[0.0]\n[0.0]]"] ;
30 -> 31 ;
32 [label="mse = 0.0\nsamples = 8\nvalue = [[0.0]\n[0.0]\n[1.0]\n[0.0]\n[0.0]]"] ;
30 -> 32 ;
33 [label="residual sugar <= 17.6\nmse = 0.1\nsamples = 384\nvalue = [[0.0]\n[0.2]\n[0.6]\n[0.1]\n[0.0]]"] ;
3 -> 33 ;
34 [label="sulphates <= 0.8\nmse = 0.1\nsamples = 373\nvalue = [[0.0]\n[0.2]\n[0.6]\n[0.1]\n[0.0]]"] ;
33 -> 34 ;
35 [label="residual sugar <= 16.5\nmse = 0.1\nsamples = 362\nvalue = [[0.0]\n[0.2]\n[0.6]\n[0.1]\n[0.0]]"] ;
34 -> 35 ;
36 [label="density <= 1.0\nmse = 0.1\nsamples = 347\nvalue = [[0.0]\n[0.2]\n[0.6]\n[0.1]\n[0.0]]"] ;
35 -> 36 ;
37 [label="free sulfur dioxide <= 14.5\nmse = 0.1\nsamples = 240\nvalue = [[0.0]\n[0.3]\n[0.6]\n[0.1]\n[0.0]]"] ;
36 -> 37 ;
38 [label="density <= 1.0\nmse = 0.1\nsamples = 15\nvalue = [[0.2]\n[0.6]\n[0.2]\n[0.0]\n[0.0]]"] ;
37 -> 38 ;
39 [label="residual sugar <= 3.2\nmse = 0.1\nsamples = 14\nvalue = [[0.0]\n[0.7]\n[0.3]\n[0.0]\n[0.0]]"] ;
38 -> 39 ;
40 [label="alcohol <= 10.1\nmse = 0.1\nsamples = 12\nvalue = [[0.0]\n[0.8]\n[0.2]\n[0.0]\n[0.0]]"] ;
39 -> 40 ;
41 [label="mse = 0.0\nsamples = 7\nvalue = [[0.0]\n[1.0]\n[0.0]\n[0.0]\n[0.0]]"] ;
40 -> 41 ;
42 [label="volatile acidity <= 0.2\nmse = 0.1\nsamples = 5\nvalue = [[0.0]\n[0.5]\n[0.5]\n[0.0]\n[0.0]]"] ;
40 -> 42 ;
43 [label="mse = 0.0\nsamples = 3\nvalue = [[0.0]\n[0.0]\n[1.0]\n[0.0]\n[0.0]]"] ;
42 -> 43 ;
44 [label="mse = 0.0\nsamples = 2\nvalue = [[0.0]\n[1.0]\n[0.0]\n[0.0]\n[0.0]]"] ;
42 -> 44 ;
45 [label="mse = 0.0\nsamples = 2\nvalue = [[0.0]\n[0.0]\n[1.0]\n[0.0]\n[0.0]]"] ;
39 -> 45 ;
46 [label="mse = 0.0\nsamples = 1\nvalue = [[1.0]\n[0.0]\n[0.0]\n[0.0]\n[0.0]]"] ;
38 -> 46 ;
47 [label="pH <= 3.0\nmse = 0.1\nsamples = 225\nvalue = [[0.0]\n[0.2]\n[0.7]\n[0.1]\n[0.0]]"] ;
37 -> 47 ;
48 [label="mse = 0.0\nsamples = 3\nvalue = [[0.0]\n[1.0]\n[0.0]\n[0.0]\n[0.0]]"] ;
47 -> 48 ;
49 [label="sulphates <= 0.3\nmse = 0.1\nsamples = 222\nvalue = [[0.0]\n[0.2]\n[0.7]\n[0.1]\n[0.0]]"] ;
47 -> 49 ;
50 [label="mse = 0.0\nsamples = 3\nvalue = [[0.0]\n[1.0]\n[0.0]\n[0.0]\n[0.0]]"] ;
49 -> 50 ;
51 [label="density <= 1.0\nmse = 0.1\nsamples = 219\nvalue = [[0.0]\n[0.2]\n[0.7]\n[0.1]\n[0.0]]"] ;
49 -> 51 ;
52 [label="total sulfur dioxide <= 245.5\nmse = 0.1\nsamples = 208\nvalue = [[0.0]\n[0.2]\n[0.7]\n[0.1]\n[0.0]]"] ;
51 -> 52 ;
53 [label="residual sugar <= 6.5\nmse = 0.1\nsamples = 205\nvalue = [[0.0]\n[0.2]\n[0.7]\n[0.1]\n[0.0]]"] ;
52 -> 53 ;
54 [label="free sulfur dioxide <= 56.5\nmse = 0.1\nsamples = 150\nvalue = [[0.0]\n[0.2]\n[0.6]\n[0.1]\n[0.0]]"] ;
53 -> 54 ;
55 [label="density <= 1.0\nmse = 0.1\nsamples = 142\nvalue = [[0.0]\n[0.2]\n[0.7]\n[0.1]\n[0.0]]"] ;
54 -> 55 ;
56 [label="pH <= 3.4\nmse = 0.1\nsamples = 60\nvalue = [[0.0]\n[0.1]\n[0.8]\n[0.1]\n[0.0]]"] ;
55 -> 56 ;
57 [label="volatile acidity <= 0.1\nmse = 0.1\nsamples = 51\nvalue = [[0.0]\n[0.1]\n[0.8]\n[0.1]\n[0.0]]"] ;
56 -> 57 ;
58 [label="density <= 1.0\nmse = 0.1\nsamples = 4\nvalue = [[0.0]\n[0.0]\n[0.3]\n[0.7]\n[0.0]]"] ;
57 -> 58 ;
59 [label="mse = 0.0\nsamples = 2\nvalue = [[0.0]\n[0.0]\n[0.0]\n[1.0]\n[0.0]]"] ;
58 -> 59 ;
60 [label="mse = 0.0\nsamples = 2\nvalue = [[0.0]\n[0.0]\n[1.0]\n[0.0]\n[0.0]]"] ;
58 -> 60 ;
61 [label="density <= 1.0\nmse = 0.1\nsamples = 47\nvalue = [[0.0]\n[0.1]\n[0.8]\n[0.0]\n[0.0]]"] ;
57 -> 61 ;
62 [label="pH <= 3.2\nmse = 0.1\nsamples = 14\nvalue = [[0.0]\n[0.4]\n[0.6]\n[0.0]\n[0.0]]"] ;
61 -> 62 ;
63 [label="fixed acidity <= 6.9\nmse = 0.1\nsamples = 6\nvalue = [[0.0]\n[0.8]\n[0.2]\n[0.0]\n[0.0]]"] ;
62 -> 63 ;
64 [label="mse = 0.0\nsamples = 4\nvalue = [[0.0]\n[1.0]\n[0.0]\n[0.0]\n[0.0]]"] ;
63 -> 64 ;
65 [label="mse = 0.0\nsamples = 2\nvalue = [[0.0]\n[0.0]\n[1.0]\n[0.0]\n[0.0]]"] ;
63 -> 65 ;
66 [label="alcohol <= 9.2\nmse = 0.0\nsamples = 8\nvalue = [[0.0]\n[0.1]\n[0.9]\n[0.0]\n[0.0]]"] ;
62 -> 66 ;
67 [label="mse = 0.0\nsamples = 1\nvalue = [[0.0]\n[1.0]\n[0.0]\n[0.0]\n[0.0]]"] ;
66 -> 67 ;
68 [label="mse = 0.0\nsamples = 7\nvalue = [[0.0]\n[0.0]\n[1.0]\n[0.0]\n[0.0]]"] ;
66 -> 68 ;
69 [label="volatile acidity <= 0.2\nmse = 0.0\nsamples = 33\nvalue = [[0.0]\n[0.0]\n[0.9]\n[0.0]\n[0.0]]"] ;
61 -> 69 ;
70 [label="fixed acidity <= 7.7\nmse = 0.0\nsamples = 24\nvalue = [[0.0]\n[0.0]\n[1.0]\n[0.0]\n[0.0]]"] ;
69 -> 70 ;
71 [label="mse = 0.0\nsamples = 23\nvalue = [[0.0]\n[0.0]\n[1.0]\n[0.0]\n[0.0]]"] ;
70 -> 71 ;
72 [label="mse = 0.0\nsamples = 1\nvalue = [[0.0]\n[0.0]\n[0.0]\n[1.0]\n[0.0]]"] ;
70 -> 72 ;
73 [label="citric acid <= 0.4\nmse = 0.1\nsamples = 9\nvalue = [[0.0]\n[0.2]\n[0.7]\n[0.1]\n[0.0]]"] ;
69 -> 73 ;
74 [label="sulphates <= 0.5\nmse = 0.0\nsamples = 6\nvalue = [[0.0]\n[0.0]\n[0.9]\n[0.1]\n[0.0]]"] ;
73 -> 74 ;
75 [label="mse = 0.0\nsamples = 1\nvalue = [[0.0]\n[0.0]\n[0.0]\n[1.0]\n[0.0]]"] ;
74 -> 75 ;
76 [label="mse = 0.0\nsamples = 5\nvalue = [[0.0]\n[0.0]\n[1.0]\n[0.0]\n[0.0]]"] ;
74 -> 76 ;
77 [label="mse = 0.0\nsamples = 3\nvalue = [[0.0]\n[1.0]\n[0.0]\n[0.0]\n[0.0]]"] ;
73 -> 77 ;
78 [label="pH <= 3.5\nmse = 0.1\nsamples = 9\nvalue = [[0.0]\n[0.0]\n[0.5]\n[0.5]\n[0.0]]"] ;
56 -> 78 ;
79 [label="mse = 0.0\nsamples = 3\nvalue = [[0.0]\n[0.0]\n[0.0]\n[1.0]\n[0.0]]"] ;
78 -> 79 ;
80 [label="residual sugar <= 1.6\nmse = 0.0\nsamples = 6\nvalue = [[0.0]\n[0.0]\n[0.9]\n[0.1]\n[0.0]]"] ;
78 -> 80 ;
81 [label="mse = 0.0\nsamples = 4\nvalue = [[0.0]\n[0.0]\n[1.0]\n[0.0]\n[0.0]]"] ;
80 -> 81 ;
82 [label="total sulfur dioxide <= 126.0\nmse = 0.1\nsamples = 2\nvalue = [[0.0]\n[0.0]\n[0.5]\n[0.5]\n[0.0]]"] ;
80 -> 82 ;
83 [label="mse = 0.0\nsamples = 1\nvalue = [[0.0]\n[0.0]\n[1.0]\n[0.0]\n[0.0]]"] ;
82 -> 83 ;
84 [label="mse = 0.0\nsamples = 1\nvalue = [[0.0]\n[0.0]\n[0.0]\n[1.0]\n[0.0]]"] ;
82 -> 84 ;
85 [label="volatile acidity <= 0.2\nmse = 0.1\nsamples = 82\nvalue = [[0.0]\n[0.3]\n[0.6]\n[0.0]\n[0.0]]"] ;
55 -> 85 ;
86 [label="pH <= 3.5\nmse = 0.1\nsamples = 54\nvalue = [[0.0]\n[0.2]\n[0.7]\n[0.0]\n[0.0]]"] ;
85 -> 86 ;
87 [label="alcohol <= 9.2\nmse = 0.1\nsamples = 51\nvalue = [[0.0]\n[0.2]\n[0.8]\n[0.1]\n[0.0]]"] ;
86 -> 87 ;
88 [label="mse = 0.0\nsamples = 2\nvalue = [[0.0]\n[1.0]\n[0.0]\n[0.0]\n[0.0]]"] ;
87 -> 88 ;
89 [label="free sulfur dioxide <= 17.5\nmse = 0.1\nsamples = 49\nvalue = [[0.0]\n[0.1]\n[0.8]\n[0.1]\n[0.0]]"] ;
87 -> 89 ;
90 [label="fixed acidity <= 8.3\nmse = 0.1\nsamples = 4\nvalue = [[0.0]\n[0.8]\n[0.2]\n[0.0]\n[0.0]]"] ;
89 -> 90 ;
91 [label="mse = 0.0\nsamples = 3\nvalue = [[0.0]\n[1.0]\n[0.0]\n[0.0]\n[0.0]]"] ;
90 -> 91 ;
92 [label="mse = 0.0\nsamples = 1\nvalue = [[0.0]\n[0.0]\n[1.0]\n[0.0]\n[0.0]]"] ;
90 -> 92 ;
93 [label="fixed acidity <= 8.9\nmse = 0.1\nsamples = 45\nvalue = [[0.0]\n[0.1]\n[0.8]\n[0.1]\n[0.0]]"] ;
89 -> 93 ;
94 [label="density <= 1.0\nmse = 0.0\nsamples = 44\nvalue = [[0.0]\n[0.1]\n[0.9]\n[0.0]\n[0.0]]"] ;
93 -> 94 ;
95 [label="chlorides <= 0.0\nmse = 0.1\nsamples = 2\nvalue = [[0.0]\n[0.5]\n[0.0]\n[0.5]\n[0.0]]"] ;
94 -> 95 ;
96 [label="mse = 0.0\nsamples = 1\nvalue = [[0.0]\n[0.0]\n[0.0]\n[1.0]\n[0.0]]"] ;
95 -> 96 ;
97 [label="mse = 0.0\nsamples = 1\nvalue = [[0.0]\n[1.0]\n[0.0]\n[0.0]\n[0.0]]"] ;
95 -> 97 ;
98 [label="sulphates <= 0.4\nmse = 0.0\nsamples = 42\nvalue = [[0.0]\n[0.1]\n[0.9]\n[0.0]\n[0.0]]"] ;
94 -> 98 ;
99 [label="sulphates <= 0.4\nmse = 0.1\nsamples = 11\nvalue = [[0.0]\n[0.4]\n[0.6]\n[0.0]\n[0.0]]"] ;
98 -> 99 ;
100 [label="fixed acidity <= 7.7\nmse = 0.0\nsamples = 6\nvalue = [[0.0]\n[0.1]\n[0.9]\n[0.0]\n[0.0]]"] ;
99 -> 100 ;
101 [label="mse = 0.0\nsamples = 4\nvalue = [[0.0]\n[0.0]\n[1.0]\n[0.0]\n[0.0]]"] ;
100 -> 101 ;
102 [label="volatile acidity <= 0.2\nmse = 0.1\nsamples = 2\nvalue = [[0.0]\n[0.5]\n[0.5]\n[0.0]\n[0.0]]"] ;
100 -> 102 ;
103 [label="mse = 0.0\nsamples = 1\nvalue = [[0.0]\n[0.0]\n[1.0]\n[0.0]\n[0.0]]"] ;
102 -> 103 ;
104 [label="mse = 0.0\nsamples = 1\nvalue = [[0.0]\n[1.0]\n[0.0]\n[0.0]\n[0.0]]"] ;
102 -> 104 ;
105 [label="fixed acidity <= 7.5\nmse = 0.1\nsamples = 5\nvalue = [[0.0]\n[0.7]\n[0.3]\n[0.0]\n[0.0]]"] ;
99 -> 105 ;
106 [label="mse = 0.0\nsamples = 3\nvalue = [[0.0]\n[1.0]\n[0.0]\n[0.0]\n[0.0]]"] ;
105 -> 106 ;
107 [label="mse = 0.0\nsamples = 2\nvalue = [[0.0]\n[0.0]\n[1.0]\n[0.0]\n[0.0]]"] ;
105 -> 107 ;
108 [label="alcohol <= 10.2\nmse = 0.0\nsamples = 31\nvalue = [[0.0]\n[0.0]\n[1.0]\n[0.0]\n[0.0]]"] ;
98 -> 108 ;
109 [label="density <= 1.0\nmse = 0.0\nsamples = 29\nvalue = [[0.0]\n[0.0]\n[1.0]\n[0.0]\n[0.0]]"] ;
108 -> 109 ;
110 [label="residual sugar <= 5.6\nmse = 0.1\nsamples = 5\nvalue = [[0.0]\n[0.2]\n[0.8]\n[0.0]\n[0.0]]"] ;
109 -> 110 ;
111 [label="mse = 0.0\nsamples = 4\nvalue = [[0.0]\n[0.0]\n[1.0]\n[0.0]\n[0.0]]"] ;
110 -> 111 ;
112 [label="mse = 0.0\nsamples = 1\nvalue = [[0.0]\n[1.0]\n[0.0]\n[0.0]\n[0.0]]"] ;
110 -> 112 ;
113 [label="mse = 0.0\nsamples = 24\nvalue = [[0.0]\n[0.0]\n[1.0]\n[0.0]\n[0.0]]"] ;
109 -> 113 ;
114 [label="total sulfur dioxide <= 134.0\nmse = 0.1\nsamples = 2\nvalue = [[0.0]\n[0.0]\n[0.5]\n[0.5]\n[0.0]]"] ;
108 -> 114 ;
115 [label="mse = 0.0\nsamples = 1\nvalue = [[0.0]\n[0.0]\n[1.0]\n[0.0]\n[0.0]]"] ;
114 -> 115 ;
116 [label="mse = 0.0\nsamples = 1\nvalue = [[0.0]\n[0.0]\n[0.0]\n[1.0]\n[0.0]]"] ;
114 -> 116 ;
117 [label="mse = 0.0\nsamples = 1\nvalue = [[0.0]\n[0.0]\n[0.0]\n[1.0]\n[0.0]]"] ;
93 -> 117 ;
118 [label="mse = 0.0\nsamples = 3\nvalue = [[0.0]\n[1.0]\n[0.0]\n[0.0]\n[0.0]]"] ;
86 -> 118 ;
119 [label="pH <= 3.4\nmse = 0.1\nsamples = 28\nvalue = [[0.1]\n[0.5]\n[0.3]\n[0.0]\n[0.0]]"] ;
85 -> 119 ;
120 [label="chlorides <= 0.0\nmse = 0.1\nsamples = 22\nvalue = [[0.1]\n[0.6]\n[0.2]\n[0.0]\n[0.1]]"] ;
119 -> 120 ;
121 [label="mse = 0.0\nsamples = 2\nvalue = [[1.0]\n[0.0]\n[0.0]\n[0.0]\n[0.0]]"] ;
120 -> 121 ;
122 [label="alcohol <= 9.7\nmse = 0.1\nsamples = 20\nvalue = [[0.0]\n[0.7]\n[0.2]\n[0.0]\n[0.1]]"] ;
120 -> 122 ;
123 [label="residual sugar <= 5.1\nmse = 0.1\nsamples = 14\nvalue = [[0.0]\n[0.5]\n[0.4]\n[0.0]\n[0.1]]"] ;
122 -> 123 ;
124 [label="sulphates <= 0.4\nmse = 0.1\nsamples = 11\nvalue = [[0.1]\n[0.2]\n[0.6]\n[0.0]\n[0.1]]"] ;
123 -> 124 ;
125 [label="fixed acidity <= 8.5\nmse = 0.1\nsamples = 4\nvalue = [[0.2]\n[0.8]\n[0.0]\n[0.0]\n[0.0]]"] ;
124 -> 125 ;
126 [label="mse = 0.0\nsamples = 3\nvalue = [[0.0]\n[1.0]\n[0.0]\n[0.0]\n[0.0]]"] ;
125 -> 126 ;
127 [label="mse = 0.0\nsamples = 1\nvalue = [[1.0]\n[0.0]\n[0.0]\n[0.0]\n[0.0]]"] ;
125 -> 127 ;
128 [label="pH <= 3.0\nmse = 0.1\nsamples = 7\nvalue = [[0.0]\n[0.0]\n[0.8]\n[0.0]\n[0.2]]"] ;
124 -> 128 ;
129 [label="mse = 0.0\nsamples = 1\nvalue = [[0.0]\n[0.0]\n[0.0]\n[0.0]\n[1.0]]"] ;
128 -> 129 ;
130 [label="mse = 0.0\nsamples = 6\nvalue = [[0.0]\n[0.0]\n[1.0]\n[0.0]\n[0.0]]"] ;
128 -> 130 ;
131 [label="mse = 0.0\nsamples = 3\nvalue = [[0.0]\n[1.0]\n[0.0]\n[0.0]\n[0.0]]"] ;
123 -> 131 ;
132 [label="mse = 0.0\nsamples = 6\nvalue = [[0.0]\n[1.0]\n[0.0]\n[0.0]\n[0.0]]"] ;
122 -> 132 ;
133 [label="mse = 0.0\nsamples = 6\nvalue = [[0.0]\n[0.0]\n[1.0]\n[0.0]\n[0.0]]"] ;
119 -> 133 ;
134 [label="volatile acidity <= 0.2\nmse = 0.1\nsamples = 8\nvalue = [[0.0]\n[0.4]\n[0.1]\n[0.5]\n[0.0]]"] ;
54 -> 134 ;
135 [label="mse = 0.0\nsamples = 3\nvalue = [[0.0]\n[0.0]\n[0.0]\n[1.0]\n[0.0]]"] ;
134 -> 135 ;
136 [label="fixed acidity <= 6.6\nmse = 0.1\nsamples = 5\nvalue = [[0.0]\n[0.8]\n[0.2]\n[0.0]\n[0.0]]"] ;
134 -> 136 ;
137 [label="mse = 0.0\nsamples = 4\nvalue = [[0.0]\n[1.0]\n[0.0]\n[0.0]\n[0.0]]"] ;
136 -> 137 ;
138 [label="mse = 0.0\nsamples = 1\nvalue = [[0.0]\n[0.0]\n[1.0]\n[0.0]\n[0.0]]"] ;
136 -> 138 ;
139 [label="fixed acidity <= 7.0\nmse = 0.1\nsamples = 55\nvalue = [[0.0]\n[0.1]\n[0.8]\n[0.0]\n[0.0]]"] ;
53 -> 139 ;
140 [label="total sulfur dioxide <= 178.5\nmse = 0.0\nsamples = 35\nvalue = [[0.0]\n[0.1]\n[0.9]\n[0.0]\n[0.0]]"] ;
139 -> 140 ;
141 [label="chlorides <= 0.0\nmse = 0.0\nsamples = 28\nvalue = [[0.0]\n[0.0]\n[1.0]\n[0.0]\n[0.0]]"] ;
140 -> 141 ;
142 [label="mse = 0.0\nsamples = 1\nvalue = [[0.0]\n[1.0]\n[0.0]\n[0.0]\n[0.0]]"] ;
141 -> 142 ;
143 [label="mse = 0.0\nsamples = 27\nvalue = [[0.0]\n[0.0]\n[1.0]\n[0.0]\n[0.0]]"] ;
141 -> 143 ;
144 [label="free sulfur dioxide <= 49.5\nmse = 0.1\nsamples = 7\nvalue = [[0.0]\n[0.3]\n[0.7]\n[0.0]\n[0.0]]"] ;
140 -> 144 ;
145 [label="mse = 0.0\nsamples = 2\nvalue = [[0.0]\n[1.0]\n[0.0]\n[0.0]\n[0.0]]"] ;
144 -> 145 ;
146 [label="mse = 0.0\nsamples = 5\nvalue = [[0.0]\n[0.0]\n[1.0]\n[0.0]\n[0.0]]"] ;
144 -> 146 ;
147 [label="total sulfur dioxide <= 101.5\nmse = 0.1\nsamples = 20\nvalue = [[0.0]\n[0.2]\n[0.6]\n[0.0]\n[0.1]]"] ;
139 -> 147 ;
148 [label="mse = 0.0\nsamples = 2\nvalue = [[0.0]\n[0.0]\n[0.0]\n[0.0]\n[1.0]]"] ;
147 -> 148 ;
149 [label="density <= 1.0\nmse = 0.1\nsamples = 18\nvalue = [[0.0]\n[0.3]\n[0.7]\n[0.0]\n[0.0]]"] ;
147 -> 149 ;
150 [label="density <= 1.0\nmse = 0.1\nsamples = 2\nvalue = [[0.0]\n[0.7]\n[0.0]\n[0.3]\n[0.0]]"] ;
149 -> 150 ;
151 [label="mse = 0.0\nsamples = 1\nvalue = [[0.0]\n[0.0]\n[0.0]\n[1.0]\n[0.0]]"] ;
150 -> 151 ;
152 [label="mse = 0.0\nsamples = 1\nvalue = [[0.0]\n[1.0]\n[0.0]\n[0.0]\n[0.0]]"] ;
150 -> 152 ;
153 [label="alcohol <= 9.4\nmse = 0.1\nsamples = 16\nvalue = [[0.0]\n[0.2]\n[0.8]\n[0.0]\n[0.0]]"] ;
149 -> 153 ;
154 [label="fixed acidity <= 7.3\nmse = 0.1\nsamples = 4\nvalue = [[0.0]\n[0.6]\n[0.4]\n[0.0]\n[0.0]]"] ;
153 -> 154 ;
155 [label="mse = 0.0\nsamples = 2\nvalue = [[0.0]\n[1.0]\n[0.0]\n[0.0]\n[0.0]]"] ;
154 -> 155 ;
156 [label="mse = 0.0\nsamples = 2\nvalue = [[0.0]\n[0.0]\n[1.0]\n[0.0]\n[0.0]]"] ;
154 -> 156 ;
157 [label="fixed acidity <= 8.0\nmse = 0.0\nsamples = 12\nvalue = [[0.0]\n[0.1]\n[0.9]\n[0.0]\n[0.0]]"] ;
153 -> 157 ;
158 [label="mse = 0.0\nsamples = 11\nvalue = [[0.0]\n[0.0]\n[1.0]\n[0.0]\n[0.0]]"] ;
157 -> 158 ;
159 [label="mse = 0.0\nsamples = 1\nvalue = [[0.0]\n[1.0]\n[0.0]\n[0.0]\n[0.0]]"] ;
157 -> 159 ;
160 [label="mse = 0.0\nsamples = 3\nvalue = [[0.0]\n[1.0]\n[0.0]\n[0.0]\n[0.0]]"] ;
52 -> 160 ;
161 [label="total sulfur dioxide <= 112.5\nmse = 0.1\nsamples = 11\nvalue = [[0.1]\n[0.6]\n[0.3]\n[0.0]\n[0.0]]"] ;
51 -> 161 ;
162 [label="mse = 0.0\nsamples = 3\nvalue = [[0.0]\n[0.0]\n[1.0]\n[0.0]\n[0.0]]"] ;
161 -> 162 ;
163 [label="residual sugar <= 6.0\nmse = 0.1\nsamples = 8\nvalue = [[0.2]\n[0.8]\n[0.1]\n[0.0]\n[0.0]]"] ;
161 -> 163 ;
164 [label="mse = 0.0\nsamples = 1\nvalue = [[1.0]\n[0.0]\n[0.0]\n[0.0]\n[0.0]]"] ;
163 -> 164 ;
165 [label="sulphates <= 0.6\nmse = 0.0\nsamples = 7\nvalue = [[0.0]\n[0.9]\n[0.1]\n[0.0]\n[0.0]]"] ;
163 -> 165 ;
166 [label="mse = 0.0\nsamples = 6\nvalue = [[0.0]\n[1.0]\n[0.0]\n[0.0]\n[0.0]]"] ;
165 -> 166 ;
167 [label="mse = 0.0\nsamples = 1\nvalue = [[0.0]\n[0.0]\n[1.0]\n[0.0]\n[0.0]]"] ;
165 -> 167 ;
168 [label="density <= 1.0\nmse = 0.1\nsamples = 107\nvalue = [[0.0]\n[0.2]\n[0.5]\n[0.2]\n[0.0]]"] ;
36 -> 168 ;
169 [label="chlorides <= 0.1\nmse = 0.1\nsamples = 17\nvalue = [[0.0]\n[0.1]\n[0.2]\n[0.6]\n[0.0]]"] ;
168 -> 169 ;
170 [label="pH <= 3.3\nmse = 0.1\nsamples = 12\nvalue = [[0.0]\n[0.0]\n[0.1]\n[0.8]\n[0.0]]"] ;
169 -> 170 ;
171 [label="free sulfur dioxide <= 61.5\nmse = 0.0\nsamples = 10\nvalue = [[0.0]\n[0.0]\n[0.1]\n[0.9]\n[0.0]]"] ;
170 -> 171 ;
172 [label="mse = 0.0\nsamples = 7\nvalue = [[0.0]\n[0.0]\n[0.0]\n[1.0]\n[0.0]]"] ;
171 -> 172 ;
173 [label="free sulfur dioxide <= 64.0\nmse = 0.1\nsamples = 3\nvalue = [[0.0]\n[0.0]\n[0.7]\n[0.3]\n[0.0]]"] ;
171 -> 173 ;
174 [label="mse = 0.0\nsamples = 2\nvalue = [[0.0]\n[0.0]\n[1.0]\n[0.0]\n[0.0]]"] ;
173 -> 174 ;
175 [label="mse = 0.0\nsamples = 1\nvalue = [[0.0]\n[0.0]\n[0.0]\n[1.0]\n[0.0]]"] ;
173 -> 175 ;
176 [label="alcohol <= 9.5\nmse = 0.1\nsamples = 2\nvalue = [[0.0]\n[0.5]\n[0.5]\n[0.0]\n[0.0]]"] ;
170 -> 176 ;
177 [label="mse = 0.0\nsamples = 1\nvalue = [[0.0]\n[1.0]\n[0.0]\n[0.0]\n[0.0]]"] ;
176 -> 177 ;
178 [label="mse = 0.0\nsamples = 1\nvalue = [[0.0]\n[0.0]\n[1.0]\n[0.0]\n[0.0]]"] ;
176 -> 178 ;
179 [label="citric acid <= 0.3\nmse = 0.1\nsamples = 5\nvalue = [[0.0]\n[0.4]\n[0.6]\n[0.0]\n[0.0]]"] ;
169 -> 179 ;
180 [label="mse = 0.0\nsamples = 2\nvalue = [[0.0]\n[0.0]\n[1.0]\n[0.0]\n[0.0]]"] ;
179 -> 180 ;
181 [label="pH <= 3.3\nmse = 0.1\nsamples = 3\nvalue = [[0.0]\n[0.8]\n[0.2]\n[0.0]\n[0.0]]"] ;
179 -> 181 ;
182 [label="mse = 0.0\nsamples = 2\nvalue = [[0.0]\n[1.0]\n[0.0]\n[0.0]\n[0.0]]"] ;
181 -> 182 ;
183 [label="mse = 0.0\nsamples = 1\nvalue = [[0.0]\n[0.0]\n[1.0]\n[0.0]\n[0.0]]"] ;
181 -> 183 ;
184 [label="alcohol <= 8.8\nmse = 0.1\nsamples = 90\nvalue = [[0.0]\n[0.2]\n[0.6]\n[0.2]\n[0.0]]"] ;
168 -> 184 ;
185 [label="fixed acidity <= 7.8\nmse = 0.1\nsamples = 12\nvalue = [[0.0]\n[0.5]\n[0.1]\n[0.3]\n[0.1]]"] ;
184 -> 185 ;
186 [label="total sulfur dioxide <= 171.5\nmse = 0.1\nsamples = 8\nvalue = [[0.0]\n[0.8]\n[0.2]\n[0.0]\n[0.0]]"] ;
185 -> 186 ;
187 [label="mse = 0.0\nsamples = 7\nvalue = [[0.0]\n[1.0]\n[0.0]\n[0.0]\n[0.0]]"] ;
186 -> 187 ;
188 [label="mse = 0.0\nsamples = 1\nvalue = [[0.0]\n[0.0]\n[1.0]\n[0.0]\n[0.0]]"] ;
186 -> 188 ;
189 [label="pH <= 3.2\nmse = 0.1\nsamples = 4\nvalue = [[0.0]\n[0.0]\n[0.0]\n[0.7]\n[0.3]]"] ;
185 -> 189 ;
190 [label="mse = 0.0\nsamples = 3\nvalue = [[0.0]\n[0.0]\n[0.0]\n[1.0]\n[0.0]]"] ;
189 -> 190 ;
191 [label="mse = 0.0\nsamples = 1\nvalue = [[0.0]\n[0.0]\n[0.0]\n[0.0]\n[1.0]]"] ;
189 -> 191 ;
192 [label="chlorides <= 0.1\nmse = 0.1\nsamples = 78\nvalue = [[0.0]\n[0.2]\n[0.7]\n[0.1]\n[0.0]]"] ;
184 -> 192 ;
193 [label="total sulfur dioxide <= 226.0\nmse = 0.1\nsamples = 68\nvalue = [[0.0]\n[0.1]\n[0.7]\n[0.1]\n[0.0]]"] ;
192 -> 193 ;
194 [label="density <= 1.0\nmse = 0.1\nsamples = 64\nvalue = [[0.0]\n[0.2]\n[0.8]\n[0.1]\n[0.0]]"] ;
193 -> 194 ;
195 [label="chlorides <= 0.0\nmse = 0.0\nsamples = 37\nvalue = [[0.0]\n[0.1]\n[0.9]\n[0.0]\n[0.0]]"] ;
194 -> 195 ;
196 [label="citric acid <= 0.3\nmse = 0.1\nsamples = 3\nvalue = [[0.0]\n[0.7]\n[0.0]\n[0.3]\n[0.0]]"] ;
195 -> 196 ;
197 [label="mse = 0.0\nsamples = 1\nvalue = [[0.0]\n[0.0]\n[0.0]\n[1.0]\n[0.0]]"] ;
196 -> 197 ;
198 [label="mse = 0.0\nsamples = 2\nvalue = [[0.0]\n[1.0]\n[0.0]\n[0.0]\n[0.0]]"] ;
196 -> 198 ;
199 [label="pH <= 3.4\nmse = 0.0\nsamples = 34\nvalue = [[0.0]\n[0.0]\n[1.0]\n[0.0]\n[0.0]]"] ;
195 -> 199 ;
200 [label="citric acid <= 0.3\nmse = 0.0\nsamples = 33\nvalue = [[0.0]\n[0.0]\n[1.0]\n[0.0]\n[0.0]]"] ;
199 -> 200 ;
201 [label="chlorides <= 0.0\nmse = 0.1\nsamples = 5\nvalue = [[0.0]\n[0.3]\n[0.7]\n[0.0]\n[0.0]]"] ;
200 -> 201 ;
202 [label="mse = 0.0\nsamples = 4\nvalue = [[0.0]\n[0.0]\n[1.0]\n[0.0]\n[0.0]]"] ;
201 -> 202 ;
203 [label="mse = 0.0\nsamples = 1\nvalue = [[0.0]\n[1.0]\n[0.0]\n[0.0]\n[0.0]]"] ;
201 -> 203 ;
204 [label="mse = 0.0\nsamples = 28\nvalue = [[0.0]\n[0.0]\n[1.0]\n[0.0]\n[0.0]]"] ;
200 -> 204 ;
205 [label="mse = 0.0\nsamples = 1\nvalue = [[0.0]\n[1.0]\n[0.0]\n[0.0]\n[0.0]]"] ;
199 -> 205 ;
206 [label="citric acid <= 0.4\nmse = 0.1\nsamples = 27\nvalue = [[0.0]\n[0.3]\n[0.5]\n[0.1]\n[0.1]]"] ;
194 -> 206 ;
207 [label="chlorides <= 0.1\nmse = 0.1\nsamples = 15\nvalue = [[0.0]\n[0.5]\n[0.3]\n[0.0]\n[0.1]]"] ;
206 -> 207 ;
208 [label="pH <= 3.4\nmse = 0.0\nsamples = 8\nvalue = [[0.0]\n[0.9]\n[0.0]\n[0.1]\n[0.0]]"] ;
207 -> 208 ;
209 [label="mse = 0.0\nsamples = 7\nvalue = [[0.0]\n[1.0]\n[0.0]\n[0.0]\n[0.0]]"] ;
208 -> 209 ;
210 [label="mse = 0.0\nsamples = 1\nvalue = [[0.0]\n[0.0]\n[0.0]\n[1.0]\n[0.0]]"] ;
208 -> 210 ;
211 [label="residual sugar <= 13.7\nmse = 0.1\nsamples = 7\nvalue = [[0.0]\n[0.0]\n[0.7]\n[0.0]\n[0.3]]"] ;
207 -> 211 ;
212 [label="mse = 0.0\nsamples = 4\nvalue = [[0.0]\n[0.0]\n[1.0]\n[0.0]\n[0.0]]"] ;
211 -> 212 ;
213 [label="mse = 0.0\nsamples = 3\nvalue = [[0.0]\n[0.0]\n[0.0]\n[0.0]\n[1.0]]"] ;
211 -> 213 ;
214 [label="pH <= 3.3\nmse = 0.1\nsamples = 12\nvalue = [[0.0]\n[0.0]\n[0.8]\n[0.2]\n[0.0]]"] ;
206 -> 214 ;
215 [label="mse = 0.0\nsamples = 10\nvalue = [[0.0]\n[0.0]\n[1.0]\n[0.0]\n[0.0]]"] ;
214 -> 215 ;
216 [label="mse = 0.0\nsamples = 2\nvalue = [[0.0]\n[0.0]\n[0.0]\n[1.0]\n[0.0]]"] ;
214 -> 216 ;
217 [label="pH <= 3.2\nmse = 0.1\nsamples = 4\nvalue = [[0.0]\n[0.0]\n[0.2]\n[0.8]\n[0.0]]"] ;
193 -> 217 ;
218 [label="mse = 0.0\nsamples = 3\nvalue = [[0.0]\n[0.0]\n[0.0]\n[1.0]\n[0.0]]"] ;
217 -> 218 ;
219 [label="mse = 0.0\nsamples = 1\nvalue = [[0.0]\n[0.0]\n[1.0]\n[0.0]\n[0.0]]"] ;
217 -> 219 ;
220 [label="pH <= 3.0\nmse = 0.1\nsamples = 10\nvalue = [[0.1]\n[0.2]\n[0.3]\n[0.5]\n[0.0]]"] ;
192 -> 220 ;
221 [label="mse = 0.0\nsamples = 5\nvalue = [[0.0]\n[0.0]\n[0.0]\n[1.0]\n[0.0]]"] ;
220 -> 221 ;
222 [label="total sulfur dioxide <= 160.0\nmse = 0.1\nsamples = 5\nvalue = [[0.1]\n[0.4]\n[0.5]\n[0.0]\n[0.0]]"] ;
220 -> 222 ;
223 [label="mse = 0.0\nsamples = 2\nvalue = [[0.0]\n[0.0]\n[1.0]\n[0.0]\n[0.0]]"] ;
222 -> 223 ;
224 [label="chlorides <= 0.1\nmse = 0.1\nsamples = 3\nvalue = [[0.2]\n[0.8]\n[0.0]\n[0.0]\n[0.0]]"] ;
222 -> 224 ;
225 [label="mse = 0.0\nsamples = 2\nvalue = [[0.0]\n[1.0]\n[0.0]\n[0.0]\n[0.0]]"] ;
224 -> 225 ;
226 [label="mse = 0.0\nsamples = 1\nvalue = [[1.0]\n[0.0]\n[0.0]\n[0.0]\n[0.0]]"] ;
224 -> 226 ;
227 [label="mse = 0.0\nsamples = 15\nvalue = [[0.0]\n[0.0]\n[1.0]\n[0.0]\n[0.0]]"] ;
35 -> 227 ;
228 [label="residual sugar <= 3.1\nmse = 0.1\nsamples = 11\nvalue = [[0.0]\n[0.0]\n[0.4]\n[0.6]\n[0.0]]"] ;
34 -> 228 ;
229 [label="volatile acidity <= 0.2\nmse = 0.0\nsamples = 6\nvalue = [[0.0]\n[0.0]\n[0.1]\n[0.9]\n[0.0]]"] ;
228 -> 229 ;
230 [label="mse = 0.0\nsamples = 5\nvalue = [[0.0]\n[0.0]\n[0.0]\n[1.0]\n[0.0]]"] ;
229 -> 230 ;
231 [label="mse = 0.0\nsamples = 1\nvalue = [[0.0]\n[0.0]\n[1.0]\n[0.0]\n[0.0]]"] ;
229 -> 231 ;
232 [label="mse = 0.0\nsamples = 5\nvalue = [[0.0]\n[0.0]\n[1.0]\n[0.0]\n[0.0]]"] ;
228 -> 232 ;
233 [label="residual sugar <= 19.1\nmse = 0.1\nsamples = 11\nvalue = [[0.0]\n[0.8]\n[0.2]\n[0.0]\n[0.0]]"] ;
33 -> 233 ;
234 [label="mse = 0.0\nsamples = 8\nvalue = [[0.0]\n[1.0]\n[0.0]\n[0.0]\n[0.0]]"] ;
233 -> 234 ;
235 [label="mse = 0.0\nsamples = 3\nvalue = [[0.0]\n[0.0]\n[1.0]\n[0.0]\n[0.0]]"] ;
233 -> 235 ;
236 [label="alcohol <= 9.1\nmse = 0.1\nsamples = 269\nvalue = [[0.0]\n[0.4]\n[0.5]\n[0.1]\n[0.0]]"] ;
2 -> 236 ;
237 [label="pH <= 3.0\nmse = 0.1\nsamples = 56\nvalue = [[0.0]\n[0.7]\n[0.2]\n[0.1]\n[0.0]]"] ;
236 -> 237 ;
238 [label="citric acid <= 0.5\nmse = 0.1\nsamples = 15\nvalue = [[0.0]\n[0.4]\n[0.6]\n[0.0]\n[0.0]]"] ;
237 -> 238 ;
239 [label="total sulfur dioxide <= 146.5\nmse = 0.1\nsamples = 12\nvalue = [[0.0]\n[0.2]\n[0.8]\n[0.0]\n[0.0]]"] ;
238 -> 239 ;
240 [label="mse = 0.0\nsamples = 2\nvalue = [[0.0]\n[1.0]\n[0.0]\n[0.0]\n[0.0]]"] ;
239 -> 240 ;
241 [label="mse = 0.0\nsamples = 10\nvalue = [[0.0]\n[0.0]\n[1.0]\n[0.0]\n[0.0]]"] ;
239 -> 241 ;
242 [label="mse = 0.0\nsamples = 3\nvalue = [[0.0]\n[1.0]\n[0.0]\n[0.0]\n[0.0]]"] ;
238 -> 242 ;
243 [label="total sulfur dioxide <= 197.0\nmse = 0.1\nsamples = 41\nvalue = [[0.0]\n[0.8]\n[0.1]\n[0.1]\n[0.0]]"] ;
237 -> 243 ;
244 [label="free sulfur dioxide <= 7.5\nmse = 0.0\nsamples = 29\nvalue = [[0.0]\n[0.9]\n[0.1]\n[0.0]\n[0.0]]"] ;
243 -> 244 ;
245 [label="mse = 0.0\nsamples = 1\nvalue = [[1.0]\n[0.0]\n[0.0]\n[0.0]\n[0.0]]"] ;
244 -> 245 ;
246 [label="total sulfur dioxide <= 156.5\nmse = 0.0\nsamples = 28\nvalue = [[0.0]\n[0.9]\n[0.1]\n[0.0]\n[0.0]]"] ;
244 -> 246 ;
247 [label="mse = 0.0\nsamples = 17\nvalue = [[0.0]\n[1.0]\n[0.0]\n[0.0]\n[0.0]]"] ;
246 -> 247 ;
248 [label="total sulfur dioxide <= 178.0\nmse = 0.1\nsamples = 11\nvalue = [[0.1]\n[0.7]\n[0.2]\n[0.0]\n[0.0]]"] ;
246 -> 248 ;
249 [label="pH <= 3.2\nmse = 0.1\nsamples = 4\nvalue = [[0.2]\n[0.3]\n[0.5]\n[0.0]\n[0.0]]"] ;
248 -> 249 ;
250 [label="mse = 0.0\nsamples = 2\nvalue = [[0.0]\n[0.0]\n[1.0]\n[0.0]\n[0.0]]"] ;
249 -> 250 ;
251 [label="residual sugar <= 9.8\nmse = 0.1\nsamples = 2\nvalue = [[0.3]\n[0.7]\n[0.0]\n[0.0]\n[0.0]]"] ;
249 -> 251 ;
252 [label="mse = 0.0\nsamples = 1\nvalue = [[0.0]\n[1.0]\n[0.0]\n[0.0]\n[0.0]]"] ;
251 -> 252 ;
253 [label="mse = 0.0\nsamples = 1\nvalue = [[1.0]\n[0.0]\n[0.0]\n[0.0]\n[0.0]]"] ;
251 -> 253 ;
254 [label="mse = 0.0\nsamples = 7\nvalue = [[0.0]\n[1.0]\n[0.0]\n[0.0]\n[0.0]]"] ;
248 -> 254 ;
255 [label="total sulfur dioxide <= 207.5\nmse = 0.1\nsamples = 12\nvalue = [[0.0]\n[0.6]\n[0.1]\n[0.3]\n[0.0]]"] ;
243 -> 255 ;
256 [label="residual sugar <= 10.6\nmse = 0.0\nsamples = 5\nvalue = [[0.0]\n[0.1]\n[0.0]\n[0.9]\n[0.0]]"] ;
255 -> 256 ;
257 [label="mse = 0.0\nsamples = 1\nvalue = [[0.0]\n[1.0]\n[0.0]\n[0.0]\n[0.0]]"] ;
256 -> 257 ;
258 [label="mse = 0.0\nsamples = 4\nvalue = [[0.0]\n[0.0]\n[0.0]\n[1.0]\n[0.0]]"] ;
256 -> 258 ;
259 [label="chlorides <= 0.1\nmse = 0.0\nsamples = 7\nvalue = [[0.0]\n[0.9]\n[0.1]\n[0.0]\n[0.0]]"] ;
255 -> 259 ;
260 [label="mse = 0.0\nsamples = 6\nvalue = [[0.0]\n[1.0]\n[0.0]\n[0.0]\n[0.0]]"] ;
259 -> 260 ;
261 [label="mse = 0.0\nsamples = 1\nvalue = [[0.0]\n[0.0]\n[1.0]\n[0.0]\n[0.0]]"] ;
259 -> 261 ;
262 [label="total sulfur dioxide <= 162.0\nmse = 0.1\nsamples = 213\nvalue = [[0.0]\n[0.4]\n[0.5]\n[0.0]\n[0.0]]"] ;
236 -> 262 ;
263 [label="citric acid <= 0.2\nmse = 0.1\nsamples = 112\nvalue = [[0.0]\n[0.3]\n[0.6]\n[0.0]\n[0.0]]"] ;
262 -> 263 ;
264 [label="chlorides <= 0.0\nmse = 0.1\nsamples = 27\nvalue = [[0.2]\n[0.5]\n[0.3]\n[0.0]\n[0.0]]"] ;
263 -> 264 ;
265 [label="free sulfur dioxide <= 24.0\nmse = 0.1\nsamples = 10\nvalue = [[0.0]\n[0.2]\n[0.8]\n[0.0]\n[0.0]]"] ;
264 -> 265 ;
266 [label="alcohol <= 10.2\nmse = 0.1\nsamples = 4\nvalue = [[0.0]\n[0.8]\n[0.2]\n[0.0]\n[0.0]]"] ;
265 -> 266 ;
267 [label="mse = 0.0\nsamples = 3\nvalue = [[0.0]\n[1.0]\n[0.0]\n[0.0]\n[0.0]]"] ;
266 -> 267 ;
268 [label="mse = 0.0\nsamples = 1\nvalue = [[0.0]\n[0.0]\n[1.0]\n[0.0]\n[0.0]]"] ;
266 -> 268 ;
269 [label="mse = 0.0\nsamples = 6\nvalue = [[0.0]\n[0.0]\n[1.0]\n[0.0]\n[0.0]]"] ;
265 -> 269 ;
270 [label="fixed acidity <= 6.9\nmse = 0.1\nsamples = 17\nvalue = [[0.3]\n[0.6]\n[0.1]\n[0.0]\n[0.0]]"] ;
264 -> 270 ;
271 [label="mse = 0.0\nsamples = 10\nvalue = [[0.0]\n[1.0]\n[0.0]\n[0.0]\n[0.0]]"] ;
270 -> 271 ;
272 [label="total sulfur dioxide <= 88.0\nmse = 0.1\nsamples = 7\nvalue = [[0.6]\n[0.1]\n[0.2]\n[0.1]\n[0.0]]"] ;
270 -> 272 ;
273 [label="mse = 0.0\nsamples = 3\nvalue = [[1.0]\n[0.0]\n[0.0]\n[0.0]\n[0.0]]"] ;
272 -> 273 ;
274 [label="volatile acidity <= 0.2\nmse = 0.1\nsamples = 4\nvalue = [[0.0]\n[0.2]\n[0.5]\n[0.2]\n[0.0]]"] ;
272 -> 274 ;
275 [label="mse = 0.0\nsamples = 2\nvalue = [[0.0]\n[0.0]\n[1.0]\n[0.0]\n[0.0]]"] ;
274 -> 275 ;
276 [label="density <= 1.0\nmse = 0.1\nsamples = 2\nvalue = [[0.0]\n[0.5]\n[0.0]\n[0.5]\n[0.0]]"] ;
274 -> 276 ;
277 [label="mse = 0.0\nsamples = 1\nvalue = [[0.0]\n[1.0]\n[0.0]\n[0.0]\n[0.0]]"] ;
276 -> 277 ;
278 [label="mse = 0.0\nsamples = 1\nvalue = [[0.0]\n[0.0]\n[0.0]\n[1.0]\n[0.0]]"] ;
276 -> 278 ;
279 [label="residual sugar <= 1.2\nmse = 0.1\nsamples = 85\nvalue = [[0.0]\n[0.2]\n[0.7]\n[0.0]\n[0.0]]"] ;
263 -> 279 ;
280 [label="pH <= 3.2\nmse = 0.1\nsamples = 4\nvalue = [[0.0]\n[0.4]\n[0.1]\n[0.0]\n[0.4]]"] ;
279 -> 280 ;
281 [label="mse = 0.0\nsamples = 2\nvalue = [[0.0]\n[1.0]\n[0.0]\n[0.0]\n[0.0]]"] ;
280 -> 281 ;
282 [label="sulphates <= 0.5\nmse = 0.1\nsamples = 2\nvalue = [[0.0]\n[0.0]\n[0.2]\n[0.0]\n[0.8]]"] ;
280 -> 282 ;
283 [label="mse = 0.0\nsamples = 1\nvalue = [[0.0]\n[0.0]\n[1.0]\n[0.0]\n[0.0]]"] ;
282 -> 283 ;
284 [label="mse = 0.0\nsamples = 1\nvalue = [[0.0]\n[0.0]\n[0.0]\n[0.0]\n[1.0]]"] ;
282 -> 284 ;
285 [label="density <= 1.0\nmse = 0.1\nsamples = 81\nvalue = [[0.0]\n[0.2]\n[0.8]\n[0.0]\n[0.0]]"] ;
279 -> 285 ;
286 [label="fixed acidity <= 7.2\nmse = 0.1\nsamples = 68\nvalue = [[0.0]\n[0.2]\n[0.8]\n[0.0]\n[0.0]]"] ;
285 -> 286 ;
287 [label="total sulfur dioxide <= 77.0\nmse = 0.0\nsamples = 45\nvalue = [[0.0]\n[0.0]\n[1.0]\n[0.0]\n[0.0]]"] ;
286 -> 287 ;
288 [label="mse = 0.0\nsamples = 1\nvalue = [[0.0]\n[1.0]\n[0.0]\n[0.0]\n[0.0]]"] ;
287 -> 288 ;
289 [label="density <= 1.0\nmse = 0.0\nsamples = 44\nvalue = [[0.0]\n[0.0]\n[1.0]\n[0.0]\n[0.0]]"] ;
287 -> 289 ;
290 [label="total sulfur dioxide <= 133.5\nmse = 0.1\nsamples = 7\nvalue = [[0.0]\n[0.2]\n[0.8]\n[0.0]\n[0.0]]"] ;
289 -> 290 ;
291 [label="mse = 0.0\nsamples = 4\nvalue = [[0.0]\n[0.0]\n[1.0]\n[0.0]\n[0.0]]"] ;
290 -> 291 ;
292 [label="total sulfur dioxide <= 153.5\nmse = 0.1\nsamples = 3\nvalue = [[0.0]\n[0.7]\n[0.3]\n[0.0]\n[0.0]]"] ;
290 -> 292 ;
293 [label="mse = 0.0\nsamples = 2\nvalue = [[0.0]\n[1.0]\n[0.0]\n[0.0]\n[0.0]]"] ;
292 -> 293 ;
294 [label="mse = 0.0\nsamples = 1\nvalue = [[0.0]\n[0.0]\n[1.0]\n[0.0]\n[0.0]]"] ;
292 -> 294 ;
295 [label="mse = 0.0\nsamples = 37\nvalue = [[0.0]\n[0.0]\n[1.0]\n[0.0]\n[0.0]]"] ;
289 -> 295 ;
296 [label="sulphates <= 0.5\nmse = 0.1\nsamples = 23\nvalue = [[0.0]\n[0.4]\n[0.5]\n[0.0]\n[0.0]]"] ;
286 -> 296 ;
297 [label="chlorides <= 0.0\nmse = 0.0\nsamples = 10\nvalue = [[0.0]\n[0.9]\n[0.1]\n[0.0]\n[0.0]]"] ;
296 -> 297 ;
298 [label="mse = 0.0\nsamples = 1\nvalue = [[0.0]\n[0.0]\n[1.0]\n[0.0]\n[0.0]]"] ;
297 -> 298 ;
299 [label="mse = 0.0\nsamples = 9\nvalue = [[0.0]\n[1.0]\n[0.0]\n[0.0]\n[0.0]]"] ;
297 -> 299 ;
300 [label="alcohol <= 10.2\nmse = 0.1\nsamples = 13\nvalue = [[0.0]\n[0.1]\n[0.8]\n[0.1]\n[0.0]]"] ;
296 -> 300 ;
301 [label="mse = 0.0\nsamples = 10\nvalue = [[0.0]\n[0.0]\n[1.0]\n[0.0]\n[0.0]]"] ;
300 -> 301 ;
302 [label="pH <= 3.4\nmse = 0.1\nsamples = 3\nvalue = [[0.0]\n[0.7]\n[0.0]\n[0.3]\n[0.0]]"] ;
300 -> 302 ;
303 [label="mse = 0.0\nsamples = 2\nvalue = [[0.0]\n[1.0]\n[0.0]\n[0.0]\n[0.0]]"] ;
302 -> 303 ;
304 [label="mse = 0.0\nsamples = 1\nvalue = [[0.0]\n[0.0]\n[0.0]\n[1.0]\n[0.0]]"] ;
302 -> 304 ;
305 [label="free sulfur dioxide <= 30.5\nmse = 0.1\nsamples = 13\nvalue = [[0.0]\n[0.6]\n[0.4]\n[0.0]\n[0.0]]"] ;
285 -> 305 ;
306 [label="mse = 0.0\nsamples = 6\nvalue = [[0.0]\n[0.0]\n[1.0]\n[0.0]\n[0.0]]"] ;
305 -> 306 ;
307 [label="mse = 0.0\nsamples = 7\nvalue = [[0.0]\n[1.0]\n[0.0]\n[0.0]\n[0.0]]"] ;
305 -> 307 ;
308 [label="total sulfur dioxide <= 198.5\nmse = 0.1\nsamples = 101\nvalue = [[0.0]\n[0.5]\n[0.4]\n[0.1]\n[0.0]]"] ;
262 -> 308 ;
309 [label="pH <= 3.1\nmse = 0.1\nsamples = 65\nvalue = [[0.0]\n[0.6]\n[0.3]\n[0.1]\n[0.0]]"] ;
308 -> 309 ;
310 [label="total sulfur dioxide <= 186.5\nmse = 0.1\nsamples = 11\nvalue = [[0.0]\n[0.1]\n[0.5]\n[0.5]\n[0.0]]"] ;
309 -> 310 ;
311 [label="residual sugar <= 10.7\nmse = 0.1\nsamples = 7\nvalue = [[0.0]\n[0.1]\n[0.7]\n[0.2]\n[0.0]]"] ;
310 -> 311 ;
312 [label="alcohol <= 9.3\nmse = 0.1\nsamples = 2\nvalue = [[0.0]\n[0.3]\n[0.0]\n[0.7]\n[0.0]]"] ;
311 -> 312 ;
313 [label="mse = 0.0\nsamples = 1\nvalue = [[0.0]\n[1.0]\n[0.0]\n[0.0]\n[0.0]]"] ;
312 -> 313 ;
314 [label="mse = 0.0\nsamples = 1\nvalue = [[0.0]\n[0.0]\n[0.0]\n[1.0]\n[0.0]]"] ;
312 -> 314 ;
315 [label="mse = 0.0\nsamples = 5\nvalue = [[0.0]\n[0.0]\n[1.0]\n[0.0]\n[0.0]]"] ;
311 -> 315 ;
316 [label="mse = 0.0\nsamples = 4\nvalue = [[0.0]\n[0.0]\n[0.0]\n[1.0]\n[0.0]]"] ;
310 -> 316 ;
317 [label="pH <= 3.4\nmse = 0.1\nsamples = 54\nvalue = [[0.0]\n[0.7]\n[0.2]\n[0.0]\n[0.0]]"] ;
309 -> 317 ;
318 [label="sulphates <= 0.4\nmse = 0.1\nsamples = 48\nvalue = [[0.0]\n[0.8]\n[0.2]\n[0.0]\n[0.0]]"] ;
317 -> 318 ;
319 [label="free sulfur dioxide <= 53.5\nmse = 0.1\nsamples = 6\nvalue = [[0.0]\n[0.3]\n[0.7]\n[0.0]\n[0.0]]"] ;
318 -> 319 ;
320 [label="mse = 0.0\nsamples = 2\nvalue = [[0.0]\n[1.0]\n[0.0]\n[0.0]\n[0.0]]"] ;
319 -> 320 ;
321 [label="mse = 0.0\nsamples = 4\nvalue = [[0.0]\n[0.0]\n[1.0]\n[0.0]\n[0.0]]"] ;
319 -> 321 ;
322 [label="sulphates <= 0.5\nmse = 0.1\nsamples = 42\nvalue = [[0.0]\n[0.8]\n[0.2]\n[0.0]\n[0.0]]"] ;
318 -> 322 ;
323 [label="free sulfur dioxide <= 31.0\nmse = 0.0\nsamples = 23\nvalue = [[0.0]\n[1.0]\n[0.0]\n[0.0]\n[0.0]]"] ;
322 -> 323 ;
324 [label="mse = 0.0\nsamples = 1\nvalue = [[0.0]\n[0.0]\n[1.0]\n[0.0]\n[0.0]]"] ;
323 -> 324 ;
325 [label="mse = 0.0\nsamples = 22\nvalue = [[0.0]\n[1.0]\n[0.0]\n[0.0]\n[0.0]]"] ;
323 -> 325 ;
326 [label="fixed acidity <= 6.5\nmse = 0.1\nsamples = 19\nvalue = [[0.0]\n[0.7]\n[0.3]\n[0.0]\n[0.0]]"] ;
322 -> 326 ;
327 [label="mse = 0.0\nsamples = 2\nvalue = [[0.0]\n[0.0]\n[1.0]\n[0.0]\n[0.0]]"] ;
326 -> 327 ;
328 [label="pH <= 3.2\nmse = 0.1\nsamples = 17\nvalue = [[0.0]\n[0.8]\n[0.2]\n[0.0]\n[0.0]]"] ;
326 -> 328 ;
329 [label="free sulfur dioxide <= 52.5\nmse = 0.1\nsamples = 9\nvalue = [[0.0]\n[0.5]\n[0.5]\n[0.0]\n[0.0]]"] ;
328 -> 329 ;
330 [label="density <= 1.0\nmse = 0.1\nsamples = 5\nvalue = [[0.0]\n[0.2]\n[0.8]\n[0.0]\n[0.0]]"] ;
329 -> 330 ;
331 [label="mse = 0.0\nsamples = 4\nvalue = [[0.0]\n[0.0]\n[1.0]\n[0.0]\n[0.0]]"] ;
330 -> 331 ;
332 [label="mse = 0.0\nsamples = 1\nvalue = [[0.0]\n[1.0]\n[0.0]\n[0.0]\n[0.0]]"] ;
330 -> 332 ;
333 [label="mse = 0.0\nsamples = 4\nvalue = [[0.0]\n[1.0]\n[0.0]\n[0.0]\n[0.0]]"] ;
329 -> 333 ;
334 [label="mse = 0.0\nsamples = 8\nvalue = [[0.0]\n[1.0]\n[0.0]\n[0.0]\n[0.0]]"] ;
328 -> 334 ;
335 [label="alcohol <= 9.9\nmse = 0.1\nsamples = 6\nvalue = [[0.2]\n[0.1]\n[0.3]\n[0.3]\n[0.0]]"] ;
317 -> 335 ;
336 [label="total sulfur dioxide <= 167.5\nmse = 0.1\nsamples = 4\nvalue = [[0.3]\n[0.2]\n[0.5]\n[0.0]\n[0.0]]"] ;
335 -> 336 ;
337 [label="mse = 0.0\nsamples = 1\nvalue = [[1.0]\n[0.0]\n[0.0]\n[0.0]\n[0.0]]"] ;
336 -> 337 ;
338 [label="total sulfur dioxide <= 184.5\nmse = 0.1\nsamples = 3\nvalue = [[0.0]\n[0.2]\n[0.8]\n[0.0]\n[0.0]]"] ;
336 -> 338 ;
339 [label="mse = 0.0\nsamples = 2\nvalue = [[0.0]\n[0.0]\n[1.0]\n[0.0]\n[0.0]]"] ;
338 -> 339 ;
340 [label="mse = 0.0\nsamples = 1\nvalue = [[0.0]\n[1.0]\n[0.0]\n[0.0]\n[0.0]]"] ;
338 -> 340 ;
341 [label="mse = 0.0\nsamples = 2\nvalue = [[0.0]\n[0.0]\n[0.0]\n[1.0]\n[0.0]]"] ;
335 -> 341 ;
342 [label="sulphates <= 0.4\nmse = 0.1\nsamples = 36\nvalue = [[0.1]\n[0.3]\n[0.6]\n[0.0]\n[0.0]]"] ;
308 -> 342 ;
343 [label="mse = 0.0\nsamples = 3\nvalue = [[0.0]\n[1.0]\n[0.0]\n[0.0]\n[0.0]]"] ;
342 -> 343 ;
344 [label="free sulfur dioxide <= 38.5\nmse = 0.1\nsamples = 33\nvalue = [[0.1]\n[0.2]\n[0.7]\n[0.0]\n[0.0]]"] ;
342 -> 344 ;
345 [label="chlorides <= 0.1\nmse = 0.1\nsamples = 6\nvalue = [[0.4]\n[0.6]\n[0.0]\n[0.0]\n[0.0]]"] ;
344 -> 345 ;
346 [label="mse = 0.0\nsamples = 2\nvalue = [[1.0]\n[0.0]\n[0.0]\n[0.0]\n[0.0]]"] ;
345 -> 346 ;
347 [label="mse = 0.0\nsamples = 4\nvalue = [[0.0]\n[1.0]\n[0.0]\n[0.0]\n[0.0]]"] ;
345 -> 347 ;
348 [label="pH <= 3.4\nmse = 0.1\nsamples = 27\nvalue = [[0.0]\n[0.2]\n[0.8]\n[0.0]\n[0.0]]"] ;
344 -> 348 ;
349 [label="density <= 1.0\nmse = 0.1\nsamples = 23\nvalue = [[0.0]\n[0.2]\n[0.8]\n[0.0]\n[0.0]]"] ;
348 -> 349 ;
350 [label="mse = 0.0\nsamples = 9\nvalue = [[0.0]\n[0.0]\n[1.0]\n[0.0]\n[0.0]]"] ;
349 -> 350 ;
351 [label="citric acid <= 0.3\nmse = 0.1\nsamples = 14\nvalue = [[0.0]\n[0.4]\n[0.6]\n[0.0]\n[0.0]]"] ;
349 -> 351 ;
352 [label="mse = 0.0\nsamples = 7\nvalue = [[0.0]\n[0.0]\n[1.0]\n[0.0]\n[0.0]]"] ;
351 -> 352 ;
353 [label="residual sugar <= 13.2\nmse = 0.1\nsamples = 7\nvalue = [[0.0]\n[0.8]\n[0.2]\n[0.0]\n[0.0]]"] ;
351 -> 353 ;
354 [label="mse = 0.0\nsamples = 5\nvalue = [[0.0]\n[1.0]\n[0.0]\n[0.0]\n[0.0]]"] ;
353 -> 354 ;
355 [label="mse = 0.0\nsamples = 2\nvalue = [[0.0]\n[0.0]\n[1.0]\n[0.0]\n[0.0]]"] ;
353 -> 355 ;
356 [label="free sulfur dioxide <= 83.2\nmse = 0.1\nsamples = 4\nvalue = [[0.4]\n[0.0]\n[0.2]\n[0.4]\n[0.0]]"] ;
348 -> 356 ;
357 [label="citric acid <= 0.3\nmse = 0.1\nsamples = 2\nvalue = [[0.0]\n[0.0]\n[0.3]\n[0.7]\n[0.0]]"] ;
356 -> 357 ;
358 [label="mse = 0.0\nsamples = 1\nvalue = [[0.0]\n[0.0]\n[1.0]\n[0.0]\n[0.0]]"] ;
357 -> 358 ;
359 [label="mse = 0.0\nsamples = 1\nvalue = [[0.0]\n[0.0]\n[0.0]\n[1.0]\n[0.0]]"] ;
357 -> 359 ;
360 [label="mse = 0.0\nsamples = 2\nvalue = [[1.0]\n[0.0]\n[0.0]\n[0.0]\n[0.0]]"] ;
356 -> 360 ;
361 [label="fixed acidity <= 9.9\nmse = 0.1\nsamples = 1030\nvalue = [[0.1]\n[0.6]\n[0.3]\n[0.0]\n[0.0]]"] ;
1 -> 361 ;
362 [label="volatile acidity <= 0.6\nmse = 0.1\nsamples = 968\nvalue = [[0.1]\n[0.6]\n[0.3]\n[0.0]\n[0.0]]"] ;
361 -> 362 ;
363 [label="total sulfur dioxide <= 61.5\nmse = 0.1\nsamples = 714\nvalue = [[0.0]\n[0.6]\n[0.3]\n[0.0]\n[0.0]]"] ;
362 -> 363 ;
364 [label="sulphates <= 0.6\nmse = 0.1\nsamples = 111\nvalue = [[0.0]\n[0.4]\n[0.5]\n[0.1]\n[0.0]]"] ;
363 -> 364 ;
365 [label="alcohol <= 9.8\nmse = 0.1\nsamples = 42\nvalue = [[0.1]\n[0.6]\n[0.3]\n[0.0]\n[0.0]]"] ;
364 -> 365 ;
366 [label="residual sugar <= 2.5\nmse = 0.1\nsamples = 29\nvalue = [[0.0]\n[0.8]\n[0.2]\n[0.0]\n[0.0]]"] ;
365 -> 366 ;
367 [label="volatile acidity <= 0.4\nmse = 0.0\nsamples = 25\nvalue = [[0.0]\n[0.9]\n[0.1]\n[0.0]\n[0.0]]"] ;
366 -> 367 ;
368 [label="pH <= 3.1\nmse = 0.1\nsamples = 16\nvalue = [[0.0]\n[0.8]\n[0.2]\n[0.0]\n[0.0]]"] ;
367 -> 368 ;
369 [label="mse = 0.0\nsamples = 1\nvalue = [[0.0]\n[0.0]\n[1.0]\n[0.0]\n[0.0]]"] ;
368 -> 369 ;
370 [label="pH <= 3.4\nmse = 0.1\nsamples = 15\nvalue = [[0.0]\n[0.8]\n[0.2]\n[0.0]\n[0.0]]"] ;
368 -> 370 ;
371 [label="free sulfur dioxide <= 24.5\nmse = 0.0\nsamples = 14\nvalue = [[0.0]\n[0.9]\n[0.1]\n[0.0]\n[0.0]]"] ;
370 -> 371 ;
372 [label="chlorides <= 0.1\nmse = 0.0\nsamples = 13\nvalue = [[0.0]\n[0.9]\n[0.1]\n[0.0]\n[0.0]]"] ;
371 -> 372 ;
373 [label="mse = 0.0\nsamples = 10\nvalue = [[0.0]\n[1.0]\n[0.0]\n[0.0]\n[0.0]]"] ;
372 -> 373 ;
374 [label="alcohol <= 9.3\nmse = 0.1\nsamples = 3\nvalue = [[0.0]\n[0.7]\n[0.3]\n[0.0]\n[0.0]]"] ;
372 -> 374 ;
375 [label="mse = 0.0\nsamples = 1\nvalue = [[0.0]\n[0.0]\n[1.0]\n[0.0]\n[0.0]]"] ;
374 -> 375 ;
376 [label="mse = 0.0\nsamples = 2\nvalue = [[0.0]\n[1.0]\n[0.0]\n[0.0]\n[0.0]]"] ;
374 -> 376 ;
377 [label="mse = 0.0\nsamples = 1\nvalue = [[0.0]\n[0.0]\n[1.0]\n[0.0]\n[0.0]]"] ;
371 -> 377 ;
378 [label="mse = 0.0\nsamples = 1\nvalue = [[0.0]\n[0.0]\n[1.0]\n[0.0]\n[0.0]]"] ;
370 -> 378 ;
379 [label="mse = 0.0\nsamples = 9\nvalue = [[0.0]\n[1.0]\n[0.0]\n[0.0]\n[0.0]]"] ;
367 -> 379 ;
380 [label="sulphates <= 0.5\nmse = 0.1\nsamples = 4\nvalue = [[0.0]\n[0.4]\n[0.6]\n[0.0]\n[0.0]]"] ;
366 -> 380 ;
381 [label="mse = 0.0\nsamples = 2\nvalue = [[0.0]\n[0.0]\n[1.0]\n[0.0]\n[0.0]]"] ;
380 -> 381 ;
382 [label="mse = 0.0\nsamples = 2\nvalue = [[0.0]\n[1.0]\n[0.0]\n[0.0]\n[0.0]]"] ;
380 -> 382 ;
383 [label="pH <= 3.4\nmse = 0.1\nsamples = 13\nvalue = [[0.2]\n[0.3]\n[0.5]\n[0.0]\n[0.0]]"] ;
365 -> 383 ;
384 [label="density <= 1.0\nmse = 0.1\nsamples = 11\nvalue = [[0.2]\n[0.1]\n[0.7]\n[0.0]\n[0.0]]"] ;
383 -> 384 ;
385 [label="mse = 0.0\nsamples = 2\nvalue = [[1.0]\n[0.0]\n[0.0]\n[0.0]\n[0.0]]"] ;
384 -> 385 ;
386 [label="total sulfur dioxide <= 40.0\nmse = 0.0\nsamples = 9\nvalue = [[0.0]\n[0.1]\n[0.9]\n[0.0]\n[0.0]]"] ;
384 -> 386 ;
387 [label="mse = 0.0\nsamples = 7\nvalue = [[0.0]\n[0.0]\n[1.0]\n[0.0]\n[0.0]]"] ;
386 -> 387 ;
388 [label="mse = 0.0\nsamples = 2\nvalue = [[0.0]\n[1.0]\n[0.0]\n[0.0]\n[0.0]]"] ;
386 -> 388 ;
389 [label="mse = 0.0\nsamples = 2\nvalue = [[0.0]\n[1.0]\n[0.0]\n[0.0]\n[0.0]]"] ;
383 -> 389 ;
390 [label="volatile acidity <= 0.4\nmse = 0.1\nsamples = 69\nvalue = [[0.0]\n[0.3]\n[0.6]\n[0.1]\n[0.0]]"] ;
364 -> 390 ;
391 [label="total sulfur dioxide <= 14.5\nmse = 0.0\nsamples = 13\nvalue = [[0.0]\n[0.0]\n[0.9]\n[0.0]\n[0.0]]"] ;
390 -> 391 ;
392 [label="mse = 0.0\nsamples = 1\nvalue = [[0.0]\n[0.0]\n[0.0]\n[0.0]\n[1.0]]"] ;
391 -> 392 ;
393 [label="chlorides <= 0.1\nmse = 0.0\nsamples = 12\nvalue = [[0.0]\n[0.0]\n[0.9]\n[0.1]\n[0.0]]"] ;
391 -> 393 ;
394 [label="mse = 0.0\nsamples = 1\nvalue = [[0.0]\n[0.0]\n[0.0]\n[1.0]\n[0.0]]"] ;
393 -> 394 ;
395 [label="mse = 0.0\nsamples = 11\nvalue = [[0.0]\n[0.0]\n[1.0]\n[0.0]\n[0.0]]"] ;
393 -> 395 ;
396 [label="citric acid <= 0.2\nmse = 0.1\nsamples = 56\nvalue = [[0.0]\n[0.4]\n[0.6]\n[0.1]\n[0.0]]"] ;
390 -> 396 ;
397 [label="chlorides <= 0.1\nmse = 0.1\nsamples = 29\nvalue = [[0.0]\n[0.2]\n[0.8]\n[0.0]\n[0.0]]"] ;
396 -> 397 ;
398 [label="sulphates <= 0.6\nmse = 0.1\nsamples = 26\nvalue = [[0.0]\n[0.1]\n[0.9]\n[0.0]\n[0.0]]"] ;
397 -> 398 ;
399 [label="alcohol <= 9.9\nmse = 0.1\nsamples = 4\nvalue = [[0.0]\n[0.5]\n[0.5]\n[0.0]\n[0.0]]"] ;
398 -> 399 ;
400 [label="total sulfur dioxide <= 23.0\nmse = 0.1\nsamples = 3\nvalue = [[0.0]\n[0.2]\n[0.8]\n[0.0]\n[0.0]]"] ;
399 -> 400 ;
401 [label="mse = 0.0\nsamples = 1\nvalue = [[0.0]\n[1.0]\n[0.0]\n[0.0]\n[0.0]]"] ;
400 -> 401 ;
402 [label="mse = 0.0\nsamples = 2\nvalue = [[0.0]\n[0.0]\n[1.0]\n[0.0]\n[0.0]]"] ;
400 -> 402 ;
403 [label="mse = 0.0\nsamples = 1\nvalue = [[0.0]\n[1.0]\n[0.0]\n[0.0]\n[0.0]]"] ;
399 -> 403 ;
404 [label="fixed acidity <= 6.1\nmse = 0.0\nsamples = 22\nvalue = [[0.0]\n[0.1]\n[0.9]\n[0.0]\n[0.0]]"] ;
398 -> 404 ;
405 [label="chlorides <= 0.1\nmse = 0.1\nsamples = 2\nvalue = [[0.0]\n[0.0]\n[0.7]\n[0.3]\n[0.0]]"] ;
404 -> 405 ;
406 [label="mse = 0.0\nsamples = 1\nvalue = [[0.0]\n[0.0]\n[0.0]\n[1.0]\n[0.0]]"] ;
405 -> 406 ;
407 [label="mse = 0.0\nsamples = 1\nvalue = [[0.0]\n[0.0]\n[1.0]\n[0.0]\n[0.0]]"] ;
405 -> 407 ;
408 [label="pH <= 3.6\nmse = 0.0\nsamples = 20\nvalue = [[0.0]\n[0.1]\n[0.9]\n[0.0]\n[0.0]]"] ;
404 -> 408 ;
409 [label="residual sugar <= 1.6\nmse = 0.0\nsamples = 17\nvalue = [[0.0]\n[0.0]\n[1.0]\n[0.0]\n[0.0]]"] ;
408 -> 409 ;
410 [label="chlorides <= 0.1\nmse = 0.1\nsamples = 3\nvalue = [[0.0]\n[0.2]\n[0.8]\n[0.0]\n[0.0]]"] ;
409 -> 410 ;
411 [label="mse = 0.0\nsamples = 2\nvalue = [[0.0]\n[0.0]\n[1.0]\n[0.0]\n[0.0]]"] ;
410 -> 411 ;
412 [label="mse = 0.0\nsamples = 1\nvalue = [[0.0]\n[1.0]\n[0.0]\n[0.0]\n[0.0]]"] ;
410 -> 412 ;
413 [label="mse = 0.0\nsamples = 14\nvalue = [[0.0]\n[0.0]\n[1.0]\n[0.0]\n[0.0]]"] ;
409 -> 413 ;
414 [label="chlorides <= 0.1\nmse = 0.1\nsamples = 3\nvalue = [[0.0]\n[0.3]\n[0.7]\n[0.0]\n[0.0]]"] ;
408 -> 414 ;
415 [label="mse = 0.0\nsamples = 1\nvalue = [[0.0]\n[1.0]\n[0.0]\n[0.0]\n[0.0]]"] ;
414 -> 415 ;
416 [label="mse = 0.0\nsamples = 2\nvalue = [[0.0]\n[0.0]\n[1.0]\n[0.0]\n[0.0]]"] ;
414 -> 416 ;
417 [label="mse = 0.0\nsamples = 3\nvalue = [[0.0]\n[1.0]\n[0.0]\n[0.0]\n[0.0]]"] ;
397 -> 417 ;
418 [label="fixed acidity <= 7.8\nmse = 0.1\nsamples = 27\nvalue = [[0.0]\n[0.5]\n[0.3]\n[0.2]\n[0.0]]"] ;
396 -> 418 ;
419 [label="alcohol <= 9.9\nmse = 0.1\nsamples = 8\nvalue = [[0.0]\n[0.8]\n[0.0]\n[0.2]\n[0.0]]"] ;
418 -> 419 ;
420 [label="mse = 0.0\nsamples = 7\nvalue = [[0.0]\n[1.0]\n[0.0]\n[0.0]\n[0.0]]"] ;
419 -> 420 ;
421 [label="mse = 0.0\nsamples = 1\nvalue = [[0.0]\n[0.0]\n[0.0]\n[1.0]\n[0.0]]"] ;
419 -> 421 ;
422 [label="fixed acidity <= 9.1\nmse = 0.1\nsamples = 19\nvalue = [[0.0]\n[0.3]\n[0.6]\n[0.1]\n[0.0]]"] ;
418 -> 422 ;
423 [label="volatile acidity <= 0.4\nmse = 0.1\nsamples = 13\nvalue = [[0.0]\n[0.1]\n[0.8]\n[0.1]\n[0.0]]"] ;
422 -> 423 ;
424 [label="alcohol <= 9.4\nmse = 0.1\nsamples = 2\nvalue = [[0.0]\n[0.3]\n[0.0]\n[0.7]\n[0.0]]"] ;
423 -> 424 ;
425 [label="mse = 0.0\nsamples = 1\nvalue = [[0.0]\n[1.0]\n[0.0]\n[0.0]\n[0.0]]"] ;
424 -> 425 ;
426 [label="mse = 0.0\nsamples = 1\nvalue = [[0.0]\n[0.0]\n[0.0]\n[1.0]\n[0.0]]"] ;
424 -> 426 ;
427 [label="residual sugar <= 2.7\nmse = 0.0\nsamples = 11\nvalue = [[0.0]\n[0.1]\n[0.9]\n[0.0]\n[0.0]]"] ;
423 -> 427 ;
428 [label="mse = 0.0\nsamples = 10\nvalue = [[0.0]\n[0.0]\n[1.0]\n[0.0]\n[0.0]]"] ;
427 -> 428 ;
429 [label="mse = 0.0\nsamples = 1\nvalue = [[0.0]\n[1.0]\n[0.0]\n[0.0]\n[0.0]]"] ;
427 -> 429 ;
430 [label="alcohol <= 9.7\nmse = 0.1\nsamples = 6\nvalue = [[0.0]\n[0.8]\n[0.0]\n[0.2]\n[0.0]]"] ;
422 -> 430 ;
431 [label="mse = 0.0\nsamples = 4\nvalue = [[0.0]\n[1.0]\n[0.0]\n[0.0]\n[0.0]]"] ;
430 -> 431 ;
432 [label="mse = 0.0\nsamples = 2\nvalue = [[0.0]\n[0.0]\n[0.0]\n[1.0]\n[0.0]]"] ;
430 -> 432 ;
433 [label="chlorides <= 0.0\nmse = 0.1\nsamples = 603\nvalue = [[0.0]\n[0.6]\n[0.3]\n[0.0]\n[0.0]]"] ;
363 -> 433 ;
434 [label="alcohol <= 10.2\nmse = 0.1\nsamples = 97\nvalue = [[0.0]\n[0.4]\n[0.5]\n[0.1]\n[0.0]]"] ;
433 -> 434 ;
435 [label="pH <= 3.1\nmse = 0.1\nsamples = 92\nvalue = [[0.0]\n[0.4]\n[0.5]\n[0.1]\n[0.0]]"] ;
434 -> 435 ;
436 [label="residual sugar <= 8.9\nmse = 0.1\nsamples = 25\nvalue = [[0.0]\n[0.7]\n[0.3]\n[0.0]\n[0.0]]"] ;
435 -> 436 ;
437 [label="free sulfur dioxide <= 17.5\nmse = 0.1\nsamples = 7\nvalue = [[0.0]\n[0.2]\n[0.8]\n[0.0]\n[0.0]]"] ;
436 -> 437 ;
438 [label="mse = 0.0\nsamples = 2\nvalue = [[0.0]\n[1.0]\n[0.0]\n[0.0]\n[0.0]]"] ;
437 -> 438 ;
439 [label="mse = 0.0\nsamples = 5\nvalue = [[0.0]\n[0.0]\n[1.0]\n[0.0]\n[0.0]]"] ;
437 -> 439 ;
440 [label="density <= 1.0\nmse = 0.0\nsamples = 18\nvalue = [[0.0]\n[0.9]\n[0.1]\n[0.0]\n[0.0]]"] ;
436 -> 440 ;
441 [label="mse = 0.0\nsamples = 1\nvalue = [[1.0]\n[0.0]\n[0.0]\n[0.0]\n[0.0]]"] ;
440 -> 441 ;
442 [label="chlorides <= 0.0\nmse = 0.0\nsamples = 17\nvalue = [[0.0]\n[0.9]\n[0.1]\n[0.0]\n[0.0]]"] ;
440 -> 442 ;
443 [label="mse = 0.0\nsamples = 1\nvalue = [[0.0]\n[0.0]\n[1.0]\n[0.0]\n[0.0]]"] ;
442 -> 443 ;
444 [label="density <= 1.0\nmse = 0.0\nsamples = 16\nvalue = [[0.0]\n[1.0]\n[0.0]\n[0.0]\n[0.0]]"] ;
442 -> 444 ;
445 [label="pH <= 3.0\nmse = 0.1\nsamples = 2\nvalue = [[0.0]\n[0.7]\n[0.3]\n[0.0]\n[0.0]]"] ;
444 -> 445 ;
446 [label="mse = 0.0\nsamples = 1\nvalue = [[0.0]\n[1.0]\n[0.0]\n[0.0]\n[0.0]]"] ;
445 -> 446 ;
447 [label="mse = 0.0\nsamples = 1\nvalue = [[0.0]\n[0.0]\n[1.0]\n[0.0]\n[0.0]]"] ;
445 -> 447 ;
448 [label="mse = 0.0\nsamples = 14\nvalue = [[0.0]\n[1.0]\n[0.0]\n[0.0]\n[0.0]]"] ;
444 -> 448 ;
449 [label="fixed acidity <= 7.1\nmse = 0.1\nsamples = 67\nvalue = [[0.0]\n[0.3]\n[0.6]\n[0.1]\n[0.0]]"] ;
435 -> 449 ;
450 [label="pH <= 3.4\nmse = 0.1\nsamples = 52\nvalue = [[0.0]\n[0.4]\n[0.5]\n[0.1]\n[0.0]]"] ;
449 -> 450 ;
451 [label="total sulfur dioxide <= 199.0\nmse = 0.1\nsamples = 46\nvalue = [[0.1]\n[0.5]\n[0.5]\n[0.0]\n[0.0]]"] ;
450 -> 451 ;
452 [label="free sulfur dioxide <= 35.5\nmse = 0.1\nsamples = 37\nvalue = [[0.0]\n[0.4]\n[0.5]\n[0.0]\n[0.0]]"] ;
451 -> 452 ;
453 [label="alcohol <= 9.9\nmse = 0.1\nsamples = 21\nvalue = [[0.1]\n[0.6]\n[0.4]\n[0.0]\n[0.0]]"] ;
452 -> 453 ;
454 [label="free sulfur dioxide <= 9.5\nmse = 0.1\nsamples = 13\nvalue = [[0.1]\n[0.7]\n[0.2]\n[0.0]\n[0.0]]"] ;
453 -> 454 ;
455 [label="mse = 0.0\nsamples = 1\nvalue = [[1.0]\n[0.0]\n[0.0]\n[0.0]\n[0.0]]"] ;
454 -> 455 ;
456 [label="residual sugar <= 1.4\nmse = 0.1\nsamples = 12\nvalue = [[0.0]\n[0.8]\n[0.2]\n[0.0]\n[0.0]]"] ;
454 -> 456 ;
457 [label="mse = 0.0\nsamples = 1\nvalue = [[0.0]\n[0.0]\n[1.0]\n[0.0]\n[0.0]]"] ;
456 -> 457 ;
458 [label="volatile acidity <= 0.4\nmse = 0.0\nsamples = 11\nvalue = [[0.0]\n[0.9]\n[0.1]\n[0.0]\n[0.0]]"] ;
456 -> 458 ;
459 [label="volatile acidity <= 0.3\nmse = 0.0\nsamples = 10\nvalue = [[0.0]\n[0.9]\n[0.1]\n[0.0]\n[0.0]]"] ;
458 -> 459 ;
460 [label="density <= 1.0\nmse = 0.1\nsamples = 2\nvalue = [[0.0]\n[0.5]\n[0.5]\n[0.0]\n[0.0]]"] ;
459 -> 460 ;
461 [label="mse = 0.0\nsamples = 1\nvalue = [[0.0]\n[1.0]\n[0.0]\n[0.0]\n[0.0]]"] ;
460 -> 461 ;
462 [label="mse = 0.0\nsamples = 1\nvalue = [[0.0]\n[0.0]\n[1.0]\n[0.0]\n[0.0]]"] ;
460 -> 462 ;
463 [label="mse = 0.0\nsamples = 8\nvalue = [[0.0]\n[1.0]\n[0.0]\n[0.0]\n[0.0]]"] ;
459 -> 463 ;
464 [label="mse = 0.0\nsamples = 1\nvalue = [[0.0]\n[0.0]\n[1.0]\n[0.0]\n[0.0]]"] ;
458 -> 464 ;
465 [label="free sulfur dioxide <= 22.0\nmse = 0.1\nsamples = 8\nvalue = [[0.0]\n[0.2]\n[0.8]\n[0.0]\n[0.0]]"] ;
453 -> 465 ;
466 [label="chlorides <= 0.0\nmse = 0.1\nsamples = 4\nvalue = [[0.0]\n[0.8]\n[0.2]\n[0.0]\n[0.0]]"] ;
465 -> 466 ;
467 [label="mse = 0.0\nsamples = 2\nvalue = [[0.0]\n[1.0]\n[0.0]\n[0.0]\n[0.0]]"] ;
466 -> 467 ;
468 [label="alcohol <= 10.1\nmse = 0.1\nsamples = 2\nvalue = [[0.0]\n[0.5]\n[0.5]\n[0.0]\n[0.0]]"] ;
466 -> 468 ;
469 [label="mse = 0.0\nsamples = 1\nvalue = [[0.0]\n[1.0]\n[0.0]\n[0.0]\n[0.0]]"] ;
468 -> 469 ;
470 [label="mse = 0.0\nsamples = 1\nvalue = [[0.0]\n[0.0]\n[1.0]\n[0.0]\n[0.0]]"] ;
468 -> 470 ;
471 [label="mse = 0.0\nsamples = 4\nvalue = [[0.0]\n[0.0]\n[1.0]\n[0.0]\n[0.0]]"] ;
465 -> 471 ;
472 [label="citric acid <= 0.1\nmse = 0.1\nsamples = 16\nvalue = [[0.0]\n[0.2]\n[0.8]\n[0.0]\n[0.0]]"] ;
452 -> 472 ;
473 [label="mse = 0.0\nsamples = 2\nvalue = [[0.0]\n[1.0]\n[0.0]\n[0.0]\n[0.0]]"] ;
472 -> 473 ;
474 [label="chlorides <= 0.0\nmse = 0.0\nsamples = 14\nvalue = [[0.0]\n[0.1]\n[0.9]\n[0.0]\n[0.0]]"] ;
472 -> 474 ;
475 [label="free sulfur dioxide <= 55.0\nmse = 0.1\nsamples = 2\nvalue = [[0.0]\n[0.5]\n[0.0]\n[0.5]\n[0.0]]"] ;
474 -> 475 ;
476 [label="mse = 0.0\nsamples = 1\nvalue = [[0.0]\n[1.0]\n[0.0]\n[0.0]\n[0.0]]"] ;
475 -> 476 ;
477 [label="mse = 0.0\nsamples = 1\nvalue = [[0.0]\n[0.0]\n[0.0]\n[1.0]\n[0.0]]"] ;
475 -> 477 ;
478 [label="total sulfur dioxide <= 191.0\nmse = 0.0\nsamples = 12\nvalue = [[0.0]\n[0.0]\n[1.0]\n[0.0]\n[0.0]]"] ;
474 -> 478 ;
479 [label="mse = 0.0\nsamples = 10\nvalue = [[0.0]\n[0.0]\n[1.0]\n[0.0]\n[0.0]]"] ;
478 -> 479 ;
480 [label="citric acid <= 0.2\nmse = 0.1\nsamples = 2\nvalue = [[0.0]\n[0.2]\n[0.8]\n[0.0]\n[0.0]]"] ;
478 -> 480 ;
481 [label="mse = 0.0\nsamples = 1\nvalue = [[0.0]\n[0.0]\n[1.0]\n[0.0]\n[0.0]]"] ;
480 -> 481 ;
482 [label="mse = 0.0\nsamples = 1\nvalue = [[0.0]\n[1.0]\n[0.0]\n[0.0]\n[0.0]]"] ;
480 -> 482 ;
483 [label="chlorides <= 0.0\nmse = 0.1\nsamples = 9\nvalue = [[0.1]\n[0.8]\n[0.1]\n[0.0]\n[0.0]]"] ;
451 -> 483 ;
484 [label="mse = 0.0\nsamples = 1\nvalue = [[0.0]\n[0.0]\n[1.0]\n[0.0]\n[0.0]]"] ;
483 -> 484 ;
485 [label="free sulfur dioxide <= 91.8\nmse = 0.0\nsamples = 8\nvalue = [[0.1]\n[0.9]\n[0.0]\n[0.0]\n[0.0]]"] ;
483 -> 485 ;
486 [label="mse = 0.0\nsamples = 7\nvalue = [[0.0]\n[1.0]\n[0.0]\n[0.0]\n[0.0]]"] ;
485 -> 486 ;
487 [label="mse = 0.0\nsamples = 1\nvalue = [[1.0]\n[0.0]\n[0.0]\n[0.0]\n[0.0]]"] ;
485 -> 487 ;
488 [label="volatile acidity <= 0.3\nmse = 0.1\nsamples = 6\nvalue = [[0.0]\n[0.0]\n[0.5]\n[0.5]\n[0.0]]"] ;
450 -> 488 ;
489 [label="mse = 0.0\nsamples = 2\nvalue = [[0.0]\n[0.0]\n[0.0]\n[1.0]\n[0.0]]"] ;
488 -> 489 ;
490 [label="total sulfur dioxide <= 106.5\nmse = 0.1\nsamples = 4\nvalue = [[0.0]\n[0.0]\n[0.8]\n[0.2]\n[0.0]]"] ;
488 -> 490 ;
491 [label="mse = 0.0\nsamples = 1\nvalue = [[0.0]\n[0.0]\n[0.0]\n[1.0]\n[0.0]]"] ;
490 -> 491 ;
492 [label="mse = 0.0\nsamples = 3\nvalue = [[0.0]\n[0.0]\n[1.0]\n[0.0]\n[0.0]]"] ;
490 -> 492 ;
493 [label="pH <= 3.3\nmse = 0.1\nsamples = 15\nvalue = [[0.0]\n[0.1]\n[0.9]\n[0.0]\n[0.0]]"] ;
449 -> 493 ;
494 [label="density <= 1.0\nmse = 0.0\nsamples = 14\nvalue = [[0.0]\n[0.0]\n[1.0]\n[0.0]\n[0.0]]"] ;
493 -> 494 ;
495 [label="mse = 0.0\nsamples = 13\nvalue = [[0.0]\n[0.0]\n[1.0]\n[0.0]\n[0.0]]"] ;
494 -> 495 ;
496 [label="mse = 0.0\nsamples = 1\nvalue = [[0.0]\n[0.0]\n[0.0]\n[1.0]\n[0.0]]"] ;
494 -> 496 ;
497 [label="mse = 0.0\nsamples = 1\nvalue = [[0.0]\n[1.0]\n[0.0]\n[0.0]\n[0.0]]"] ;
493 -> 497 ;
498 [label="citric acid <= 0.3\nmse = 0.1\nsamples = 5\nvalue = [[0.0]\n[0.1]\n[0.1]\n[0.8]\n[0.0]]"] ;
434 -> 498 ;
499 [label="mse = 0.0\nsamples = 3\nvalue = [[0.0]\n[0.0]\n[0.0]\n[1.0]\n[0.0]]"] ;
498 -> 499 ;
500 [label="pH <= 3.2\nmse = 0.1\nsamples = 2\nvalue = [[0.0]\n[0.5]\n[0.5]\n[0.0]\n[0.0]]"] ;
498 -> 500 ;
501 [label="mse = 0.0\nsamples = 1\nvalue = [[0.0]\n[1.0]\n[0.0]\n[0.0]\n[0.0]]"] ;
500 -> 501 ;
502 [label="mse = 0.0\nsamples = 1\nvalue = [[0.0]\n[0.0]\n[1.0]\n[0.0]\n[0.0]]"] ;
500 -> 502 ;
503 [label="fixed acidity <= 8.8\nmse = 0.1\nsamples = 506\nvalue = [[0.0]\n[0.7]\n[0.3]\n[0.0]\n[0.0]]"] ;
433 -> 503 ;
504 [label="alcohol <= 9.4\nmse = 0.1\nsamples = 481\nvalue = [[0.0]\n[0.7]\n[0.3]\n[0.0]\n[0.0]]"] ;
503 -> 504 ;
505 [label="total sulfur dioxide <= 109.0\nmse = 0.1\nsamples = 276\nvalue = [[0.0]\n[0.7]\n[0.2]\n[0.0]\n[0.0]]"] ;
504 -> 505 ;
506 [label="residual sugar <= 8.0\nmse = 0.0\nsamples = 28\nvalue = [[0.0]\n[1.0]\n[0.0]\n[0.0]\n[0.0]]"] ;
505 -> 506 ;
507 [label="mse = 0.0\nsamples = 25\nvalue = [[0.0]\n[1.0]\n[0.0]\n[0.0]\n[0.0]]"] ;
506 -> 507 ;
508 [label="chlorides <= 0.1\nmse = 0.1\nsamples = 3\nvalue = [[0.0]\n[0.7]\n[0.3]\n[0.0]\n[0.0]]"] ;
506 -> 508 ;
509 [label="mse = 0.0\nsamples = 2\nvalue = [[0.0]\n[1.0]\n[0.0]\n[0.0]\n[0.0]]"] ;
508 -> 509 ;
510 [label="mse = 0.0\nsamples = 1\nvalue = [[0.0]\n[0.0]\n[1.0]\n[0.0]\n[0.0]]"] ;
508 -> 510 ;
511 [label="residual sugar <= 4.5\nmse = 0.1\nsamples = 248\nvalue = [[0.0]\n[0.7]\n[0.2]\n[0.0]\n[0.0]]"] ;
505 -> 511 ;
512 [label="pH <= 3.3\nmse = 0.1\nsamples = 42\nvalue = [[0.1]\n[0.4]\n[0.5]\n[0.0]\n[0.0]]"] ;
511 -> 512 ;
513 [label="total sulfur dioxide <= 180.5\nmse = 0.1\nsamples = 35\nvalue = [[0.1]\n[0.3]\n[0.6]\n[0.0]\n[0.0]]"] ;
512 -> 513 ;
514 [label="free sulfur dioxide <= 14.5\nmse = 0.1\nsamples = 29\nvalue = [[0.1]\n[0.2]\n[0.7]\n[0.0]\n[0.0]]"] ;
513 -> 514 ;
515 [label="density <= 1.0\nmse = 0.1\nsamples = 5\nvalue = [[0.6]\n[0.4]\n[0.0]\n[0.0]\n[0.0]]"] ;
514 -> 515 ;
516 [label="mse = 0.0\nsamples = 3\nvalue = [[0.0]\n[1.0]\n[0.0]\n[0.0]\n[0.0]]"] ;
515 -> 516 ;
517 [label="mse = 0.0\nsamples = 2\nvalue = [[1.0]\n[0.0]\n[0.0]\n[0.0]\n[0.0]]"] ;
515 -> 517 ;
518 [label="sulphates <= 0.4\nmse = 0.1\nsamples = 24\nvalue = [[0.1]\n[0.2]\n[0.8]\n[0.0]\n[0.0]]"] ;
514 -> 518 ;
519 [label="mse = 0.0\nsamples = 1\nvalue = [[1.0]\n[0.0]\n[0.0]\n[0.0]\n[0.0]]"] ;
518 -> 519 ;
520 [label="alcohol <= 8.5\nmse = 0.1\nsamples = 23\nvalue = [[0.0]\n[0.2]\n[0.8]\n[0.0]\n[0.0]]"] ;
518 -> 520 ;
521 [label="mse = 0.0\nsamples = 2\nvalue = [[0.0]\n[1.0]\n[0.0]\n[0.0]\n[0.0]]"] ;
520 -> 521 ;
522 [label="fixed acidity <= 7.4\nmse = 0.0\nsamples = 21\nvalue = [[0.0]\n[0.1]\n[0.9]\n[0.0]\n[0.0]]"] ;
520 -> 522 ;
523 [label="free sulfur dioxide <= 16.0\nmse = 0.0\nsamples = 17\nvalue = [[0.0]\n[0.0]\n[1.0]\n[0.0]\n[0.0]]"] ;
522 -> 523 ;
524 [label="mse = 0.0\nsamples = 1\nvalue = [[0.0]\n[1.0]\n[0.0]\n[0.0]\n[0.0]]"] ;
523 -> 524 ;
525 [label="mse = 0.0\nsamples = 16\nvalue = [[0.0]\n[0.0]\n[1.0]\n[0.0]\n[0.0]]"] ;
523 -> 525 ;
526 [label="sulphates <= 0.5\nmse = 0.1\nsamples = 4\nvalue = [[0.0]\n[0.5]\n[0.5]\n[0.0]\n[0.0]]"] ;
522 -> 526 ;
527 [label="mse = 0.0\nsamples = 2\nvalue = [[0.0]\n[0.0]\n[1.0]\n[0.0]\n[0.0]]"] ;
526 -> 527 ;
528 [label="mse = 0.0\nsamples = 2\nvalue = [[0.0]\n[1.0]\n[0.0]\n[0.0]\n[0.0]]"] ;
526 -> 528 ;
529 [label="mse = 0.0\nsamples = 6\nvalue = [[0.0]\n[1.0]\n[0.0]\n[0.0]\n[0.0]]"] ;
513 -> 529 ;
530 [label="mse = 0.0\nsamples = 7\nvalue = [[0.0]\n[1.0]\n[0.0]\n[0.0]\n[0.0]]"] ;
512 -> 530 ;
531 [label="sulphates <= 0.5\nmse = 0.1\nsamples = 206\nvalue = [[0.0]\n[0.8]\n[0.2]\n[0.0]\n[0.0]]"] ;
511 -> 531 ;
532 [label="density <= 1.0\nmse = 0.1\nsamples = 106\nvalue = [[0.0]\n[0.9]\n[0.1]\n[0.0]\n[0.0]]"] ;
531 -> 532 ;
533 [label="alcohol <= 8.7\nmse = 0.0\nsamples = 98\nvalue = [[0.0]\n[0.9]\n[0.1]\n[0.0]\n[0.0]]"] ;
532 -> 533 ;
534 [label="sulphates <= 0.5\nmse = 0.1\nsamples = 6\nvalue = [[0.4]\n[0.4]\n[0.1]\n[0.0]\n[0.0]]"] ;
533 -> 534 ;
535 [label="volatile acidity <= 0.4\nmse = 0.1\nsamples = 4\nvalue = [[0.0]\n[0.8]\n[0.2]\n[0.0]\n[0.0]]"] ;
534 -> 535 ;
536 [label="mse = 0.0\nsamples = 3\nvalue = [[0.0]\n[1.0]\n[0.0]\n[0.0]\n[0.0]]"] ;
535 -> 536 ;
537 [label="mse = 0.0\nsamples = 1\nvalue = [[0.0]\n[0.0]\n[1.0]\n[0.0]\n[0.0]]"] ;
535 -> 537 ;
538 [label="mse = 0.0\nsamples = 2\nvalue = [[1.0]\n[0.0]\n[0.0]\n[0.0]\n[0.0]]"] ;
534 -> 538 ;
539 [label="volatile acidity <= 0.5\nmse = 0.0\nsamples = 92\nvalue = [[0.0]\n[0.9]\n[0.1]\n[0.0]\n[0.0]]"] ;
533 -> 539 ;
540 [label="free sulfur dioxide <= 23.5\nmse = 0.0\nsamples = 91\nvalue = [[0.0]\n[0.9]\n[0.1]\n[0.0]\n[0.0]]"] ;
539 -> 540 ;
541 [label="alcohol <= 9.1\nmse = 0.1\nsamples = 10\nvalue = [[0.0]\n[0.7]\n[0.1]\n[0.1]\n[0.0]]"] ;
540 -> 541 ;
542 [label="citric acid <= 0.4\nmse = 0.1\nsamples = 2\nvalue = [[0.0]\n[0.0]\n[0.5]\n[0.5]\n[0.0]]"] ;
541 -> 542 ;
543 [label="mse = 0.0\nsamples = 1\nvalue = [[0.0]\n[0.0]\n[0.0]\n[1.0]\n[0.0]]"] ;
542 -> 543 ;
544 [label="mse = 0.0\nsamples = 1\nvalue = [[0.0]\n[0.0]\n[1.0]\n[0.0]\n[0.0]]"] ;
542 -> 544 ;
545 [label="mse = 0.0\nsamples = 8\nvalue = [[0.0]\n[1.0]\n[0.0]\n[0.0]\n[0.0]]"] ;
541 -> 545 ;
546 [label="fixed acidity <= 7.2\nmse = 0.0\nsamples = 81\nvalue = [[0.0]\n[0.9]\n[0.1]\n[0.0]\n[0.0]]"] ;
540 -> 546 ;
547 [label="density <= 1.0\nmse = 0.0\nsamples = 66\nvalue = [[0.0]\n[1.0]\n[0.0]\n[0.0]\n[0.0]]"] ;
546 -> 547 ;
548 [label="chlorides <= 0.0\nmse = 0.0\nsamples = 64\nvalue = [[0.0]\n[1.0]\n[0.0]\n[0.0]\n[0.0]]"] ;
547 -> 548 ;
549 [label="density <= 1.0\nmse = 0.0\nsamples = 7\nvalue = [[0.0]\n[0.9]\n[0.1]\n[0.0]\n[0.0]]"] ;
548 -> 549 ;
550 [label="mse = 0.0\nsamples = 1\nvalue = [[0.0]\n[0.0]\n[1.0]\n[0.0]\n[0.0]]"] ;
549 -> 550 ;
551 [label="mse = 0.0\nsamples = 6\nvalue = [[0.0]\n[1.0]\n[0.0]\n[0.0]\n[0.0]]"] ;
549 -> 551 ;
552 [label="residual sugar <= 6.7\nmse = 0.0\nsamples = 57\nvalue = [[0.0]\n[1.0]\n[0.0]\n[0.0]\n[0.0]]"] ;
548 -> 552 ;
553 [label="citric acid <= 0.3\nmse = 0.0\nsamples = 6\nvalue = [[0.0]\n[0.9]\n[0.1]\n[0.0]\n[0.0]]"] ;
552 -> 553 ;
554 [label="mse = 0.0\nsamples = 5\nvalue = [[0.0]\n[1.0]\n[0.0]\n[0.0]\n[0.0]]"] ;
553 -> 554 ;
555 [label="mse = 0.0\nsamples = 1\nvalue = [[0.0]\n[0.0]\n[1.0]\n[0.0]\n[0.0]]"] ;
553 -> 555 ;
556 [label="mse = 0.0\nsamples = 51\nvalue = [[0.0]\n[1.0]\n[0.0]\n[0.0]\n[0.0]]"] ;
552 -> 556 ;
557 [label="fixed acidity <= 6.0\nmse = 0.1\nsamples = 2\nvalue = [[0.5]\n[0.5]\n[0.0]\n[0.0]\n[0.0]]"] ;
547 -> 557 ;
558 [label="mse = 0.0\nsamples = 1\nvalue = [[0.0]\n[1.0]\n[0.0]\n[0.0]\n[0.0]]"] ;
557 -> 558 ;
559 [label="mse = 0.0\nsamples = 1\nvalue = [[1.0]\n[0.0]\n[0.0]\n[0.0]\n[0.0]]"] ;
557 -> 559 ;
560 [label="citric acid <= 0.2\nmse = 0.1\nsamples = 15\nvalue = [[0.0]\n[0.8]\n[0.2]\n[0.0]\n[0.0]]"] ;
546 -> 560 ;
561 [label="density <= 1.0\nmse = 0.1\nsamples = 2\nvalue = [[0.0]\n[0.2]\n[0.8]\n[0.0]\n[0.0]]"] ;
560 -> 561 ;
562 [label="mse = 0.0\nsamples = 1\nvalue = [[0.0]\n[0.0]\n[1.0]\n[0.0]\n[0.0]]"] ;
561 -> 562 ;
563 [label="mse = 0.0\nsamples = 1\nvalue = [[0.0]\n[1.0]\n[0.0]\n[0.0]\n[0.0]]"] ;
561 -> 563 ;
564 [label="chlorides <= 0.0\nmse = 0.0\nsamples = 13\nvalue = [[0.0]\n[1.0]\n[0.0]\n[0.0]\n[0.0]]"] ;
560 -> 564 ;
565 [label="mse = 0.0\nsamples = 1\nvalue = [[0.0]\n[0.0]\n[1.0]\n[0.0]\n[0.0]]"] ;
564 -> 565 ;
566 [label="mse = 0.0\nsamples = 12\nvalue = [[0.0]\n[1.0]\n[0.0]\n[0.0]\n[0.0]]"] ;
564 -> 566 ;
567 [label="mse = 0.0\nsamples = 1\nvalue = [[1.0]\n[0.0]\n[0.0]\n[0.0]\n[0.0]]"] ;
539 -> 567 ;
568 [label="pH <= 3.1\nmse = 0.1\nsamples = 8\nvalue = [[0.0]\n[0.5]\n[0.5]\n[0.0]\n[0.0]]"] ;
532 -> 568 ;
569 [label="mse = 0.0\nsamples = 4\nvalue = [[0.0]\n[1.0]\n[0.0]\n[0.0]\n[0.0]]"] ;
568 -> 569 ;
570 [label="mse = 0.0\nsamples = 4\nvalue = [[0.0]\n[0.0]\n[1.0]\n[0.0]\n[0.0]]"] ;
568 -> 570 ;
571 [label="free sulfur dioxide <= 56.0\nmse = 0.1\nsamples = 100\nvalue = [[0.0]\n[0.7]\n[0.3]\n[0.0]\n[0.0]]"] ;
531 -> 571 ;
572 [label="free sulfur dioxide <= 49.5\nmse = 0.1\nsamples = 81\nvalue = [[0.0]\n[0.6]\n[0.3]\n[0.0]\n[0.0]]"] ;
571 -> 572 ;
573 [label="pH <= 3.0\nmse = 0.1\nsamples = 71\nvalue = [[0.0]\n[0.7]\n[0.3]\n[0.0]\n[0.0]]"] ;
572 -> 573 ;
574 [label="mse = 0.0\nsamples = 10\nvalue = [[0.0]\n[1.0]\n[0.0]\n[0.0]\n[0.0]]"] ;
573 -> 574 ;
575 [label="alcohol <= 8.9\nmse = 0.1\nsamples = 61\nvalue = [[0.0]\n[0.6]\n[0.4]\n[0.0]\n[0.0]]"] ;
573 -> 575 ;
576 [label="total sulfur dioxide <= 180.5\nmse = 0.1\nsamples = 13\nvalue = [[0.0]\n[0.2]\n[0.7]\n[0.1]\n[0.0]]"] ;
575 -> 576 ;
577 [label="chlorides <= 0.1\nmse = 0.0\nsamples = 11\nvalue = [[0.0]\n[0.1]\n[0.9]\n[0.0]\n[0.0]]"] ;
576 -> 577 ;
578 [label="mse = 0.0\nsamples = 7\nvalue = [[0.0]\n[0.0]\n[1.0]\n[0.0]\n[0.0]]"] ;
577 -> 578 ;
579 [label="total sulfur dioxide <= 159.5\nmse = 0.1\nsamples = 4\nvalue = [[0.0]\n[0.4]\n[0.6]\n[0.0]\n[0.0]]"] ;
577 -> 579 ;
580 [label="mse = 0.0\nsamples = 2\nvalue = [[0.0]\n[0.0]\n[1.0]\n[0.0]\n[0.0]]"] ;
579 -> 580 ;
581 [label="mse = 0.0\nsamples = 2\nvalue = [[0.0]\n[1.0]\n[0.0]\n[0.0]\n[0.0]]"] ;
579 -> 581 ;
582 [label="residual sugar <= 12.4\nmse = 0.1\nsamples = 2\nvalue = [[0.0]\n[0.7]\n[0.0]\n[0.3]\n[0.0]]"] ;
576 -> 582 ;
583 [label="mse = 0.0\nsamples = 1\nvalue = [[0.0]\n[1.0]\n[0.0]\n[0.0]\n[0.0]]"] ;
582 -> 583 ;
584 [label="mse = 0.0\nsamples = 1\nvalue = [[0.0]\n[0.0]\n[0.0]\n[1.0]\n[0.0]]"] ;
582 -> 584 ;
585 [label="total sulfur dioxide <= 224.5\nmse = 0.1\nsamples = 48\nvalue = [[0.0]\n[0.7]\n[0.3]\n[0.0]\n[0.0]]"] ;
575 -> 585 ;
586 [label="fixed acidity <= 7.9\nmse = 0.1\nsamples = 45\nvalue = [[0.0]\n[0.7]\n[0.2]\n[0.0]\n[0.0]]"] ;
585 -> 586 ;
587 [label="residual sugar <= 14.2\nmse = 0.1\nsamples = 43\nvalue = [[0.0]\n[0.8]\n[0.2]\n[0.0]\n[0.0]]"] ;
586 -> 587 ;
588 [label="volatile acidity <= 0.4\nmse = 0.1\nsamples = 26\nvalue = [[0.0]\n[0.6]\n[0.3]\n[0.0]\n[0.0]]"] ;
587 -> 588 ;
589 [label="chlorides <= 0.1\nmse = 0.1\nsamples = 17\nvalue = [[0.0]\n[0.4]\n[0.5]\n[0.0]\n[0.0]]"] ;
588 -> 589 ;
590 [label="total sulfur dioxide <= 152.5\nmse = 0.1\nsamples = 8\nvalue = [[0.0]\n[0.2]\n[0.8]\n[0.0]\n[0.0]]"] ;
589 -> 590 ;
591 [label="volatile acidity <= 0.3\nmse = 0.1\nsamples = 3\nvalue = [[0.0]\n[0.7]\n[0.3]\n[0.0]\n[0.0]]"] ;
590 -> 591 ;
592 [label="mse = 0.0\nsamples = 1\nvalue = [[0.0]\n[0.0]\n[1.0]\n[0.0]\n[0.0]]"] ;
591 -> 592 ;
593 [label="mse = 0.0\nsamples = 2\nvalue = [[0.0]\n[1.0]\n[0.0]\n[0.0]\n[0.0]]"] ;
591 -> 593 ;
594 [label="mse = 0.0\nsamples = 5\nvalue = [[0.0]\n[0.0]\n[1.0]\n[0.0]\n[0.0]]"] ;
590 -> 594 ;
595 [label="chlorides <= 0.1\nmse = 0.1\nsamples = 9\nvalue = [[0.1]\n[0.8]\n[0.2]\n[0.0]\n[0.0]]"] ;
589 -> 595 ;
596 [label="mse = 0.0\nsamples = 6\nvalue = [[0.0]\n[1.0]\n[0.0]\n[0.0]\n[0.0]]"] ;
595 -> 596 ;
597 [label="pH <= 3.4\nmse = 0.1\nsamples = 3\nvalue = [[0.3]\n[0.0]\n[0.7]\n[0.0]\n[0.0]]"] ;
595 -> 597 ;
598 [label="mse = 0.0\nsamples = 2\nvalue = [[0.0]\n[0.0]\n[1.0]\n[0.0]\n[0.0]]"] ;
597 -> 598 ;
599 [label="mse = 0.0\nsamples = 1\nvalue = [[1.0]\n[0.0]\n[0.0]\n[0.0]\n[0.0]]"] ;
597 -> 599 ;
600 [label="mse = 0.0\nsamples = 9\nvalue = [[0.0]\n[1.0]\n[0.0]\n[0.0]\n[0.0]]"] ;
588 -> 600 ;
601 [label="alcohol <= 9.2\nmse = 0.0\nsamples = 17\nvalue = [[0.0]\n[1.0]\n[0.0]\n[0.0]\n[0.0]]"] ;
587 -> 601 ;
602 [label="mse = 0.0\nsamples = 16\nvalue = [[0.0]\n[1.0]\n[0.0]\n[0.0]\n[0.0]]"] ;
601 -> 602 ;
603 [label="mse = 0.0\nsamples = 1\nvalue = [[0.0]\n[0.0]\n[1.0]\n[0.0]\n[0.0]]"] ;
601 -> 603 ;
604 [label="residual sugar <= 12.7\nmse = 0.1\nsamples = 2\nvalue = [[0.7]\n[0.0]\n[0.3]\n[0.0]\n[0.0]]"] ;
586 -> 604 ;
605 [label="mse = 0.0\nsamples = 1\nvalue = [[0.0]\n[0.0]\n[1.0]\n[0.0]\n[0.0]]"] ;
604 -> 605 ;
606 [label="mse = 0.0\nsamples = 1\nvalue = [[1.0]\n[0.0]\n[0.0]\n[0.0]\n[0.0]]"] ;
604 -> 606 ;
607 [label="mse = 0.0\nsamples = 3\nvalue = [[0.0]\n[0.0]\n[1.0]\n[0.0]\n[0.0]]"] ;
585 -> 607 ;
608 [label="sulphates <= 0.5\nmse = 0.1\nsamples = 10\nvalue = [[0.1]\n[0.2]\n[0.7]\n[0.0]\n[0.0]]"] ;
572 -> 608 ;
609 [label="volatile acidity <= 0.3\nmse = 0.1\nsamples = 3\nvalue = [[0.2]\n[0.8]\n[0.0]\n[0.0]\n[0.0]]"] ;
608 -> 609 ;
610 [label="mse = 0.0\nsamples = 1\nvalue = [[1.0]\n[0.0]\n[0.0]\n[0.0]\n[0.0]]"] ;
609 -> 610 ;
611 [label="mse = 0.0\nsamples = 2\nvalue = [[0.0]\n[1.0]\n[0.0]\n[0.0]\n[0.0]]"] ;
609 -> 611 ;
612 [label="sulphates <= 0.6\nmse = 0.0\nsamples = 7\nvalue = [[0.1]\n[0.0]\n[0.9]\n[0.0]\n[0.0]]"] ;
608 -> 612 ;
613 [label="mse = 0.0\nsamples = 6\nvalue = [[0.0]\n[0.0]\n[1.0]\n[0.0]\n[0.0]]"] ;
612 -> 613 ;
614 [label="mse = 0.0\nsamples = 1\nvalue = [[1.0]\n[0.0]\n[0.0]\n[0.0]\n[0.0]]"] ;
612 -> 614 ;
615 [label="volatile acidity <= 0.3\nmse = 0.0\nsamples = 19\nvalue = [[0.0]\n[0.9]\n[0.1]\n[0.0]\n[0.0]]"] ;
571 -> 615 ;
616 [label="mse = 0.0\nsamples = 1\nvalue = [[0.0]\n[0.0]\n[1.0]\n[0.0]\n[0.0]]"] ;
615 -> 616 ;
617 [label="citric acid <= 0.2\nmse = 0.0\nsamples = 18\nvalue = [[0.0]\n[1.0]\n[0.0]\n[0.0]\n[0.0]]"] ;
615 -> 617 ;
618 [label="density <= 1.0\nmse = 0.1\nsamples = 2\nvalue = [[0.0]\n[0.8]\n[0.2]\n[0.0]\n[0.0]]"] ;
617 -> 618 ;
619 [label="mse = 0.0\nsamples = 1\nvalue = [[0.0]\n[1.0]\n[0.0]\n[0.0]\n[0.0]]"] ;
618 -> 619 ;
620 [label="mse = 0.0\nsamples = 1\nvalue = [[0.0]\n[0.0]\n[1.0]\n[0.0]\n[0.0]]"] ;
618 -> 620 ;
621 [label="mse = 0.0\nsamples = 16\nvalue = [[0.0]\n[1.0]\n[0.0]\n[0.0]\n[0.0]]"] ;
617 -> 621 ;
622 [label="density <= 1.0\nmse = 0.1\nsamples = 205\nvalue = [[0.1]\n[0.6]\n[0.3]\n[0.0]\n[0.0]]"] ;
504 -> 622 ;
623 [label="free sulfur dioxide <= 10.0\nmse = 0.1\nsamples = 86\nvalue = [[0.1]\n[0.7]\n[0.2]\n[0.0]\n[0.0]]"] ;
622 -> 623 ;
624 [label="chlorides <= 0.1\nmse = 0.1\nsamples = 5\nvalue = [[0.4]\n[0.0]\n[0.6]\n[0.0]\n[0.0]]"] ;
623 -> 624 ;
625 [label="mse = 0.0\nsamples = 2\nvalue = [[0.0]\n[0.0]\n[1.0]\n[0.0]\n[0.0]]"] ;
624 -> 625 ;
626 [label="mse = 0.0\nsamples = 3\nvalue = [[1.0]\n[0.0]\n[0.0]\n[0.0]\n[0.0]]"] ;
624 -> 626 ;
627 [label="pH <= 3.3\nmse = 0.1\nsamples = 81\nvalue = [[0.1]\n[0.8]\n[0.1]\n[0.0]\n[0.0]]"] ;
623 -> 627 ;
628 [label="total sulfur dioxide <= 104.0\nmse = 0.1\nsamples = 69\nvalue = [[0.1]\n[0.8]\n[0.1]\n[0.0]\n[0.0]]"] ;
627 -> 628 ;
629 [label="total sulfur dioxide <= 87.5\nmse = 0.1\nsamples = 9\nvalue = [[0.4]\n[0.5]\n[0.1]\n[0.0]\n[0.0]]"] ;
628 -> 629 ;
630 [label="chlorides <= 0.0\nmse = 0.1\nsamples = 6\nvalue = [[0.0]\n[0.8]\n[0.2]\n[0.0]\n[0.0]]"] ;
629 -> 630 ;
631 [label="mse = 0.0\nsamples = 1\nvalue = [[0.0]\n[0.0]\n[1.0]\n[0.0]\n[0.0]]"] ;
630 -> 631 ;
632 [label="mse = 0.0\nsamples = 5\nvalue = [[0.0]\n[1.0]\n[0.0]\n[0.0]\n[0.0]]"] ;
630 -> 632 ;
633 [label="mse = 0.0\nsamples = 3\nvalue = [[1.0]\n[0.0]\n[0.0]\n[0.0]\n[0.0]]"] ;
629 -> 633 ;
634 [label="alcohol <= 10.2\nmse = 0.0\nsamples = 60\nvalue = [[0.0]\n[0.9]\n[0.1]\n[0.0]\n[0.0]]"] ;
628 -> 634 ;
635 [label="volatile acidity <= 0.4\nmse = 0.0\nsamples = 55\nvalue = [[0.0]\n[0.9]\n[0.1]\n[0.0]\n[0.0]]"] ;
634 -> 635 ;
636 [label="mse = 0.0\nsamples = 35\nvalue = [[0.0]\n[1.0]\n[0.0]\n[0.0]\n[0.0]]"] ;
635 -> 636 ;
637 [label="total sulfur dioxide <= 124.5\nmse = 0.1\nsamples = 20\nvalue = [[0.0]\n[0.8]\n[0.2]\n[0.0]\n[0.0]]"] ;
635 -> 637 ;
638 [label="mse = 0.0\nsamples = 2\nvalue = [[0.0]\n[0.0]\n[1.0]\n[0.0]\n[0.0]]"] ;
637 -> 638 ;
639 [label="pH <= 3.2\nmse = 0.1\nsamples = 18\nvalue = [[0.0]\n[0.8]\n[0.1]\n[0.0]\n[0.0]]"] ;
637 -> 639 ;
640 [label="alcohol <= 9.6\nmse = 0.0\nsamples = 16\nvalue = [[0.0]\n[0.9]\n[0.1]\n[0.0]\n[0.0]]"] ;
639 -> 640 ;
641 [label="total sulfur dioxide <= 153.0\nmse = 0.1\nsamples = 3\nvalue = [[0.0]\n[0.3]\n[0.7]\n[0.0]\n[0.0]]"] ;
640 -> 641 ;
642 [label="mse = 0.0\nsamples = 1\nvalue = [[0.0]\n[1.0]\n[0.0]\n[0.0]\n[0.0]]"] ;
641 -> 642 ;
643 [label="mse = 0.0\nsamples = 2\nvalue = [[0.0]\n[0.0]\n[1.0]\n[0.0]\n[0.0]]"] ;
641 -> 643 ;
644 [label="mse = 0.0\nsamples = 13\nvalue = [[0.0]\n[1.0]\n[0.0]\n[0.0]\n[0.0]]"] ;
640 -> 644 ;
645 [label="chlorides <= 0.1\nmse = 0.1\nsamples = 2\nvalue = [[0.5]\n[0.0]\n[0.5]\n[0.0]\n[0.0]]"] ;
639 -> 645 ;
646 [label="mse = 0.0\nsamples = 1\nvalue = [[0.0]\n[0.0]\n[1.0]\n[0.0]\n[0.0]]"] ;
645 -> 646 ;
647 [label="mse = 0.0\nsamples = 1\nvalue = [[1.0]\n[0.0]\n[0.0]\n[0.0]\n[0.0]]"] ;
645 -> 647 ;
648 [label="free sulfur dioxide <= 40.5\nmse = 0.1\nsamples = 5\nvalue = [[0.0]\n[0.6]\n[0.4]\n[0.0]\n[0.0]]"] ;
634 -> 648 ;
649 [label="mse = 0.0\nsamples = 3\nvalue = [[0.0]\n[1.0]\n[0.0]\n[0.0]\n[0.0]]"] ;
648 -> 649 ;
650 [label="mse = 0.0\nsamples = 2\nvalue = [[0.0]\n[0.0]\n[1.0]\n[0.0]\n[0.0]]"] ;
648 -> 650 ;
651 [label="alcohol <= 9.9\nmse = 0.1\nsamples = 12\nvalue = [[0.2]\n[0.4]\n[0.3]\n[0.1]\n[0.0]]"] ;
627 -> 651 ;
652 [label="fixed acidity <= 6.6\nmse = 0.1\nsamples = 5\nvalue = [[0.5]\n[0.0]\n[0.5]\n[0.0]\n[0.0]]"] ;
651 -> 652 ;
653 [label="mse = 0.0\nsamples = 3\nvalue = [[0.0]\n[0.0]\n[1.0]\n[0.0]\n[0.0]]"] ;
652 -> 653 ;
654 [label="mse = 0.0\nsamples = 2\nvalue = [[1.0]\n[0.0]\n[0.0]\n[0.0]\n[0.0]]"] ;
652 -> 654 ;
655 [label="volatile acidity <= 0.3\nmse = 0.1\nsamples = 7\nvalue = [[0.0]\n[0.7]\n[0.1]\n[0.2]\n[0.0]]"] ;
651 -> 655 ;
656 [label="fixed acidity <= 6.4\nmse = 0.1\nsamples = 2\nvalue = [[0.0]\n[0.0]\n[0.3]\n[0.7]\n[0.0]]"] ;
655 -> 656 ;
657 [label="mse = 0.0\nsamples = 1\nvalue = [[0.0]\n[0.0]\n[1.0]\n[0.0]\n[0.0]]"] ;
656 -> 657 ;
658 [label="mse = 0.0\nsamples = 1\nvalue = [[0.0]\n[0.0]\n[0.0]\n[1.0]\n[0.0]]"] ;
656 -> 658 ;
659 [label="mse = 0.0\nsamples = 5\nvalue = [[0.0]\n[1.0]\n[0.0]\n[0.0]\n[0.0]]"] ;
655 -> 659 ;
660 [label="alcohol <= 9.8\nmse = 0.1\nsamples = 119\nvalue = [[0.0]\n[0.5]\n[0.4]\n[0.0]\n[0.0]]"] ;
622 -> 660 ;
661 [label="chlorides <= 0.0\nmse = 0.1\nsamples = 78\nvalue = [[0.0]\n[0.6]\n[0.4]\n[0.0]\n[0.0]]"] ;
660 -> 661 ;
662 [label="density <= 1.0\nmse = 0.1\nsamples = 27\nvalue = [[0.0]\n[0.3]\n[0.6]\n[0.1]\n[0.0]]"] ;
661 -> 662 ;
663 [label="free sulfur dioxide <= 28.0\nmse = 0.1\nsamples = 13\nvalue = [[0.0]\n[0.5]\n[0.3]\n[0.2]\n[0.0]]"] ;
662 -> 663 ;
664 [label="mse = 0.0\nsamples = 1\nvalue = [[0.0]\n[0.0]\n[0.0]\n[1.0]\n[0.0]]"] ;
663 -> 664 ;
665 [label="density <= 1.0\nmse = 0.1\nsamples = 12\nvalue = [[0.0]\n[0.6]\n[0.4]\n[0.0]\n[0.0]]"] ;
663 -> 665 ;
666 [label="sulphates <= 0.5\nmse = 0.1\nsamples = 6\nvalue = [[0.0]\n[0.2]\n[0.8]\n[0.0]\n[0.0]]"] ;
665 -> 666 ;
667 [label="density <= 1.0\nmse = 0.1\nsamples = 3\nvalue = [[0.0]\n[0.7]\n[0.3]\n[0.0]\n[0.0]]"] ;
666 -> 667 ;
668 [label="mse = 0.0\nsamples = 2\nvalue = [[0.0]\n[1.0]\n[0.0]\n[0.0]\n[0.0]]"] ;
667 -> 668 ;
669 [label="mse = 0.0\nsamples = 1\nvalue = [[0.0]\n[0.0]\n[1.0]\n[0.0]\n[0.0]]"] ;
667 -> 669 ;
670 [label="mse = 0.0\nsamples = 3\nvalue = [[0.0]\n[0.0]\n[1.0]\n[0.0]\n[0.0]]"] ;
666 -> 670 ;
671 [label="mse = 0.0\nsamples = 6\nvalue = [[0.0]\n[1.0]\n[0.0]\n[0.0]\n[0.0]]"] ;
665 -> 671 ;
672 [label="citric acid <= 0.3\nmse = 0.0\nsamples = 14\nvalue = [[0.0]\n[0.1]\n[0.9]\n[0.0]\n[0.0]]"] ;
662 -> 672 ;
673 [label="mse = 0.0\nsamples = 1\nvalue = [[0.0]\n[1.0]\n[0.0]\n[0.0]\n[0.0]]"] ;
672 -> 673 ;
674 [label="mse = 0.0\nsamples = 13\nvalue = [[0.0]\n[0.0]\n[1.0]\n[0.0]\n[0.0]]"] ;
672 -> 674 ;
675 [label="total sulfur dioxide <= 90.5\nmse = 0.1\nsamples = 51\nvalue = [[0.0]\n[0.7]\n[0.2]\n[0.0]\n[0.0]]"] ;
661 -> 675 ;
676 [label="density <= 1.0\nmse = 0.1\nsamples = 13\nvalue = [[0.0]\n[0.4]\n[0.6]\n[0.0]\n[0.0]]"] ;
675 -> 676 ;
677 [label="density <= 1.0\nmse = 0.0\nsamples = 8\nvalue = [[0.0]\n[0.1]\n[0.9]\n[0.0]\n[0.0]]"] ;
676 -> 677 ;
678 [label="mse = 0.0\nsamples = 1\nvalue = [[0.0]\n[1.0]\n[0.0]\n[0.0]\n[0.0]]"] ;
677 -> 678 ;
679 [label="mse = 0.0\nsamples = 7\nvalue = [[0.0]\n[0.0]\n[1.0]\n[0.0]\n[0.0]]"] ;
677 -> 679 ;
680 [label="total sulfur dioxide <= 78.0\nmse = 0.0\nsamples = 5\nvalue = [[0.1]\n[0.9]\n[0.0]\n[0.0]\n[0.0]]"] ;
676 -> 680 ;
681 [label="mse = 0.0\nsamples = 4\nvalue = [[0.0]\n[1.0]\n[0.0]\n[0.0]\n[0.0]]"] ;
680 -> 681 ;
682 [label="mse = 0.0\nsamples = 1\nvalue = [[1.0]\n[0.0]\n[0.0]\n[0.0]\n[0.0]]"] ;
680 -> 682 ;
683 [label="citric acid <= 0.4\nmse = 0.0\nsamples = 38\nvalue = [[0.0]\n[0.9]\n[0.1]\n[0.0]\n[0.0]]"] ;
675 -> 683 ;
684 [label="free sulfur dioxide <= 20.5\nmse = 0.0\nsamples = 29\nvalue = [[0.0]\n[1.0]\n[0.0]\n[0.0]\n[0.0]]"] ;
683 -> 684 ;
685 [label="pH <= 3.3\nmse = 0.1\nsamples = 2\nvalue = [[0.2]\n[0.8]\n[0.0]\n[0.0]\n[0.0]]"] ;
684 -> 685 ;
686 [label="mse = 0.0\nsamples = 1\nvalue = [[1.0]\n[0.0]\n[0.0]\n[0.0]\n[0.0]]"] ;
685 -> 686 ;
687 [label="mse = 0.0\nsamples = 1\nvalue = [[0.0]\n[1.0]\n[0.0]\n[0.0]\n[0.0]]"] ;
685 -> 687 ;
688 [label="density <= 1.0\nmse = 0.0\nsamples = 27\nvalue = [[0.0]\n[1.0]\n[0.0]\n[0.0]\n[0.0]]"] ;
684 -> 688 ;
689 [label="pH <= 3.1\nmse = 0.1\nsamples = 5\nvalue = [[0.0]\n[0.8]\n[0.2]\n[0.0]\n[0.0]]"] ;
688 -> 689 ;
690 [label="mse = 0.0\nsamples = 1\nvalue = [[0.0]\n[0.0]\n[1.0]\n[0.0]\n[0.0]]"] ;
689 -> 690 ;
691 [label="mse = 0.0\nsamples = 4\nvalue = [[0.0]\n[1.0]\n[0.0]\n[0.0]\n[0.0]]"] ;
689 -> 691 ;
692 [label="mse = 0.0\nsamples = 22\nvalue = [[0.0]\n[1.0]\n[0.0]\n[0.0]\n[0.0]]"] ;
688 -> 692 ;
693 [label="pH <= 3.2\nmse = 0.1\nsamples = 9\nvalue = [[0.0]\n[0.6]\n[0.4]\n[0.1]\n[0.0]]"] ;
683 -> 693 ;
694 [label="citric acid <= 0.5\nmse = 0.0\nsamples = 4\nvalue = [[0.0]\n[0.9]\n[0.0]\n[0.1]\n[0.0]]"] ;
693 -> 694 ;
695 [label="mse = 0.0\nsamples = 3\nvalue = [[0.0]\n[1.0]\n[0.0]\n[0.0]\n[0.0]]"] ;
694 -> 695 ;
696 [label="mse = 0.0\nsamples = 1\nvalue = [[0.0]\n[0.0]\n[0.0]\n[1.0]\n[0.0]]"] ;
694 -> 696 ;
697 [label="total sulfur dioxide <= 148.5\nmse = 0.1\nsamples = 5\nvalue = [[0.0]\n[0.3]\n[0.7]\n[0.0]\n[0.0]]"] ;
693 -> 697 ;
698 [label="mse = 0.0\nsamples = 2\nvalue = [[0.0]\n[1.0]\n[0.0]\n[0.0]\n[0.0]]"] ;
697 -> 698 ;
699 [label="mse = 0.0\nsamples = 3\nvalue = [[0.0]\n[0.0]\n[1.0]\n[0.0]\n[0.0]]"] ;
697 -> 699 ;
700 [label="chlorides <= 0.0\nmse = 0.1\nsamples = 41\nvalue = [[0.0]\n[0.4]\n[0.6]\n[0.0]\n[0.0]]"] ;
660 -> 700 ;
701 [label="total sulfur dioxide <= 144.0\nmse = 0.1\nsamples = 20\nvalue = [[0.0]\n[0.6]\n[0.4]\n[0.0]\n[0.0]]"] ;
700 -> 701 ;
702 [label="fixed acidity <= 6.0\nmse = 0.0\nsamples = 5\nvalue = [[0.0]\n[0.1]\n[0.9]\n[0.0]\n[0.0]]"] ;
701 -> 702 ;
703 [label="mse = 0.0\nsamples = 1\nvalue = [[0.0]\n[1.0]\n[0.0]\n[0.0]\n[0.0]]"] ;
702 -> 703 ;
704 [label="mse = 0.0\nsamples = 4\nvalue = [[0.0]\n[0.0]\n[1.0]\n[0.0]\n[0.0]]"] ;
702 -> 704 ;
705 [label="chlorides <= 0.0\nmse = 0.1\nsamples = 15\nvalue = [[0.0]\n[0.8]\n[0.2]\n[0.0]\n[0.0]]"] ;
701 -> 705 ;
706 [label="sulphates <= 0.4\nmse = 0.1\nsamples = 6\nvalue = [[0.0]\n[0.3]\n[0.7]\n[0.0]\n[0.0]]"] ;
705 -> 706 ;
707 [label="mse = 0.0\nsamples = 3\nvalue = [[0.0]\n[0.0]\n[1.0]\n[0.0]\n[0.0]]"] ;
706 -> 707 ;
708 [label="pH <= 3.1\nmse = 0.1\nsamples = 3\nvalue = [[0.0]\n[0.7]\n[0.3]\n[0.0]\n[0.0]]"] ;
706 -> 708 ;
709 [label="mse = 0.0\nsamples = 1\nvalue = [[0.0]\n[0.0]\n[1.0]\n[0.0]\n[0.0]]"] ;
708 -> 709 ;
710 [label="mse = 0.0\nsamples = 2\nvalue = [[0.0]\n[1.0]\n[0.0]\n[0.0]\n[0.0]]"] ;
708 -> 710 ;
711 [label="total sulfur dioxide <= 194.5\nmse = 0.0\nsamples = 9\nvalue = [[0.0]\n[0.9]\n[0.1]\n[0.0]\n[0.0]]"] ;
705 -> 711 ;
712 [label="mse = 0.0\nsamples = 7\nvalue = [[0.0]\n[1.0]\n[0.0]\n[0.0]\n[0.0]]"] ;
711 -> 712 ;
713 [label="sulphates <= 0.6\nmse = 0.1\nsamples = 2\nvalue = [[0.0]\n[0.5]\n[0.5]\n[0.0]\n[0.0]]"] ;
711 -> 713 ;
714 [label="mse = 0.0\nsamples = 1\nvalue = [[0.0]\n[0.0]\n[1.0]\n[0.0]\n[0.0]]"] ;
713 -> 714 ;
715 [label="mse = 0.0\nsamples = 1\nvalue = [[0.0]\n[1.0]\n[0.0]\n[0.0]\n[0.0]]"] ;
713 -> 715 ;
716 [label="pH <= 3.4\nmse = 0.1\nsamples = 21\nvalue = [[0.0]\n[0.2]\n[0.8]\n[0.0]\n[0.0]]"] ;
700 -> 716 ;
717 [label="alcohol <= 10.2\nmse = 0.0\nsamples = 18\nvalue = [[0.0]\n[0.1]\n[0.9]\n[0.0]\n[0.0]]"] ;
716 -> 717 ;
718 [label="density <= 1.0\nmse = 0.0\nsamples = 17\nvalue = [[0.0]\n[0.1]\n[0.9]\n[0.0]\n[0.0]]"] ;
717 -> 718 ;
719 [label="free sulfur dioxide <= 16.0\nmse = 0.0\nsamples = 16\nvalue = [[0.0]\n[0.0]\n[0.9]\n[0.0]\n[0.0]]"] ;
718 -> 719 ;
720 [label="fixed acidity <= 7.0\nmse = 0.1\nsamples = 2\nvalue = [[0.5]\n[0.0]\n[0.5]\n[0.0]\n[0.0]]"] ;
719 -> 720 ;
721 [label="mse = 0.0\nsamples = 1\nvalue = [[1.0]\n[0.0]\n[0.0]\n[0.0]\n[0.0]]"] ;
720 -> 721 ;
722 [label="mse = 0.0\nsamples = 1\nvalue = [[0.0]\n[0.0]\n[1.0]\n[0.0]\n[0.0]]"] ;
720 -> 722 ;
723 [label="residual sugar <= 8.9\nmse = 0.0\nsamples = 14\nvalue = [[0.0]\n[0.0]\n[1.0]\n[0.0]\n[0.0]]"] ;
719 -> 723 ;
724 [label="mse = 0.0\nsamples = 12\nvalue = [[0.0]\n[0.0]\n[1.0]\n[0.0]\n[0.0]]"] ;
723 -> 724 ;
725 [label="total sulfur dioxide <= 189.5\nmse = 0.1\nsamples = 2\nvalue = [[0.0]\n[0.2]\n[0.8]\n[0.0]\n[0.0]]"] ;
723 -> 725 ;
726 [label="mse = 0.0\nsamples = 1\nvalue = [[0.0]\n[1.0]\n[0.0]\n[0.0]\n[0.0]]"] ;
725 -> 726 ;
727 [label="mse = 0.0\nsamples = 1\nvalue = [[0.0]\n[0.0]\n[1.0]\n[0.0]\n[0.0]]"] ;
725 -> 727 ;
728 [label="mse = 0.0\nsamples = 1\nvalue = [[0.0]\n[1.0]\n[0.0]\n[0.0]\n[0.0]]"] ;
718 -> 728 ;
729 [label="mse = 0.0\nsamples = 1\nvalue = [[0.0]\n[1.0]\n[0.0]\n[0.0]\n[0.0]]"] ;
717 -> 729 ;
730 [label="chlorides <= 0.1\nmse = 0.1\nsamples = 3\nvalue = [[0.0]\n[0.8]\n[0.2]\n[0.0]\n[0.0]]"] ;
716 -> 730 ;
731 [label="mse = 0.0\nsamples = 1\nvalue = [[0.0]\n[0.0]\n[1.0]\n[0.0]\n[0.0]]"] ;
730 -> 731 ;
732 [label="mse = 0.0\nsamples = 2\nvalue = [[0.0]\n[1.0]\n[0.0]\n[0.0]\n[0.0]]"] ;
730 -> 732 ;
733 [label="sulphates <= 1.5\nmse = 0.0\nsamples = 25\nvalue = [[0.1]\n[0.9]\n[0.0]\n[0.0]\n[0.0]]"] ;
503 -> 733 ;
734 [label="alcohol <= 10.0\nmse = 0.0\nsamples = 24\nvalue = [[0.0]\n[1.0]\n[0.0]\n[0.0]\n[0.0]]"] ;
733 -> 734 ;
735 [label="mse = 0.0\nsamples = 22\nvalue = [[0.0]\n[1.0]\n[0.0]\n[0.0]\n[0.0]]"] ;
734 -> 735 ;
736 [label="pH <= 3.1\nmse = 0.1\nsamples = 2\nvalue = [[0.5]\n[0.5]\n[0.0]\n[0.0]\n[0.0]]"] ;
734 -> 736 ;
737 [label="mse = 0.0\nsamples = 1\nvalue = [[1.0]\n[0.0]\n[0.0]\n[0.0]\n[0.0]]"] ;
736 -> 737 ;
738 [label="mse = 0.0\nsamples = 1\nvalue = [[0.0]\n[1.0]\n[0.0]\n[0.0]\n[0.0]]"] ;
736 -> 738 ;
739 [label="mse = 0.0\nsamples = 1\nvalue = [[1.0]\n[0.0]\n[0.0]\n[0.0]\n[0.0]]"] ;
733 -> 739 ;
740 [label="residual sugar <= 1.3\nmse = 0.1\nsamples = 254\nvalue = [[0.1]\n[0.7]\n[0.2]\n[0.0]\n[0.0]]"] ;
362 -> 740 ;
741 [label="pH <= 3.3\nmse = 0.1\nsamples = 8\nvalue = [[0.8]\n[0.1]\n[0.0]\n[0.1]\n[0.0]]"] ;
740 -> 741 ;
742 [label="total sulfur dioxide <= 16.0\nmse = 0.0\nsamples = 6\nvalue = [[0.9]\n[0.1]\n[0.0]\n[0.0]\n[0.0]]"] ;
741 -> 742 ;
743 [label="mse = 0.0\nsamples = 1\nvalue = [[0.0]\n[1.0]\n[0.0]\n[0.0]\n[0.0]]"] ;
742 -> 743 ;
744 [label="mse = 0.0\nsamples = 5\nvalue = [[1.0]\n[0.0]\n[0.0]\n[0.0]\n[0.0]]"] ;
742 -> 744 ;
745 [label="residual sugar <= 1.0\nmse = 0.1\nsamples = 2\nvalue = [[0.0]\n[0.5]\n[0.0]\n[0.5]\n[0.0]]"] ;
741 -> 745 ;
746 [label="mse = 0.0\nsamples = 1\nvalue = [[0.0]\n[1.0]\n[0.0]\n[0.0]\n[0.0]]"] ;
745 -> 746 ;
747 [label="mse = 0.0\nsamples = 1\nvalue = [[0.0]\n[0.0]\n[0.0]\n[1.0]\n[0.0]]"] ;
745 -> 747 ;
748 [label="alcohol <= 9.2\nmse = 0.1\nsamples = 246\nvalue = [[0.1]\n[0.7]\n[0.2]\n[0.0]\n[0.0]]"] ;
740 -> 748 ;
749 [label="total sulfur dioxide <= 105.5\nmse = 0.1\nsamples = 24\nvalue = [[0.2]\n[0.4]\n[0.4]\n[0.0]\n[0.0]]"] ;
748 -> 749 ;
750 [label="residual sugar <= 3.8\nmse = 0.1\nsamples = 13\nvalue = [[0.1]\n[0.2]\n[0.7]\n[0.0]\n[0.0]]"] ;
749 -> 750 ;
751 [label="volatile acidity <= 1.0\nmse = 0.1\nsamples = 12\nvalue = [[0.0]\n[0.3]\n[0.7]\n[0.0]\n[0.0]]"] ;
750 -> 751 ;
752 [label="total sulfur dioxide <= 32.5\nmse = 0.1\nsamples = 11\nvalue = [[0.0]\n[0.2]\n[0.8]\n[0.0]\n[0.0]]"] ;
751 -> 752 ;
753 [label="volatile acidity <= 0.7\nmse = 0.1\nsamples = 5\nvalue = [[0.0]\n[0.5]\n[0.5]\n[0.0]\n[0.0]]"] ;
752 -> 753 ;
754 [label="mse = 0.0\nsamples = 2\nvalue = [[0.0]\n[1.0]\n[0.0]\n[0.0]\n[0.0]]"] ;
753 -> 754 ;
755 [label="mse = 0.0\nsamples = 3\nvalue = [[0.0]\n[0.0]\n[1.0]\n[0.0]\n[0.0]]"] ;
753 -> 755 ;
756 [label="mse = 0.0\nsamples = 6\nvalue = [[0.0]\n[0.0]\n[1.0]\n[0.0]\n[0.0]]"] ;
752 -> 756 ;
757 [label="mse = 0.0\nsamples = 1\nvalue = [[0.0]\n[1.0]\n[0.0]\n[0.0]\n[0.0]]"] ;
751 -> 757 ;
758 [label="mse = 0.0\nsamples = 1\nvalue = [[1.0]\n[0.0]\n[0.0]\n[0.0]\n[0.0]]"] ;
750 -> 758 ;
759 [label="chlorides <= 0.1\nmse = 0.1\nsamples = 11\nvalue = [[0.2]\n[0.6]\n[0.1]\n[0.0]\n[0.0]]"] ;
749 -> 759 ;
760 [label="mse = 0.0\nsamples = 6\nvalue = [[0.0]\n[1.0]\n[0.0]\n[0.0]\n[0.0]]"] ;
759 -> 760 ;
761 [label="volatile acidity <= 0.7\nmse = 0.1\nsamples = 5\nvalue = [[0.6]\n[0.1]\n[0.3]\n[0.0]\n[0.0]]"] ;
759 -> 761 ;
762 [label="mse = 0.0\nsamples = 3\nvalue = [[1.0]\n[0.0]\n[0.0]\n[0.0]\n[0.0]]"] ;
761 -> 762 ;
763 [label="total sulfur dioxide <= 150.5\nmse = 0.1\nsamples = 2\nvalue = [[0.0]\n[0.3]\n[0.7]\n[0.0]\n[0.0]]"] ;
761 -> 763 ;
764 [label="mse = 0.0\nsamples = 1\nvalue = [[0.0]\n[1.0]\n[0.0]\n[0.0]\n[0.0]]"] ;
763 -> 764 ;
765 [label="mse = 0.0\nsamples = 1\nvalue = [[0.0]\n[0.0]\n[1.0]\n[0.0]\n[0.0]]"] ;
763 -> 765 ;
766 [label="total sulfur dioxide <= 91.5\nmse = 0.1\nsamples = 222\nvalue = [[0.0]\n[0.8]\n[0.2]\n[0.0]\n[0.0]]"] ;
748 -> 766 ;
767 [label="total sulfur dioxide <= 63.5\nmse = 0.1\nsamples = 163\nvalue = [[0.1]\n[0.7]\n[0.2]\n[0.0]\n[0.0]]"] ;
766 -> 767 ;
768 [label="fixed acidity <= 7.6\nmse = 0.1\nsamples = 133\nvalue = [[0.1]\n[0.8]\n[0.2]\n[0.0]\n[0.0]]"] ;
767 -> 768 ;
769 [label="volatile acidity <= 0.9\nmse = 0.0\nsamples = 70\nvalue = [[0.1]\n[0.9]\n[0.1]\n[0.0]\n[0.0]]"] ;
768 -> 769 ;
770 [label="pH <= 3.6\nmse = 0.0\nsamples = 66\nvalue = [[0.0]\n[0.9]\n[0.1]\n[0.0]\n[0.0]]"] ;
769 -> 770 ;
771 [label="chlorides <= 0.2\nmse = 0.0\nsamples = 59\nvalue = [[0.0]\n[0.9]\n[0.1]\n[0.0]\n[0.0]]"] ;
770 -> 771 ;
772 [label="fixed acidity <= 7.5\nmse = 0.0\nsamples = 57\nvalue = [[0.0]\n[1.0]\n[0.0]\n[0.0]\n[0.0]]"] ;
771 -> 772 ;
773 [label="sulphates <= 0.7\nmse = 0.0\nsamples = 50\nvalue = [[0.0]\n[1.0]\n[0.0]\n[0.0]\n[0.0]]"] ;
772 -> 773 ;
774 [label="mse = 0.0\nsamples = 36\nvalue = [[0.0]\n[1.0]\n[0.0]\n[0.0]\n[0.0]]"] ;
773 -> 774 ;
775 [label="fixed acidity <= 7.0\nmse = 0.0\nsamples = 14\nvalue = [[0.0]\n[0.9]\n[0.1]\n[0.0]\n[0.0]]"] ;
773 -> 775 ;
776 [label="mse = 0.0\nsamples = 11\nvalue = [[0.0]\n[1.0]\n[0.0]\n[0.0]\n[0.0]]"] ;
775 -> 776 ;
777 [label="volatile acidity <= 0.7\nmse = 0.1\nsamples = 3\nvalue = [[0.0]\n[0.2]\n[0.8]\n[0.0]\n[0.0]]"] ;
775 -> 777 ;
778 [label="mse = 0.0\nsamples = 2\nvalue = [[0.0]\n[0.0]\n[1.0]\n[0.0]\n[0.0]]"] ;
777 -> 778 ;
779 [label="mse = 0.0\nsamples = 1\nvalue = [[0.0]\n[1.0]\n[0.0]\n[0.0]\n[0.0]]"] ;
777 -> 779 ;
780 [label="citric acid <= 0.0\nmse = 0.1\nsamples = 7\nvalue = [[0.1]\n[0.8]\n[0.1]\n[0.0]\n[0.0]]"] ;
772 -> 780 ;
781 [label="alcohol <= 9.8\nmse = 0.1\nsamples = 2\nvalue = [[0.5]\n[0.0]\n[0.5]\n[0.0]\n[0.0]]"] ;
780 -> 781 ;
782 [label="mse = 0.0\nsamples = 1\nvalue = [[1.0]\n[0.0]\n[0.0]\n[0.0]\n[0.0]]"] ;
781 -> 782 ;
783 [label="mse = 0.0\nsamples = 1\nvalue = [[0.0]\n[0.0]\n[1.0]\n[0.0]\n[0.0]]"] ;
781 -> 783 ;
784 [label="mse = 0.0\nsamples = 5\nvalue = [[0.0]\n[1.0]\n[0.0]\n[0.0]\n[0.0]]"] ;
780 -> 784 ;
785 [label="fixed acidity <= 7.2\nmse = 0.1\nsamples = 2\nvalue = [[0.0]\n[0.6]\n[0.4]\n[0.0]\n[0.0]]"] ;
771 -> 785 ;
786 [label="mse = 0.0\nsamples = 1\nvalue = [[0.0]\n[0.0]\n[1.0]\n[0.0]\n[0.0]]"] ;
785 -> 786 ;
787 [label="mse = 0.0\nsamples = 1\nvalue = [[0.0]\n[1.0]\n[0.0]\n[0.0]\n[0.0]]"] ;
785 -> 787 ;
788 [label="total sulfur dioxide <= 27.0\nmse = 0.1\nsamples = 7\nvalue = [[0.2]\n[0.5]\n[0.2]\n[0.0]\n[0.0]]"] ;
770 -> 788 ;
789 [label="chlorides <= 0.1\nmse = 0.1\nsamples = 4\nvalue = [[0.5]\n[0.0]\n[0.5]\n[0.0]\n[0.0]]"] ;
788 -> 789 ;
790 [label="mse = 0.0\nsamples = 2\nvalue = [[1.0]\n[0.0]\n[0.0]\n[0.0]\n[0.0]]"] ;
789 -> 790 ;
791 [label="mse = 0.0\nsamples = 2\nvalue = [[0.0]\n[0.0]\n[1.0]\n[0.0]\n[0.0]]"] ;
789 -> 791 ;
792 [label="mse = 0.0\nsamples = 3\nvalue = [[0.0]\n[1.0]\n[0.0]\n[0.0]\n[0.0]]"] ;
788 -> 792 ;
793 [label="pH <= 3.3\nmse = 0.0\nsamples = 4\nvalue = [[0.9]\n[0.1]\n[0.0]\n[0.0]\n[0.0]]"] ;
769 -> 793 ;
794 [label="mse = 0.0\nsamples = 1\nvalue = [[0.0]\n[1.0]\n[0.0]\n[0.0]\n[0.0]]"] ;
793 -> 794 ;
795 [label="mse = 0.0\nsamples = 3\nvalue = [[1.0]\n[0.0]\n[0.0]\n[0.0]\n[0.0]]"] ;
793 -> 795 ;
796 [label="volatile acidity <= 0.7\nmse = 0.1\nsamples = 63\nvalue = [[0.0]\n[0.6]\n[0.3]\n[0.1]\n[0.0]]"] ;
768 -> 796 ;
797 [label="citric acid <= 0.1\nmse = 0.1\nsamples = 39\nvalue = [[0.0]\n[0.5]\n[0.4]\n[0.1]\n[0.0]]"] ;
796 -> 797 ;
798 [label="citric acid <= 0.1\nmse = 0.1\nsamples = 16\nvalue = [[0.0]\n[0.2]\n[0.6]\n[0.1]\n[0.0]]"] ;
797 -> 798 ;
799 [label="alcohol <= 9.7\nmse = 0.1\nsamples = 9\nvalue = [[0.0]\n[0.5]\n[0.4]\n[0.2]\n[0.0]]"] ;
798 -> 799 ;
800 [label="density <= 1.0\nmse = 0.1\nsamples = 7\nvalue = [[0.0]\n[0.6]\n[0.2]\n[0.2]\n[0.0]]"] ;
799 -> 800 ;
801 [label="chlorides <= 0.1\nmse = 0.1\nsamples = 6\nvalue = [[0.0]\n[0.8]\n[0.0]\n[0.2]\n[0.0]]"] ;
800 -> 801 ;
802 [label="mse = 0.0\nsamples = 1\nvalue = [[0.0]\n[0.0]\n[0.0]\n[1.0]\n[0.0]]"] ;
801 -> 802 ;
803 [label="mse = 0.0\nsamples = 5\nvalue = [[0.0]\n[1.0]\n[0.0]\n[0.0]\n[0.0]]"] ;
801 -> 803 ;
804 [label="mse = 0.0\nsamples = 1\nvalue = [[0.0]\n[0.0]\n[1.0]\n[0.0]\n[0.0]]"] ;
800 -> 804 ;
805 [label="mse = 0.0\nsamples = 2\nvalue = [[0.0]\n[0.0]\n[1.0]\n[0.0]\n[0.0]]"] ;
799 -> 805 ;
806 [label="total sulfur dioxide <= 11.5\nmse = 0.0\nsamples = 7\nvalue = [[0.0]\n[0.0]\n[0.9]\n[0.1]\n[0.0]]"] ;
798 -> 806 ;
807 [label="mse = 0.0\nsamples = 1\nvalue = [[0.0]\n[0.0]\n[0.0]\n[1.0]\n[0.0]]"] ;
806 -> 807 ;
808 [label="mse = 0.0\nsamples = 6\nvalue = [[0.0]\n[0.0]\n[1.0]\n[0.0]\n[0.0]]"] ;
806 -> 808 ;
809 [label="density <= 1.0\nmse = 0.1\nsamples = 23\nvalue = [[0.1]\n[0.8]\n[0.2]\n[0.0]\n[0.0]]"] ;
797 -> 809 ;
810 [label="mse = 0.0\nsamples = 2\nvalue = [[0.0]\n[0.0]\n[1.0]\n[0.0]\n[0.0]]"] ;
809 -> 810 ;
811 [label="residual sugar <= 2.7\nmse = 0.1\nsamples = 21\nvalue = [[0.1]\n[0.8]\n[0.1]\n[0.0]\n[0.0]]"] ;
809 -> 811 ;
812 [label="volatile acidity <= 0.6\nmse = 0.0\nsamples = 18\nvalue = [[0.0]\n[0.9]\n[0.1]\n[0.0]\n[0.0]]"] ;
811 -> 812 ;
813 [label="mse = 0.0\nsamples = 12\nvalue = [[0.0]\n[1.0]\n[0.0]\n[0.0]\n[0.0]]"] ;
812 -> 813 ;
814 [label="density <= 1.0\nmse = 0.1\nsamples = 6\nvalue = [[0.0]\n[0.7]\n[0.3]\n[0.0]\n[0.0]]"] ;
812 -> 814 ;
815 [label="mse = 0.0\nsamples = 3\nvalue = [[0.0]\n[1.0]\n[0.0]\n[0.0]\n[0.0]]"] ;
814 -> 815 ;
816 [label="fixed acidity <= 9.1\nmse = 0.1\nsamples = 3\nvalue = [[0.0]\n[0.2]\n[0.8]\n[0.0]\n[0.0]]"] ;
814 -> 816 ;
817 [label="mse = 0.0\nsamples = 2\nvalue = [[0.0]\n[0.0]\n[1.0]\n[0.0]\n[0.0]]"] ;
816 -> 817 ;
818 [label="mse = 0.0\nsamples = 1\nvalue = [[0.0]\n[1.0]\n[0.0]\n[0.0]\n[0.0]]"] ;
816 -> 818 ;
819 [label="fixed acidity <= 9.0\nmse = 0.1\nsamples = 3\nvalue = [[0.5]\n[0.2]\n[0.2]\n[0.0]\n[0.0]]"] ;
811 -> 819 ;
820 [label="mse = 0.0\nsamples = 1\nvalue = [[1.0]\n[0.0]\n[0.0]\n[0.0]\n[0.0]]"] ;
819 -> 820 ;
821 [label="citric acid <= 0.2\nmse = 0.1\nsamples = 2\nvalue = [[0.0]\n[0.5]\n[0.5]\n[0.0]\n[0.0]]"] ;
819 -> 821 ;
822 [label="mse = 0.0\nsamples = 1\nvalue = [[0.0]\n[1.0]\n[0.0]\n[0.0]\n[0.0]]"] ;
821 -> 822 ;
823 [label="mse = 0.0\nsamples = 1\nvalue = [[0.0]\n[0.0]\n[1.0]\n[0.0]\n[0.0]]"] ;
821 -> 823 ;
824 [label="sulphates <= 0.5\nmse = 0.1\nsamples = 24\nvalue = [[0.1]\n[0.8]\n[0.1]\n[0.0]\n[0.0]]"] ;
796 -> 824 ;
825 [label="mse = 0.0\nsamples = 2\nvalue = [[1.0]\n[0.0]\n[0.0]\n[0.0]\n[0.0]]"] ;
824 -> 825 ;
826 [label="alcohol <= 10.1\nmse = 0.0\nsamples = 22\nvalue = [[0.0]\n[0.9]\n[0.1]\n[0.0]\n[0.0]]"] ;
824 -> 826 ;
827 [label="density <= 1.0\nmse = 0.0\nsamples = 20\nvalue = [[0.0]\n[1.0]\n[0.0]\n[0.0]\n[0.0]]"] ;
826 -> 827 ;
828 [label="mse = 0.0\nsamples = 19\nvalue = [[0.0]\n[1.0]\n[0.0]\n[0.0]\n[0.0]]"] ;
827 -> 828 ;
829 [label="mse = 0.0\nsamples = 1\nvalue = [[0.0]\n[0.0]\n[1.0]\n[0.0]\n[0.0]]"] ;
827 -> 829 ;
830 [label="total sulfur dioxide <= 27.0\nmse = 0.1\nsamples = 2\nvalue = [[0.0]\n[0.0]\n[0.5]\n[0.5]\n[0.0]]"] ;
826 -> 830 ;
831 [label="mse = 0.0\nsamples = 1\nvalue = [[0.0]\n[0.0]\n[0.0]\n[1.0]\n[0.0]]"] ;
830 -> 831 ;
832 [label="mse = 0.0\nsamples = 1\nvalue = [[0.0]\n[0.0]\n[1.0]\n[0.0]\n[0.0]]"] ;
830 -> 832 ;
833 [label="volatile acidity <= 0.6\nmse = 0.1\nsamples = 30\nvalue = [[0.0]\n[0.5]\n[0.5]\n[0.0]\n[0.0]]"] ;
767 -> 833 ;
834 [label="total sulfur dioxide <= 90.0\nmse = 0.0\nsamples = 8\nvalue = [[0.0]\n[0.9]\n[0.1]\n[0.0]\n[0.0]]"] ;
833 -> 834 ;
835 [label="mse = 0.0\nsamples = 7\nvalue = [[0.0]\n[1.0]\n[0.0]\n[0.0]\n[0.0]]"] ;
834 -> 835 ;
836 [label="mse = 0.0\nsamples = 1\nvalue = [[0.0]\n[0.0]\n[1.0]\n[0.0]\n[0.0]]"] ;
834 -> 836 ;
837 [label="free sulfur dioxide <= 12.5\nmse = 0.1\nsamples = 22\nvalue = [[0.1]\n[0.4]\n[0.6]\n[0.0]\n[0.0]]"] ;
833 -> 837 ;
838 [label="total sulfur dioxide <= 75.5\nmse = 0.1\nsamples = 4\nvalue = [[0.4]\n[0.6]\n[0.0]\n[0.0]\n[0.0]]"] ;
837 -> 838 ;
839 [label="mse = 0.0\nsamples = 1\nvalue = [[1.0]\n[0.0]\n[0.0]\n[0.0]\n[0.0]]"] ;
838 -> 839 ;
840 [label="mse = 0.0\nsamples = 3\nvalue = [[0.0]\n[1.0]\n[0.0]\n[0.0]\n[0.0]]"] ;
838 -> 840 ;
841 [label="pH <= 3.2\nmse = 0.1\nsamples = 18\nvalue = [[0.0]\n[0.3]\n[0.7]\n[0.0]\n[0.0]]"] ;
837 -> 841 ;
842 [label="mse = 0.0\nsamples = 2\nvalue = [[0.0]\n[1.0]\n[0.0]\n[0.0]\n[0.0]]"] ;
841 -> 842 ;
843 [label="density <= 1.0\nmse = 0.1\nsamples = 16\nvalue = [[0.0]\n[0.2]\n[0.8]\n[0.0]\n[0.0]]"] ;
841 -> 843 ;
844 [label="mse = 0.0\nsamples = 4\nvalue = [[0.0]\n[0.0]\n[1.0]\n[0.0]\n[0.0]]"] ;
843 -> 844 ;
845 [label="free sulfur dioxide <= 15.5\nmse = 0.1\nsamples = 12\nvalue = [[0.0]\n[0.4]\n[0.6]\n[0.0]\n[0.0]]"] ;
843 -> 845 ;
846 [label="chlorides <= 0.1\nmse = 0.1\nsamples = 5\nvalue = [[0.0]\n[0.8]\n[0.2]\n[0.0]\n[0.0]]"] ;
845 -> 846 ;
847 [label="mse = 0.0\nsamples = 1\nvalue = [[0.0]\n[0.0]\n[1.0]\n[0.0]\n[0.0]]"] ;
846 -> 847 ;
848 [label="mse = 0.0\nsamples = 4\nvalue = [[0.0]\n[1.0]\n[0.0]\n[0.0]\n[0.0]]"] ;
846 -> 848 ;
849 [label="fixed acidity <= 9.3\nmse = 0.1\nsamples = 7\nvalue = [[0.0]\n[0.2]\n[0.8]\n[0.0]\n[0.0]]"] ;
845 -> 849 ;
850 [label="sulphates <= 0.6\nmse = 0.0\nsamples = 6\nvalue = [[0.0]\n[0.1]\n[0.9]\n[0.0]\n[0.0]]"] ;
849 -> 850 ;
851 [label="chlorides <= 0.1\nmse = 0.1\nsamples = 2\nvalue = [[0.0]\n[0.3]\n[0.7]\n[0.0]\n[0.0]]"] ;
850 -> 851 ;
852 [label="mse = 0.0\nsamples = 1\nvalue = [[0.0]\n[1.0]\n[0.0]\n[0.0]\n[0.0]]"] ;
851 -> 852 ;
853 [label="mse = 0.0\nsamples = 1\nvalue = [[0.0]\n[0.0]\n[1.0]\n[0.0]\n[0.0]]"] ;
851 -> 853 ;
854 [label="mse = 0.0\nsamples = 4\nvalue = [[0.0]\n[0.0]\n[1.0]\n[0.0]\n[0.0]]"] ;
850 -> 854 ;
855 [label="mse = 0.0\nsamples = 1\nvalue = [[0.0]\n[1.0]\n[0.0]\n[0.0]\n[0.0]]"] ;
849 -> 855 ;
856 [label="fixed acidity <= 6.5\nmse = 0.0\nsamples = 59\nvalue = [[0.0]\n[0.9]\n[0.0]\n[0.0]\n[0.0]]"] ;
766 -> 856 ;
857 [label="residual sugar <= 5.2\nmse = 0.1\nsamples = 5\nvalue = [[0.0]\n[0.6]\n[0.4]\n[0.0]\n[0.0]]"] ;
856 -> 857 ;
858 [label="mse = 0.0\nsamples = 2\nvalue = [[0.0]\n[1.0]\n[0.0]\n[0.0]\n[0.0]]"] ;
857 -> 858 ;
859 [label="mse = 0.0\nsamples = 3\nvalue = [[0.0]\n[0.0]\n[1.0]\n[0.0]\n[0.0]]"] ;
857 -> 859 ;
860 [label="residual sugar <= 1.6\nmse = 0.0\nsamples = 54\nvalue = [[0.0]\n[1.0]\n[0.0]\n[0.0]\n[0.0]]"] ;
856 -> 860 ;
861 [label="mse = 0.0\nsamples = 1\nvalue = [[1.0]\n[0.0]\n[0.0]\n[0.0]\n[0.0]]"] ;
860 -> 861 ;
862 [label="volatile acidity <= 0.6\nmse = 0.0\nsamples = 53\nvalue = [[0.0]\n[1.0]\n[0.0]\n[0.0]\n[0.0]]"] ;
860 -> 862 ;
863 [label="alcohol <= 9.2\nmse = 0.0\nsamples = 9\nvalue = [[0.1]\n[0.9]\n[0.1]\n[0.0]\n[0.0]]"] ;
862 -> 863 ;
864 [label="mse = 0.0\nsamples = 1\nvalue = [[1.0]\n[0.0]\n[0.0]\n[0.0]\n[0.0]]"] ;
863 -> 864 ;
865 [label="total sulfur dioxide <= 97.0\nmse = 0.0\nsamples = 8\nvalue = [[0.0]\n[0.9]\n[0.1]\n[0.0]\n[0.0]]"] ;
863 -> 865 ;
866 [label="mse = 0.0\nsamples = 1\nvalue = [[0.0]\n[0.0]\n[1.0]\n[0.0]\n[0.0]]"] ;
865 -> 866 ;
867 [label="mse = 0.0\nsamples = 7\nvalue = [[0.0]\n[1.0]\n[0.0]\n[0.0]\n[0.0]]"] ;
865 -> 867 ;
868 [label="mse = 0.0\nsamples = 44\nvalue = [[0.0]\n[1.0]\n[0.0]\n[0.0]\n[0.0]]"] ;
862 -> 868 ;
869 [label="sulphates <= 0.5\nmse = 0.1\nsamples = 62\nvalue = [[0.1]\n[0.3]\n[0.5]\n[0.1]\n[0.0]]"] ;
361 -> 869 ;
870 [label="mse = 0.0\nsamples = 8\nvalue = [[0.0]\n[1.0]\n[0.0]\n[0.0]\n[0.0]]"] ;
869 -> 870 ;
871 [label="volatile acidity <= 0.6\nmse = 0.1\nsamples = 54\nvalue = [[0.1]\n[0.2]\n[0.6]\n[0.1]\n[0.0]]"] ;
869 -> 871 ;
872 [label="chlorides <= 0.1\nmse = 0.1\nsamples = 52\nvalue = [[0.1]\n[0.2]\n[0.6]\n[0.1]\n[0.0]]"] ;
871 -> 872 ;
873 [label="total sulfur dioxide <= 16.5\nmse = 0.1\nsamples = 39\nvalue = [[0.1]\n[0.2]\n[0.7]\n[0.0]\n[0.0]]"] ;
872 -> 873 ;
874 [label="residual sugar <= 1.9\nmse = 0.1\nsamples = 6\nvalue = [[0.0]\n[0.8]\n[0.2]\n[0.0]\n[0.0]]"] ;
873 -> 874 ;
875 [label="mse = 0.0\nsamples = 2\nvalue = [[0.0]\n[0.0]\n[1.0]\n[0.0]\n[0.0]]"] ;
874 -> 875 ;
876 [label="mse = 0.0\nsamples = 4\nvalue = [[0.0]\n[1.0]\n[0.0]\n[0.0]\n[0.0]]"] ;
874 -> 876 ;
877 [label="sulphates <= 1.3\nmse = 0.1\nsamples = 33\nvalue = [[0.1]\n[0.1]\n[0.8]\n[0.1]\n[0.0]]"] ;
873 -> 877 ;
878 [label="sulphates <= 0.6\nmse = 0.1\nsamples = 32\nvalue = [[0.1]\n[0.1]\n[0.8]\n[0.0]\n[0.0]]"] ;
877 -> 878 ;
879 [label="sulphates <= 0.6\nmse = 0.1\nsamples = 9\nvalue = [[0.4]\n[0.2]\n[0.5]\n[0.0]\n[0.0]]"] ;
878 -> 879 ;
880 [label="residual sugar <= 2.1\nmse = 0.1\nsamples = 5\nvalue = [[0.2]\n[0.0]\n[0.8]\n[0.0]\n[0.0]]"] ;
879 -> 880 ;
881 [label="mse = 0.0\nsamples = 1\nvalue = [[1.0]\n[0.0]\n[0.0]\n[0.0]\n[0.0]]"] ;
880 -> 881 ;
882 [label="mse = 0.0\nsamples = 4\nvalue = [[0.0]\n[0.0]\n[1.0]\n[0.0]\n[0.0]]"] ;
880 -> 882 ;
883 [label="total sulfur dioxide <= 45.0\nmse = 0.1\nsamples = 4\nvalue = [[0.6]\n[0.4]\n[0.0]\n[0.0]\n[0.0]]"] ;
879 -> 883 ;
884 [label="mse = 0.0\nsamples = 2\nvalue = [[0.0]\n[1.0]\n[0.0]\n[0.0]\n[0.0]]"] ;
883 -> 884 ;
885 [label="mse = 0.0\nsamples = 2\nvalue = [[1.0]\n[0.0]\n[0.0]\n[0.0]\n[0.0]]"] ;
883 -> 885 ;
886 [label="pH <= 3.0\nmse = 0.0\nsamples = 23\nvalue = [[0.0]\n[0.0]\n[0.9]\n[0.0]\n[0.0]]"] ;
878 -> 886 ;
887 [label="mse = 0.0\nsamples = 1\nvalue = [[0.0]\n[0.0]\n[0.0]\n[1.0]\n[0.0]]"] ;
886 -> 887 ;
888 [label="alcohol <= 10.1\nmse = 0.0\nsamples = 22\nvalue = [[0.0]\n[0.0]\n[1.0]\n[0.0]\n[0.0]]"] ;
886 -> 888 ;
889 [label="mse = 0.0\nsamples = 18\nvalue = [[0.0]\n[0.0]\n[1.0]\n[0.0]\n[0.0]]"] ;
888 -> 889 ;
890 [label="citric acid <= 0.5\nmse = 0.1\nsamples = 4\nvalue = [[0.0]\n[0.4]\n[0.6]\n[0.0]\n[0.0]]"] ;
888 -> 890 ;
891 [label="mse = 0.0\nsamples = 2\nvalue = [[0.0]\n[0.0]\n[1.0]\n[0.0]\n[0.0]]"] ;
890 -> 891 ;
892 [label="mse = 0.0\nsamples = 2\nvalue = [[0.0]\n[1.0]\n[0.0]\n[0.0]\n[0.0]]"] ;
890 -> 892 ;
893 [label="mse = 0.0\nsamples = 1\nvalue = [[0.0]\n[0.0]\n[0.0]\n[1.0]\n[0.0]]"] ;
877 -> 893 ;
894 [label="volatile acidity <= 0.4\nmse = 0.1\nsamples = 13\nvalue = [[0.1]\n[0.4]\n[0.3]\n[0.2]\n[0.0]]"] ;
872 -> 894 ;
895 [label="mse = 0.0\nsamples = 3\nvalue = [[0.0]\n[1.0]\n[0.0]\n[0.0]\n[0.0]]"] ;
894 -> 895 ;
896 [label="residual sugar <= 1.7\nmse = 0.1\nsamples = 10\nvalue = [[0.2]\n[0.2]\n[0.5]\n[0.2]\n[0.0]]"] ;
894 -> 896 ;
897 [label="pH <= 3.2\nmse = 0.1\nsamples = 3\nvalue = [[0.4]\n[0.0]\n[0.0]\n[0.6]\n[0.0]]"] ;
896 -> 897 ;
898 [label="mse = 0.0\nsamples = 1\nvalue = [[0.0]\n[0.0]\n[0.0]\n[1.0]\n[0.0]]"] ;
897 -> 898 ;
899 [label="mse = 0.0\nsamples = 2\nvalue = [[1.0]\n[0.0]\n[0.0]\n[0.0]\n[0.0]]"] ;
897 -> 899 ;
900 [label="free sulfur dioxide <= 20.5\nmse = 0.1\nsamples = 7\nvalue = [[0.0]\n[0.2]\n[0.8]\n[0.0]\n[0.0]]"] ;
896 -> 900 ;
901 [label="mse = 0.0\nsamples = 4\nvalue = [[0.0]\n[0.0]\n[1.0]\n[0.0]\n[0.0]]"] ;
900 -> 901 ;
902 [label="volatile acidity <= 0.5\nmse = 0.1\nsamples = 3\nvalue = [[0.0]\n[0.7]\n[0.3]\n[0.0]\n[0.0]]"] ;
900 -> 902 ;
903 [label="mse = 0.0\nsamples = 2\nvalue = [[0.0]\n[1.0]\n[0.0]\n[0.0]\n[0.0]]"] ;
902 -> 903 ;
904 [label="mse = 0.0\nsamples = 1\nvalue = [[0.0]\n[0.0]\n[1.0]\n[0.0]\n[0.0]]"] ;
902 -> 904 ;
905 [label="free sulfur dioxide <= 12.0\nmse = 0.0\nsamples = 2\nvalue = [[0.0]\n[0.0]\n[0.1]\n[0.9]\n[0.0]]"] ;
871 -> 905 ;
906 [label="mse = 0.0\nsamples = 1\nvalue = [[0.0]\n[0.0]\n[0.0]\n[1.0]\n[0.0]]"] ;
905 -> 906 ;
907 [label="mse = 0.0\nsamples = 1\nvalue = [[0.0]\n[0.0]\n[1.0]\n[0.0]\n[0.0]]"] ;
905 -> 907 ;
908 [label="alcohol <= 11.5\nmse = 0.1\nsamples = 1600\nvalue = [[0.0]\n[0.2]\n[0.5]\n[0.3]\n[0.1]]"] ;
0 -> 908 [labeldistance=2.5, labelangle=-45, headlabel="False"] ;
909 [label="free sulfur dioxide <= 15.2\nmse = 0.1\nsamples = 894\nvalue = [[0.0]\n[0.2]\n[0.5]\n[0.2]\n[0.0]]"] ;
908 -> 909 ;
910 [label="total sulfur dioxide <= 73.5\nmse = 0.1\nsamples = 208\nvalue = [[0.1]\n[0.4]\n[0.4]\n[0.1]\n[0.0]]"] ;
909 -> 910 ;
911 [label="sulphates <= 0.6\nmse = 0.1\nsamples = 150\nvalue = [[0.1]\n[0.3]\n[0.5]\n[0.1]\n[0.0]]"] ;
910 -> 911 ;
912 [label="free sulfur dioxide <= 7.5\nmse = 0.1\nsamples = 92\nvalue = [[0.1]\n[0.4]\n[0.5]\n[0.0]\n[0.0]]"] ;
911 -> 912 ;
913 [label="sulphates <= 0.4\nmse = 0.1\nsamples = 37\nvalue = [[0.2]\n[0.6]\n[0.2]\n[0.0]\n[0.0]]"] ;
912 -> 913 ;
914 [label="citric acid <= 0.0\nmse = 0.1\nsamples = 7\nvalue = [[0.7]\n[0.2]\n[0.1]\n[0.0]\n[0.0]]"] ;
913 -> 914 ;
915 [label="mse = 0.0\nsamples = 3\nvalue = [[1.0]\n[0.0]\n[0.0]\n[0.0]\n[0.0]]"] ;
914 -> 915 ;
916 [label="total sulfur dioxide <= 31.0\nmse = 0.1\nsamples = 4\nvalue = [[0.2]\n[0.5]\n[0.2]\n[0.0]\n[0.0]]"] ;
914 -> 916 ;
917 [label="mse = 0.0\nsamples = 2\nvalue = [[0.0]\n[1.0]\n[0.0]\n[0.0]\n[0.0]]"] ;
916 -> 917 ;
918 [label="residual sugar <= 8.1\nmse = 0.1\nsamples = 2\nvalue = [[0.5]\n[0.0]\n[0.5]\n[0.0]\n[0.0]]"] ;
916 -> 918 ;
919 [label="mse = 0.0\nsamples = 1\nvalue = [[1.0]\n[0.0]\n[0.0]\n[0.0]\n[0.0]]"] ;
918 -> 919 ;
920 [label="mse = 0.0\nsamples = 1\nvalue = [[0.0]\n[0.0]\n[1.0]\n[0.0]\n[0.0]]"] ;
918 -> 920 ;
921 [label="pH <= 3.3\nmse = 0.1\nsamples = 30\nvalue = [[0.1]\n[0.7]\n[0.3]\n[0.0]\n[0.0]]"] ;
913 -> 921 ;
922 [label="chlorides <= 0.1\nmse = 0.1\nsamples = 15\nvalue = [[0.0]\n[0.5]\n[0.5]\n[0.0]\n[0.0]]"] ;
921 -> 922 ;
923 [label="mse = 0.0\nsamples = 5\nvalue = [[0.0]\n[1.0]\n[0.0]\n[0.0]\n[0.0]]"] ;
922 -> 923 ;
924 [label="citric acid <= 0.6\nmse = 0.1\nsamples = 10\nvalue = [[0.0]\n[0.2]\n[0.8]\n[0.0]\n[0.0]]"] ;
922 -> 924 ;
925 [label="citric acid <= 0.2\nmse = 0.0\nsamples = 9\nvalue = [[0.0]\n[0.1]\n[0.9]\n[0.0]\n[0.0]]"] ;
924 -> 925 ;
926 [label="alcohol <= 10.8\nmse = 0.1\nsamples = 2\nvalue = [[0.0]\n[0.5]\n[0.5]\n[0.0]\n[0.0]]"] ;
925 -> 926 ;
